tree
version=v4
num_class=1
num_tree_per_iteration=1
label_index=0
max_feature_idx=9
objective=quantile
feature_names=Column_0 Column_1 Column_2 Column_3 Column_4 Column_5 Column_6 Column_7 Column_8 Column_9
feature_infos=[0.0018922234427241:1] [0:1] [0.03406563919175:1] [0:1] [0:1] [0.0018922234427241:1] [0:1] [0.0122487878574938:0.99354841543110117] [0:1] [0:1]
tree_sizes=2662 2788 2767 2780 2800 2787 2779 2792 2796 2806 2791 2802 2781 2800 2819 2806 2807 2812 2804 2815 2797 2804 2816 2817 2808 2823 2828 2811 2834 2835 2806 2833 2847 2837 2834 2827 2831 2842 2814 2847 2845 2832 2836 2835 2854 2827 2851 2826 2845 2841 2842 2842 2833 2850 2840 2844 2841 2850 2859 2854 2854 2844 2828 2853 2860 2868 2847 2860 2850 2843 2849 2845 2880 2851 2842 2838 2855 2829 2841 2852 2832 2846 2857 2876 2865 2863 2838 2858 2849 2870 2855 2865 2848 2855 2847 2854 2846 2866 2852 2858 2854 2858 2853 2871 2839 2855 2837 2857 2874 2865 2883 2843 2837 2878 2851 2853 2877 2857 2857 2845 2859 2871 2866 2859 2860 2832 2858 2870 2866 2882 2843 2859 2836 2851 2860 2861 2843 2860 2837 2855 2877 2867 2873 2858 2872 2852 2859 2837 2848 2880 2839 2817 2848 2847 2866 2869 2877 2872 2888 2840 2875 2842 2847 2840 2846 2842 2842 2832 2859 2854 2829 2859 2868 2835 2862 2861 2854 2869 2826 2858 2857 2848 2847 2845 2841 2844 2839 2859 2840 2845 2856 2867 2868 2839 2840 2851 2871 2857 2840 2858 2835 2849 2838 2839 2851 2865 2850 2834 2877 2857 2826 2836 2847 2834 2827 2866 2855 2865 2845 2833 2870 2847 2827 2845 2866 2845 2849 2859 2848 2822 2850 2868 2851 2872 2852 2860 2837 2841 2849 2850 2821 2859 2860 2874 2848 2843 2865 2870 2830 2826 2862 2841 2863 2849 2852 2860 2806 2870 2856 2844 2829 2853 2854 2860 2863 2839 2837 2847 2873 2880 2847 2856 2841 2851 2848 2845 2849 2848 2849 2825 2823 2865 2866 2848 2847 2852 2856 2855 2843 2813 2851 2852 2872 2844 2848 2875 2841 2859 2877 2865 2846 2834 2847 2846 2863 2880 2852 2832 2864 2849 2847 2855 2850 2854 2848 2852 2862 2855 2845 2864 2842 2840 2839 2860 2845 2865 2873 2877 2860 2854 2842 2844 2851 2865 2871 2837 2844 2868 2844 2844 2873 2864 2858 2871 2875 2863 2843 2858 2867 2852 2854 2859 2878 2883 2874 2854 2863 2878 2857 2856 2859 2884 2848 2859 2855 2875 2849 2856 2832 2835 2838 2871 2872 2843 2850 2847 2872 2853 2861 2829 2869 2850 2871 2868 2878 2867 2882 2873 2863 2860 2850 2844 2845 2858 2870 2868 2863 2850 2852 2867 2862 2849 2840 2848 2880 2857 2852 2843 2871 2836 2859 2867 2886 2854 2853 2858 2846 2853 2854 2883 2848 2840 2851 2880 2856 2838 2859 2875 2839 2856 2825 2844 2852 2856 2865 2847 2862 2872 2854 2881 2862 2879 2865 2910 2860 2842 2845 2843 2867 2870 2854 2860 2864 2859 2854 2861 2874 2874 2853 2868 2865 2864 2883 2892 2875 2833 2848 2879 2869 2846 2849 2874 2838 2871 2860 2841 2852 2828 2874 2849 2849 2874 2851 2836 2870 2857 2878 2868 2872 2852 2857 2837 2862 2852 2855 2850 2846 2864 2891 2855 2867 2860 2864 2870 2851 2857 2874 2838 2869 2871 2863 2866 2839 2878 2860 2886 2870 2865 2854 2863 2863 2859 2852 2884 2840 2897 2845 2868 2849 2889 2849 2855 2853 2882 2859 2864 2845 2863 2861 2845 2819 2854 2864 2858 2852 2838 2842 2881 2855 2843 2856 2888 2845 2831 2855 2828 2830 2872 2870 2845 2855 2839 2819 2835 2867 2864 2864 2865 2871 2854 2871 2864 2865 2830 2869 2863 2840 2848 2867 2847 2858 2858 2856 2834 2869 2861 2867 2861 2871 2881 2859 2856 2870 2837 2864 2834 2832 2857 2883 2827 2846 2842 2811 2836 2855 2861 2847 2872 2882 2836 2844 2865 2855 2849 2859 2829 2883 2860 2840 2846 2839 2844 2828 2808 2858 2842 2858 2858 2831 2856 2856 2849 2859 2894 2883 2869 2850 2847 2831 2862 2859 2865 2858 2878 2843 2872 2871 2880 2865 2853 2812 2867 2846 2841 2855 2864 2865 2869 2868 2821 2835 2848 2870 2887 2851 2881 2872 2894 2878 2858 2831 2856 2851 2883 2858 2855 2835 2853 2819 2843 2884 2857 2880 2874 2841 2874 2866 2868 2859 2854 2845 2868 2834 2851 2872 2834 2861 2853 2872 2852 2873 2870 2863 2876 2847 2867 2850 2868 2846 2893 2823 2879 2848 2871 2839 2852 2844 2856 2850 2855 2861 2850 2870 2840 2847 2853 2877 2827 2863 2854 2870 2874 2847 2848 2860 2881 2855 2845 2871 2855 2845 2886 2852 2841 2870 2864 2864 2852 2868 2854 2853 2859 2848 2857 2866 2840 2869 2882 2866 2890 2861 2851 2869 2880 2874 2866 2828 2835 2860 2851 2846 2850 2840 2856 2856 2894 2859 2861 2862 2865 2883 2868 2874 2842 2865 2871 2859 2880 2879 2857 2863 2880 2860 2873 2859 2865 2866 2849 2868 2848 2840 2863 2850 2852 2840 2840 2872 2852 2856 2849 2863 2846 2851 2850 2838 2866 2854 2872 2882 2860 2834 2856 2869 2855 2866 2860 2841 2852 2858 2869 2878 2859 2867 2843 2871 2870 2854 2856 2862 2874 2854 2876 2833 2847 2862 2835 2846 2841 2873 2866 2884 2865 2859 2854 2844 2851 2868 2847 2835 2870 2854 2904 2886 2865 2839 2842 2854 2863 2859 2870 2874 2851 2844 2845 2828 2869 2848 2859 2848 2848 2841 2855 2863 2890 2860 2856 2862 2883 2885 2880 2874 2870 2859 2877 2841 2829 2867 2865 2860 2861 2856 2846 2849 2886 2886 2845 2857 2818 2840 2854 2869 2871 2871 2856 2844 2872 2872 2860 2900 2878 2838 2847 2864 2851 2873 2884 2856 2849 2862 2843 2866 2826 2869 2865 2873 2870 2877 2853 2851 2886 2897 2861 2868 2887 2877 2861 2879 2865 2856 2855 2836 2862 2837 2857 2876 2877 2859 2875 2840 2835 2860 2839 2830 2831 2862 2864 2841 2860 2871 2863 2856 2858 2848 2829 2829 2828 2839 2831 2829 2868 2837 2847 2835 2847 2865 2871 2860 2865 2839 2860 2871 2848 2834 2841 2862 2855 2837 2860 2857 2868

Tree=0
num_leaves=31
num_cat=0
split_feature=7 0 2 0 1 0 0 7 7 5 1 5 0 0 6 0 6 0 5 0 4 0 1 9 5 3 7 6 7 0
split_gain=375.745 61.8857 14.3925 16.4216 10.5701 8.56494 5.4812 4.98446 4.52492 4.47668 4.21736 2.60828 5.34188 2.49448 3.80846 2.30894 1.86678 3.58061 1.82222 1.6 1.14479 1.45455 0.810183 0.620225 0.52201 1.95556 0.219928 0.3663 0.14166 0.0646276
threshold=0.48507220153186709 0.24209235012548003 0.60776977291471945 0.2522109348064881 0.67967721302608342 0.72250863928287956 0.14752928536493451 0.54343071463706016 0.47019051718080229 0.33200904418662452 0.71023539086407239 0.29858644494511749 0.50030067109789067 0.38155563217100569 0.26232056837800383 0.36421292324468219 0.5293087625278583 0.15134981278212969 0.66330850458222768 0.71698831792561013 0.51570335790714339 0.4727551895831496 0.57102197512186492 0.39063119825663167 0.14240985880485243 0.73128917291385054 0.42445848851099727 0.14762695890564448 0.63849386901834027 0.68244722219995035
decision_type=2 2 2 2 2 2 2 2 2 2 2 2 2 2 2 2 2 2 2 2 2 2 2 2 2 2 2 2 2 2
left_child=2 4 5 10 23 8 -6 11 16 15 -4 -3 -13 14 -9 -5 20 -18 -14 -20 24 -22 -16 -2 25 -1 29 -28 -24 -26
right_child=1 7 3 9 6 -7 -8 13 -10 -11 -12 12 18 -15 22 -17 17 -19 19 -21 21 -23 28 -25 26 -27 27 -29 -30 -31
leaf_value=0.52653219997882839 0.52488271147012711 0.53639099597930906 0.52197314202785494 0.53049299418926243 0.52763051092624669 0.52958591878414152 0.5311605885624886 0.52917369306087492 0.52833074927330015 0.52806411534547804 0.52848789691925047 0.52849627584218983 0.53207286298274992 0.54044682979583736 0.53099361658096311 0.53561276197433472 0.51472810506820676 0.52992101609706876 0.52905785292387009 0.5306094110012054 0.51972394511103626 0.52832092642784123 0.53444974422454838 0.52220597714185713 0.52255580723285677 0.51453744582831862 0.52739594280719759 0.52686498612165455 0.53571011424064641 0.52547259926795964
leaf_weight=24 20 51 83 22 21 28 36 27 35 20 26 36 41 847 20 37 29 20 20 20 22 22 39 69 664 66 52 39 62 57
leaf_count=24 20 51 83 22 21 28 36 27 35 20 26 36 41 847 20 37 29 20 20 20 22 22 39 69 664 66 52 39 62 57
internal_value=0.528992 0.547689 0.509329 0.522077 0.517005 0.507064 0.533816 0.551541 0.506322 0.539435 0.509496 0.543575 0.539462 0.552886 0.546897 0.546365 0.5057 0.515216 0.546584 0.538992 0.505207 0.513083 0.550686 0.506239 0.504823 0.508436 0.504423 0.506739 0.552507 0.50413
internal_weight=0 1309 1246 188 146 1058 57 1163 1030 79 109 168 117 995 148 59 995 49 81 40 946 44 121 89 902 90 812 91 101 721
internal_count=2555 1309 1246 188 146 1058 57 1163 1030 79 109 168 117 995 148 59 995 49 81 40 946 44 121 89 902 90 812 91 101 721
is_linear=0
shrinkage=1


Tree=1
num_leaves=31
num_cat=0
split_feature=7 0 2 0 1 0 0 5 0 1 0 1 7 7 5 4 6 3 6 1 2 9 0 9 0 7 6 0 6 4
split_gain=371.005 60.6645 13.9793 16.9484 9.13956 8.76698 5.14482 5.09406 6.5374 5.39542 4.61897 8.39683 4.15081 3.22001 4.37586 2.29167 2.104 1.6 1.54053 0.992063 0.848381 0.845666 0.534616 0.532266 2.45581 0.32003 0.402595 0.142535 0.966296 0.127586
threshold=0.48507220153186709 0.24209235012548003 0.56519468441479459 0.19085398609696838 0.67593129563449694 0.72250863928287956 0.14752928536493451 0.39504975104433099 0.29858644494511749 0.59569539945509042 0.36823790700844289 0.51249349297509017 0.46532218396458419 0.51909124446630572 0.60715917928817131 0.51570335790714339 0.34318275358502576 0.33065011675064532 0.50281555498231634 0.71640374694737874 0.6214477425232926 0.39403975642300382 0.28402995485924587 0.35882657503335791 0.43805774488658683 0.42445848851099727 0.14762695890564448 0.48224036048460162 0.23169148989537908 0.47754269603198446
decision_type=2 2 2 2 2 2 2 2 2 2 2 2 2 2 2 2 2 2 2 2 2 2 2 2 2 2 2 2 2 2
left_child=2 4 5 19 21 12 -6 8 9 -5 11 -3 18 14 -12 -9 -13 -16 23 -4 -10 -2 -18 24 -1 29 -27 28 -15 -25
right_child=1 10 3 7 6 -7 -8 15 20 -11 13 16 -14 27 17 -17 22 -19 -20 -21 -22 -23 -24 25 -26 26 -28 -29 -30 -31
leaf_value=-0.012026256024837496 -0.0039035383611917499 -0.0010581850260496129 -0.011550230234861375 -0.0023524779360741379 -0.001590094864368441 0.00056450858712196468 0.0018203871697187403 -0.0015021172538399715 0.00197649747133255 0.0015368831157684339 0.0058346683531999566 0.0021454901248216642 -0.00068134546279907118 0.0021929526329040549 0.00058507762849331071 -0.00012638989835977443 0.0033548170328140253 -0.00047042183578014377 -0.0098990078270435322 -0.0015330123901367177 0.0061998814344406128 -0.0071426301449537266 0.0058510327339172359 -0.0060326342284679427 -0.00065054439008236102 -0.0016742740571498882 -0.0027538356930017494 0.011776738762855532 0.0082697713375091582 -0.0029270402342081087
leaf_weight=66 22 24 105 24 22 28 38 20 20 22 47 28 34 22 20 24 30 20 34 21 41 64 86 666 20 59 32 761 125 30
leaf_count=66 22 24 105 24 22 28 38 20 20 22 47 28 34 22 20 24 30 20 34 21 41 64 86 666 20 59 32 761 125 30
internal_value=0 0.0187357 -0.019382 -0.00947653 -0.0116438 -0.0222136 0.00333333 0.00182119 0.00771028 -0.00652174 0.0225494 0.014881 -0.023034 0.0238442 0.0146552 -0.0125 0.0194444 0.0025 -0.023677 -0.0230159 0.0184426 -0.022093 0.0224138 -0.0240836 -0.0203488 -0.0244917 -0.0217033 0.0247247 0.0232993 -0.0248563
internal_weight=0 1309 1246 277 146 969 60 151 107 46 1163 168 941 995 87 44 144 40 907 126 61 86 116 873 86 787 91 908 147 696
internal_count=2555 1309 1246 277 146 969 60 151 107 46 1163 168 941 995 87 44 144 40 907 126 61 86 116 873 86 787 91 908 147 696
is_linear=0
shrinkage=0.05


Tree=2
num_leaves=31
num_cat=0
split_feature=7 0 1 2 0 0 0 5 0 1 7 2 8 0 7 1 4 7 6 5 0 1 1 4 0 9 0 0 9 0
split_gain=367.185 60.6943 16.4944 14.2795 16.4835 8.58782 6.84542 5.25227 5.58574 5.68725 3.9351 3.88491 3.54114 9 3.47948 3.26399 2.04848 1.62857 1.55594 1.31688 1.13303 1.83574 1.00932 0.934355 0.980234 0.809808 0.9 0.494418 0.245455 0.153488
threshold=0.48507220153186709 0.28402995485924587 0.66410270475444011 0.54747111816143224 0.19085398609696838 0.73105170741094139 0.20110085711307638 0.42599482043922027 0.29858644494511749 0.57833655829344854 0.55314322605579347 0.60776977291471945 0.48518248195912167 0.50717200792168138 0.47019051718080229 0.7480490680031151 0.50793256453513902 0.51588301946454929 0.50281555498231634 0.6858788816638739 0.3461646394753089 0.61001732967150291 0.71640374694737874 0.4998093411291627 0.61129641359514453 0.32118818486710948 0.21551302507196063 0.21172456923854036 0.42360527956230326 0.37198627336214435
decision_type=2 2 2 2 2 2 2 2 2 2 2 2 2 2 2 2 2 2 2 2 2 2 2 2 2 2 2 2 2 2
left_child=3 2 27 5 22 14 15 8 9 -6 12 -10 29 -14 18 -4 -9 19 23 -15 21 -12 -5 25 -25 26 -1 -2 -8 -3
right_child=1 10 6 4 7 -7 28 16 11 -11 20 -13 13 17 -16 -17 -18 -19 -20 -21 -22 -23 -24 24 -26 -27 -28 -29 -30 -31
leaf_value=-0.015315004881471396 -0.0078595437891781309 0.0027638547420501731 -0.0017722116988152293 -0.011253507114946843 -0.0027195023335516489 0.001907294295728207 0.0024137185402214492 -0.0013138008443638689 -0.00015049122273921856 0.00086261025327258052 0.0019206428490579131 0.0058898873627185825 -0.0021157158408314004 0.0011852962188422717 -0.00027809298038482532 0.0012374104447662793 -0.00056434349529445045 0.0021433618962764744 -0.0078576480820775011 0.00010594077780842759 0.0102796730697155 0.005836017906665803 -0.0014563617706298826 -0.0036580815315246542 -0.00087314615398645379 -0.0055700982883572616 -0.0031720133274793618 -0.0018964341320097445 0.0034432770200073684 0.0070170187484473014
leaf_weight=20 62 20 24 117 27 20 24 22 27 26 21 47 20 20 20 23 33 38 26 22 859 57 21 30 37 753 20 33 20 66
leaf_count=20 62 20 24 117 27 20 24 22 27 26 21 47 20 20 20 23 33 38 26 22 859 57 21 30 37 753 20 33 20 66
internal_value=0 0.0186593 -0.0077957 -0.0192616 -0.0101563 -0.0224082 0.00741758 -0.000274725 0.00531496 -0.00707547 0.023041 0.0141892 0.0163978 0.01 -0.0231236 -0.00585106 -0.0131818 0.0175 -0.0235892 0.0107143 0.0243597 0.0185897 -0.0231884 -0.0239535 -0.0182836 -0.0244325 -0.0175 -0.0223684 0.0215909 0.0238372
internal_weight=0 1309 186 1246 320 926 91 182 127 53 1123 74 186 100 906 47 55 80 886 42 937 78 138 860 67 793 40 95 44 86
internal_count=2555 1309 186 1246 320 926 91 182 127 53 1123 74 186 100 906 47 55 80 886 42 937 78 138 860 67 793 40 95 44 86
is_linear=0
shrinkage=0.05


Tree=3
num_leaves=31
num_cat=0
split_feature=7 0 2 0 1 0 6 7 0 0 0 8 5 0 6 0 1 7 0 4 5 3 0 0 1 4 0 6 7 9
split_gain=361.105 55.8961 14.0196 16.7636 8.91761 8.66668 7.40753 5.55803 4.27089 3.97937 3.23665 10.108 3.20942 2.50708 3.24664 2.2359 3.24039 2.21219 2.13333 1.72323 1.68387 3.1838 1.41423 1.225 1.03124 0.870923 1.02171 1.00312 0.503704 0.377665
threshold=0.48507220153186709 0.24209235012548003 0.52839901969314007 0.19085398609696838 0.67967721302608342 0.73105170741094139 0.50929114719237756 0.56876932401096181 0.14752928536493451 0.31092197785457137 0.45308729083313959 0.47672222585106661 0.15134981278212969 0.44798790901291685 0.29530118490771279 0.3461646394753089 0.62851058114731595 0.46532218396458419 0.31092197785457137 0.50793256453513902 0.60715917928817131 0.43634017451149082 0.19085398609696838 0.302523231853497 0.71640374694737874 0.4998093411291627 0.61129641359514453 0.48821002218736104 0.51342579579790604 0.31213068050096088
decision_type=2 2 2 2 2 2 2 2 2 2 2 2 2 2 2 2 2 2 2 2 2 2 2 2 2 2 2 2 2 2
left_child=2 4 5 24 22 17 12 10 -6 -8 11 18 23 -14 19 16 -9 25 -3 -15 -12 28 -2 -5 -4 27 -27 29 -22 -1
right_child=1 7 3 6 8 -7 9 15 -10 -11 20 -13 13 14 -16 -17 -18 -19 -20 -21 21 -23 -24 -25 -26 26 -28 -29 -30 -31
leaf_value=-0.011816189076937733 -0.0075572736931964757 0.0021020230720750987 -0.010747161948308352 -0.0012394178062851979 -0.0012754946568980853 0.0018119295809417959 -0.00055856419595657074 0.00054266952555626633 0.0018992632819339605 0.005265494696795942 0.0045447303974069653 -0.0019734358924441086 -0.0036739675737917422 -0.0014086824173573432 0.00034871226488612518 0.010235402329266076 0.005195312522910534 -0.00077288547884672709 0.0051729532540775837 -0.00017271680133417179 0.00069686865881085365 0.00017943511446937845 -0.0022694354686886051 0.0022951160371303572 -0.0013835436820983872 -0.0033864924490451757 -0.00064791748188435807 -0.0052312544155865897 0.0017265278533101114 -0.0053320366155356182
leaf_weight=21 59 20 136 20 21 20 32 34 36 38 87 23 41 25 20 814 65 24 40 21 20 26 30 20 21 25 29 22 34 731
leaf_count=21 59 20 136 20 21 20 32 34 36 38 87 23 41 25 20 814 65 24 40 21 20 26 30 20 21 25 29 22 34 731
internal_value=0 0.0185447 -0.019061 -0.0109626 -0.0106164 -0.0225344 -0.00195853 0.0222055 0.00482456 0.0114286 0.0156 0.00753012 -0.00833333 -0.0128505 -0.00681818 0.0240142 0.0169192 -0.0232981 0.0183333 -0.0141304 0.0196108 0.014375 -0.0205056 0.00375 -0.0234076 -0.0237319 -0.0175926 -0.0241602 0.0212963 -0.0244681
internal_weight=0 1309 1246 374 146 872 217 1163 57 70 250 83 147 107 66 913 99 852 60 46 167 80 89 40 157 828 54 774 54 752
internal_count=2555 1309 1246 374 146 872 217 1163 57 70 250 83 147 107 66 913 99 852 60 46 167 80 89 40 157 828 54 774 54 752
is_linear=0
shrinkage=0.05


Tree=4
num_leaves=31
num_cat=0
split_feature=7 0 1 2 0 0 0 7 7 1 5 8 0 7 9 0 9 2 0 9 3 6 0 0 6 0 0 5 1 6
split_gain=350.689 54.0264 15.3739 13.6993 14.2915 8.01049 6.63048 5.85072 4.7321 4.48397 4.24355 4.04607 9.32879 3.09233 3.02634 4.07727 2.48509 1.82054 3.0201 6.15431 1.79375 1.70432 2.89366 1.24555 2.67932 1.01053 0.830523 0.753036 0.649962 0.534688
threshold=0.48507220153186709 0.28402995485924587 0.66410270475444011 0.60776977291471945 0.2522109348064881 0.72250863928287956 0.14752928536493451 0.43215735015107837 0.56876932401096181 0.71023539086407239 0.26094643243719989 0.47672222585106661 0.46198715533069817 0.52075135268076733 0.68744944798487451 0.64504373762237333 0.53566911548784957 0.466173890347096 0.45050953728722515 0.40284675462502645 0.43634017451149082 0.17786608384277278 0.32321742128430658 0.38155563217100569 0.27323926765190248 0.20110085711307638 0.41689851749104001 0.52452674369192043 0.54997630043916645 0.37140121015003646
decision_type=2 2 2 2 2 2 2 2 2 2 2 2 2 2 2 2 2 2 2 2 2 2 2 2 2 2 2 2 2 2
left_child=3 2 25 5 9 7 -4 17 11 -5 26 -3 -13 20 15 21 -8 29 28 -20 -14 -9 -23 24 -10 -2 -6 -21 -19 -1
right_child=1 8 6 4 10 -7 16 14 23 -11 -12 12 13 -15 -16 -17 -18 18 19 27 -22 22 -24 -25 -26 -27 -28 -29 -30 -31
leaf_value=-0.0051957171271927675 -0.0071794100085366521 0.0055280265325913184 -0.0014334453569538885 -0.0054257108732499231 0.0026739133764058344 0.0004480259879364179 0.0028780854303110393 -0.0014160916122025803 0.00069382573773153495 -0.00025996629238128621 -0.0001570478088888938 -0.0018740406464459404 0.00070941871084272969 0.0018942635022848875 -0.0010101569573022441 0.0002765137767780118 0.00068917794113047002 -0.010153473661784086 0.0011338692252722132 -0.0020659443318413102 -8.3889535586351158e-05 -0.0076219564765132976 0.00017639096220838926 0.0099899770580977217 0.0051655853056162609 -0.0020629647741699565 0.0059272035825997608 -0.0030583486567623886 -0.0051944186564488355 -0.0051511367908865209
leaf_weight=624 57 96 24 83 23 28 45 32 20 26 30 23 27 66 41 22 22 139 20 26 23 27 20 779 89 38 26 31 20 28
leaf_count=624 57 96 24 83 23 28 45 32 20 26 30 23 27 66 41 22 22 139 20 26 23 27 20 779 89 38 26 31 20 28
internal_value=0 0.0182391 -0.00672043 -0.0188202 -0.00638298 -0.0210302 0.00796703 -0.0217476 0.0223731 -0.0181193 0.00981013 0.0160638 0.0106115 0.0163793 -0.0123239 -0.00767327 0.0160448 -0.0232545 -0.0194915 -0.0113636 0.007 -0.0129747 -0.00691489 0.0240428 0.0190367 -0.0207895 0.0188776 -0.0197368 -0.0234277 -0.0246166
internal_weight=0 1309 186 1246 188 1058 91 1030 1123 109 79 235 139 116 142 101 67 888 236 77 50 79 47 888 109 95 49 57 159 652
internal_count=2555 1309 186 1246 188 1058 91 1030 1123 109 79 235 139 116 142 101 67 888 236 77 50 79 47 888 109 95 49 57 159 652
is_linear=0
shrinkage=0.05


Tree=5
num_leaves=31
num_cat=0
split_feature=7 0 2 0 1 0 7 6 0 8 0 0 0 4 7 0 0 6 4 7 8 9 9 0 1 5 0 0 1 0
split_gain=346.365 51.3181 13.1983 15.9166 8.49559 8.48435 6.92853 6.52309 4.58276 12.9926 4.52682 4.16208 3.47739 2.81181 2.70038 2.59426 2.42134 2.9296 2.65571 2.35286 2.25495 1.96 1.02903 3.68441 0.96853 0.942205 0.857143 0.648576 1.62284 0.32967
threshold=0.48507220153186709 0.24209235012548003 0.52839901969314007 0.19085398609696838 0.65162419129855598 0.73105170741094139 0.62549847164640615 0.51249349297509017 0.59985487608341836 0.54116245452505873 0.31092197785457137 0.14752928536493451 0.31092197785457137 0.24787386471308728 0.43215735015107837 0.502597798285774 0.42199389036329088 0.3068461732092268 0.50793256453513902 0.49942027967114044 0.63553165567126846 0.45724973854626577 0.40668226802742818 0.52740516833572548 0.71640374694737874 0.53904715324604535 0.20110085711307638 0.39214326376472292 0.57102197512186492 0.67462175575885397
decision_type=2 2 2 2 2 2 2 2 2 2 2 2 2 2 2 2 2 2 2 2 2 2 2 2 2 2 2 2 2 2
left_child=2 4 5 24 26 14 8 13 9 10 -3 -6 -9 -5 22 -11 -15 18 -18 -10 -16 -13 23 -1 -4 -12 -2 28 -8 -22
right_child=1 6 3 7 11 -7 27 12 19 15 25 21 -14 16 20 -17 17 -19 -20 -21 29 -23 -24 -25 -26 -27 -28 -29 -30 -31
leaf_value=-0.010258352148656736 -0.007062211124151483 0.0012884333603885023 -0.0098550331360315949 0.00099583514696284232 -0.0013617730891061941 0.0016989318024978829 0.0013251443753726777 -0.00054147874414952062 0.00054355642431369317 -0.00086663005996868167 0.0054791303152926301 0.001212260522499209 0.0050357580806128684 -0.00310548960317118 -0.0015786154643428751 0.00013748672434454602 -0.0012335923182428849 0.00027735350399639148 -4.3888903083069701e-05 0.0027943055271469064 -0.0014086862674565631 -0.00020707632708689139 -0.0047952486629439517 -0.0002936585065811237 -0.0013013681833744075 0.0016589580524241339 -0.0024932970039981853 0.01062056587885693 0.0050423508504466143 -0.00064016291015502047
leaf_weight=71 54 39 136 27 26 20 21 32 28 29 111 25 37 45 39 26 28 26 22 155 30 20 666 20 21 28 21 640 86 26
leaf_count=71 54 39 136 27 26 20 21 32 28 29 111 25 37 45 39 26 28 26 22 155 30 20 666 20 21 28 21 640 86 26
internal_value=0 0.0180099 -0.0188202 -0.0109626 -0.00993151 -0.0221904 0.0215176 -0.00218894 0.0163462 0.0116953 0.0182584 0.00246479 0.0105072 -0.00810811 -0.022946 -0.00954545 -0.0113636 -0.00592105 -0.013 0.0222678 -0.015 0.0116667 -0.0239432 -0.018956 -0.0230892 0.022482 -0.0216667 0.0243976 0.0207944 -0.0214286
internal_weight=0 1309 1246 374 146 872 1163 217 416 233 178 71 69 148 852 55 121 76 50 183 95 45 757 91 157 139 75 747 107 56
internal_count=2555 1309 1246 374 146 872 1163 217 416 233 178 71 69 148 852 55 121 76 50 183 95 45 757 91 157 139 75 747 107 56
is_linear=0
shrinkage=0.05


Tree=6
num_leaves=31
num_cat=0
split_feature=7 0 2 0 7 1 0 1 0 5 6 0 0 7 6 0 8 9 6 9 0 6 8 0 0 2 9 1 8 0
split_gain=329.125 54.3 12.974 15.045 9.64099 8.57765 7.49024 6.65553 6.33895 8.20717 4.85925 8.87008 4.26803 2.76003 4.32757 2.43928 5.86081 2.14286 2.01375 1.96 1.74925 3.25587 1.7145 1.36111 1.07241 1.07143 1.0443 1.02806 0.975644 0.843134
threshold=0.47513570725880122 0.24209235012548003 0.52666519255965893 0.17042839618027433 0.57461044550628892 0.65162419129855598 0.72250863928287956 0.57833655829344854 0.42199389036329088 0.42599482043922027 0.45470946759699021 0.46198715533069817 0.14752928536493451 0.40221611271168617 0.20044793915924497 0.61718956711379813 0.57594066744860373 0.56397051626164962 0.053470902829427756 0.45724973854626577 0.38155563217100569 0.26232056837800383 0.49425049060397569 0.502597798285774 0.29858644494511749 0.68694787867702323 0.3172238765217123 0.66410270475444011 0.60079746220716446 0.3204432292877703
decision_type=2 2 2 2 2 2 2 2 2 2 2 2 2 2 2 2 2 2 2 2 2 2 2 2 2 2 2 2 2 2
left_child=2 5 6 25 10 -2 13 8 24 23 11 22 -7 26 28 16 -13 -11 -17 -14 21 -6 -3 -10 -5 -4 -1 -9 -15 -12
right_child=1 4 3 7 20 12 -8 27 9 17 29 15 19 14 -16 18 -18 -19 -20 -21 -22 -23 -24 -25 -26 -27 -28 -29 -30 -31
leaf_value=-0.0096734670422564742 -0.0060790777068804236 -0.00017739164445725042 -0.0095921552370394139 -0.003287489003292514 5.9883980897179615e-06 -0.0015154098675515927 0.0003154519918283083 0.00084129966322621938 0.00051451277190589788 -0.00012111350884353167 0.00191776015230119 0.001519218427467911 0.0011516474963742475 -0.0031226354338331434 0.00012748649239472943 0.00031005582050167013 -0.00020591630455562838 -0.0012717259134687549 0.0016801962209859857 -0.00019672251073254434 0.0090397582293881128 0.0043985155129764976 -0.0018654982389887361 0.0047839701765822256 -0.0016799593509890993 -0.0028339486497546114 -0.0048125871397451036 0.0036559853215570484 -0.0014089269128827022 0.0060481858810688795
leaf_weight=30 83 22 120 38 23 29 25 23 20 20 21 28 25 21 26 24 26 28 73 20 767 109 20 25 33 20 653 22 102 79
leaf_count=30 83 22 120 38 23 29 25 23 20 20 21 28 25 21 26 24 26 28 73 20 767 109 20 25 33 20 653 22 102 79
internal_value=0 0.0172906 -0.0186567 -0.0105301 0.0209312 -0.0103503 -0.0219662 -0.00203349 -0.00670732 0.00188172 0.0130546 0.00841969 0.00202703 -0.0227764 -0.0166107 0.0140728 0.00555556 -0.0125 0.0188144 0.0116667 0.0234983 0.0181818 -0.0119048 0.0172222 -0.0179577 -0.0232143 -0.0241215 0.015 -0.0205285 0.022
internal_weight=0 1349 1206 349 1192 157 857 209 164 93 293 193 74 832 149 151 54 48 97 45 899 132 42 45 71 140 683 45 123 100
internal_count=2555 1349 1206 349 1192 157 857 209 164 93 293 193 74 832 149 151 54 48 97 45 899 132 42 45 71 140 683 45 123 100
is_linear=0
shrinkage=0.05


Tree=7
num_leaves=31
num_cat=0
split_feature=7 0 6 0 7 7 1 5 0 4 5 5 0 1 0 9 0 0 8 7 0 0 5 0 1 1 0 8 2 7
split_gain=321.304 52.1958 13.4445 16.1685 10.0716 9.88728 9.13073 5.21048 10.0641 4.43345 4.24038 3.55904 4.67523 7.3003 3.52544 3.16801 3.00048 2.67533 10.1109 2.32232 2.17457 1.89083 1.65288 1.61684 2.87756 1.39574 1.38671 1.33811 1.0461 0.843702
threshold=0.47513570725880122 0.24209235012548003 0.27749330633004476 0.17042839618027433 0.33841393788208807 0.5957197315719206 0.67967721302608342 0.44830862485066675 0.61718956711379813 0.4860241270134732 0.60207583325983605 0.3366514059380537 0.31092197785457137 0.58503666921152264 0.14752928536493451 0.36512915556883579 0.39955580856471645 0.63673318847668015 0.6757924212690668 0.49942027967114044 0.57313523785088327 0.30562214863575504 0.13755903175888581 0.36823790700844289 0.62851058114731595 0.57833655829344854 0.18219465847772229 0.31404192356517852 0.68694787867702323 0.52957012859250929
decision_type=2 2 2 2 2 2 2 2 2 2 2 2 2 2 2 2 2 2 2 2 2 2 2 2 2 2 2 2 2 2
left_child=2 6 9 28 15 7 25 21 10 -1 16 12 13 -6 -8 22 -9 -11 -19 -10 -13 -3 -5 24 -7 -2 -27 -14 -4 -12
right_child=1 5 3 4 11 23 14 8 19 17 29 20 27 -15 -16 -17 -18 18 -20 -21 -22 -23 -24 -25 -26 26 -28 -29 -30 -31
leaf_value=-0.0042518815853720615 -0.0076340393479562814 0.0018204111315418077 -0.010194176323054693 0.00030628651220891982 -0.0025417513710436867 0.0011061677041020346 -0.00099618850837259192 -0.0012288987612962461 0.00026107185982335301 -0.0021359455488043771 -0.0010612786800698604 -0.0024271634085254179 0.0045447716677531119 0.0010429873903986032 0.0016661158040248815 -0.0049564770740104366 0.001195547983577583 0.00043496092990227554 -0.00084912085545356126 0.001575825239763995 0.0001458636402101199 0.0055626217328248271 -0.0023297448722569363 0.008882280071503568 0.0045541288017350188 -0.0041110637158677243 -2.1773410908160209e-05 0.00055664540406782925 -0.0026922512172668808 -0.00011642321718703387
leaf_weight=646 52 24 151 23 20 39 23 20 32 70 21 30 35 23 36 54 32 26 36 80 23 118 22 730 65 25 21 27 20 31
leaf_count=646 52 24 151 23 20 39 23 20 32 70 21 30 35 23 36 54 32 26 36 80 23 118 22 730 65 25 21 27 20 31
internal_value=0 0.0170682 -0.0184494 -0.0113318 -0.00340467 0.0206376 -0.0100318 0.0136872 0.0087963 -0.022365 -0.00240385 0.00443038 0.0097619 -0.00290698 0.00550847 -0.0159091 0.00769231 -0.0140152 -0.00645161 0.0191964 -0.00613208 0.0211268 -0.00611111 0.0236211 0.0177885 -0.0193878 -0.0130435 0.0185484 -0.0232456 -0.0125
internal_weight=0 1349 1206 428 257 1192 157 358 216 778 104 158 105 43 59 99 52 132 62 112 53 142 45 834 104 98 46 62 171 52
internal_count=2555 1349 1206 428 257 1192 157 358 216 778 104 158 105 43 59 99 52 132 62 112 53 142 45 834 104 98 46 62 171 52
is_linear=0
shrinkage=0.05


Tree=8
num_leaves=31
num_cat=0
split_feature=7 0 1 7 5 0 7 2 0 0 8 0 1 1 8 0 1 0 0 0 1 7 8 0 9 0 0 7 0 0
split_gain=315.467 46.0575 15.1022 13.7993 8.0365 9.64232 7.43509 6.92106 9.36192 5.87121 4.41198 10.1434 3.82789 3.09197 2.93214 9.93421 2.14019 5.16327 2.10439 1.93111 7.57358 1.86012 1.21779 3.75528 1.099 2.62113 1.04486 1.00445 0.999215 0.706522
threshold=0.48507220153186709 0.28402995485924587 0.65757984544795511 0.40221611271168617 0.37918634391962863 0.31092197785457137 0.57461044550628892 0.56519468441479459 0.20110085711307638 0.20110085711307638 0.48518248195912167 0.52585370547061061 0.60695678517806162 0.7480490680031151 0.69112823294529968 0.67462175575885397 0.57102197512186492 0.44798790901291685 0.69422952028928586 0.43205634977269264 0.50647875495516115 0.50233425268779419 0.5609825711340265 0.48224036048460162 0.32994108919307391 0.34095701605984557 0.60683846345042147 0.59210526315789491 0.36823790700844289 0.21172456923854036
decision_type=2 2 2 2 2 2 2 2 2 2 2 2 2 2 2 2 2 2 2 2 2 2 2 2 2 2 2 2 2 2
left_child=3 2 27 7 5 12 10 18 -9 13 28 -12 -5 -4 15 22 17 -10 24 20 -8 -13 23 29 25 -1 -23 -2 -3 -6
right_child=1 6 9 4 14 -7 19 8 16 -11 11 21 -14 -15 -16 -17 -18 -19 -20 -21 -22 26 -24 -25 -26 -27 -28 -29 -30 -31
leaf_value=-0.0097378357617670594 -0.0054228778623642698 0.0017279295618203906 -0.0016381564521069369 -0.0044434210530953115 -0.0089024210619303573 0.0024192356399424242 -0.00044247152358618537 -0.0076600228390735908 -0.0016105214668372505 0.002393954475474469 -0.0010031059605612597 0.00013445128968755382 6.2506261764563869e-05 0.00086803061375722028 -0.0010697007302185202 0.00062221296081937385 0.0015090825258072594 0.0033264543999015936 -0.0011952500925063532 0.0085555959353152081 0.0043588211690206323 0.001040108073005297 -0.0011876519220158145 5.1415253739300894e-05 -0.0043920069322585494 -0.00017921435587591323 0.0014333817901899665 -0.0019188093200924157 0.0053177998517241094 -0.0025030164558961401
leaf_weight=49 66 23 26 31 26 45 22 79 23 44 32 28 30 23 67 30 21 24 25 714 139 22 81 21 654 20 62 27 81 20
leaf_count=49 66 23 26 31 26 45 22 79 23 44 32 28 30 23 67 30 21 24 25 714 139 22 81 21 654 20 62 27 81 20
internal_value=0 0.0171314 -0.00591398 -0.0180177 -0.00961538 0.00188679 0.0209484 -0.0213128 -0.0113946 0.00833333 0.0133065 0.00763889 -0.0110656 -0.00357143 -0.0145918 -0.011236 0.00220588 -0.0037234 -0.023262 0.0231143 0.0181677 0.0147321 -0.0165541 -0.0115672 -0.0237552 -0.0177536 0.0184524 -0.0201613 0.0211538 -0.0195652
internal_weight=0 1309 186 1246 351 106 1123 895 147 93 248 144 61 49 245 178 68 47 748 875 161 112 148 67 723 69 84 93 104 46
internal_count=2555 1309 186 1246 351 106 1123 895 147 93 248 144 61 49 245 178 68 47 748 875 161 112 148 67 723 69 84 93 104 46
is_linear=0
shrinkage=0.05


Tree=9
num_leaves=31
num_cat=0
split_feature=7 0 1 7 1 0 0 5 0 2 0 8 8 0 0 7 1 1 7 0 1 0 6 0 7 8 0 0 1 0
split_gain=303.332 48.7436 17.857 12.1693 8.06182 7.71359 7.165 6.57594 13.3772 6.11712 10.2507 14.6366 5.64481 7.18453 3.83971 3.7069 3.41423 2.16097 2.10956 1.81574 2.61905 1.74794 2.5 1.34269 1.00761 3.6544 4.71344 0.958606 1.41176 0.674043
threshold=0.47513570725880122 0.24209235012548003 0.56464091710465136 0.63849386901834027 0.62394930634241896 0.72250863928287956 0.20110085711307638 0.44830862485066675 0.61718956711379813 0.45268856819779851 0.42199389036329088 0.48518248195912167 0.60368996668720898 0.37918634391962863 0.18219465847772229 0.34219529548169481 0.75843601244224601 0.66614700667476956 0.49942027967114044 0.32870166210982915 0.65757984544795511 0.64106285228630322 0.053470902829427756 0.51977213139727885 0.36527870493991982 0.60983281125307787 0.58942359346060424 0.29858644494511749 0.37140121015003646 0.54265520642073117
decision_type=2 2 2 2 2 2 2 2 2 2 2 2 2 2 2 2 2 2 2 2 2 2 2 2 2 2 2 2 2 2
left_child=2 4 5 7 -2 9 17 19 12 24 27 15 13 -9 16 -12 -6 -4 -10 20 -3 -13 -23 -15 -1 26 -26 -11 -29 -17
right_child=1 3 6 -5 14 -7 -8 8 18 10 11 21 -14 23 -16 29 -18 -19 -20 -21 -22 22 -24 -25 25 -27 -28 28 -30 -31
leaf_value=-0.0045060592309951247 -0.0055953934741731111 1.8491218536290101e-05 -0.0026733759314297198 0.0081278161385494492 -0.0022583065015909401 0.00034988344916581652 0.0020878414956808644 -0.0012647787921538174 0.00027139950284545692 -0.0092509439736787047 -0.00042067603696143156 -0.0019946173057626276 -0.00079305777091108758 0.00071510990050491783 0.00078833844123402672 0.00073572755215520202 0.00069176976508293912 -0.00040731668257351086 0.001602179927610431 0.0051108848307507533 0.0035416067763778731 -0.0012145911746903231 7.7256140578307886e-05 0.0017910446591146629 -0.003647128172937511 -0.0016066002265929637 0.00040206189183672469 -0.0041374213346473347 -0.00030711416057291612 0.0032128577719504254
leaf_weight=467 71 22 28 702 26 27 44 36 32 165 27 74 38 37 39 25 21 33 125 150 20 20 20 30 29 154 20 27 24 22
leaf_count=467 71 22 28 702 26 27 44 36 32 165 27 74 38 37 39 25 21 33 125 150 20 20 20 30 29 154 20 27 24 22
internal_value=0 0.0164752 -0.0180348 0.0199245 -0.00971338 -0.0199137 0.00166667 0.0138776 0.00922819 -0.0205773 -0.0157178 -0.00718085 -0.00195035 0.00412621 0.000581395 0.0101351 -0.00904255 -0.00942623 0.0192675 0.0210938 0.0119048 -0.0184211 -0.01 0.013806 -0.0235075 -0.0205665 -0.00867347 -0.0231481 -0.0171569 0.018617
internal_weight=0 1349 1206 1192 157 1101 105 490 298 1074 404 188 141 103 86 74 47 61 157 192 42 114 40 67 670 203 49 216 51 47
internal_count=2555 1349 1206 1192 157 1101 105 490 298 1074 404 188 141 103 86 74 47 61 157 192 42 114 40 67 670 203 49 216 51 47
is_linear=0
shrinkage=0.05


Tree=10
num_leaves=31
num_cat=0
split_feature=7 0 1 1 7 7 0 6 0 0 0 5 0 8 8 0 6 6 0 8 4 4 0 8 0 1 0 0 8 1
split_gain=296.755 45.1517 17.1269 12.6496 9.71915 9.13317 6.5375 6.24817 14.2536 5.88503 5.51139 4.5899 8.53772 3.98541 3.02185 2.95777 6.075 2.83621 6.14282 7.15006 3.66178 2.54832 2.50723 8.23047 2.02675 2.43203 2.025 1.98263 4.23781 1.12332
threshold=0.48507220153186709 0.28402995485924587 0.56464091710465136 0.65162419129855598 0.42445848851099727 0.65722059236877228 0.13154961874904789 0.43236394776263704 0.50030067109789067 0.18219465847772229 0.70626839104882111 0.68415503403596845 0.60683846345042147 0.54830212684988222 0.63247585319652277 0.73399427522229632 0.090398321910524201 0.15466975627279117 0.4727551895831496 0.30912452395084589 0.43302673846224954 0.65038362875829081 0.29858644494511749 0.49425049060397569 0.24682290873229043 0.67967721302608342 0.68857289470097272 0.6019315111328486 0.57594066744860373 0.55919338424180798
decision_type=2 2 2 2 2 2 2 2 2 2 2 2 2 2 2 2 2 2 2 2 2 2 2 2 2 2 2 2 2 2
left_child=2 3 4 29 10 7 -4 8 13 -5 17 12 22 21 -14 16 26 -1 -19 -20 -21 -3 -6 -24 25 -8 -10 28 -18 -2
right_child=1 5 6 9 11 -7 24 -9 15 -11 -12 -13 14 -15 -16 -17 27 18 19 20 -22 -23 23 -25 -26 -27 -28 -29 -30 -31
leaf_value=-0.0035695402369403332 -0.0060081619982082814 -0.00026628536491070111 -0.002314857046882994 -0.0004795468858620311 -0.0070860797036546748 0.008293978608637665 -0.0007504968383036701 0.0049066561047809406 -0.000157910887989976 0.0018718328550856563 0.0002808579009750234 -0.00078720894123121554 0.0020891192409517425 -0.0011542924506468156 -2.8685238926645654e-05 0.0016746278112633019 0.002093148726771779 -0.007857353640829642 0.003601420789870623 -0.0030578673403572083 1.5862795065930967e-05 0.0010989503967048259 0.00085675883155910684 -0.0011648398896157125 0.0031107825511113799 0.00059513715482072268 0.00078468196927567184 0.0019816717795209495 -7.5368844479706271e-05 -0.0017615541607829328
leaf_weight=499 46 21 38 39 34 615 22 196 20 56 24 55 29 31 26 78 30 267 20 82 24 22 21 52 33 20 20 69 21 45
leaf_count=499 46 21 38 39 34 615 22 196 20 56 24 55 29 31 26 78 30 267 20 82 24 22 21 52 33 20 20 69 21 45
internal_value=0 0.0166348 -0.0174559 -0.0061828 -0.0193071 0.0204141 0.00110619 0.0154528 0.0110577 0.00657895 -0.0215611 -0.00979263 -0.00555556 -0.00810811 0.0104545 0.0170168 0.013125 -0.0221973 -0.0190204 -0.00992063 -0.0150943 0.00174419 -0.013785 -0.00856164 0.00966667 0.00238095 -0.00375 0.01875 0.0112745 -0.0195055
internal_weight=0 1309 1246 186 1133 1123 113 508 312 95 916 217 162 74 55 238 160 892 393 126 106 43 107 73 75 42 40 120 51 91
internal_count=2555 1309 1246 186 1133 1123 113 508 312 95 916 217 162 74 55 238 160 892 393 126 106 43 107 73 75 42 40 120 51 91
is_linear=0
shrinkage=0.05


Tree=11
num_leaves=31
num_cat=0
split_feature=7 0 6 0 1 7 7 1 4 0 6 0 9 7 5 8 1 0 8 0 9 0 2 1 0 0 8 6 6 0
split_gain=281.199 46.1164 18.3609 17.3648 12.2262 11.9764 7.92288 6.49044 6.30868 6.13112 5.99645 12.6526 4.00275 3.79443 3.6 3.54672 3.3714 2.91646 9.73223 2.50343 2.10154 2.07879 1.77084 1.66963 2.04537 1.54056 5.69012 1.28414 1.10082 3.81082
threshold=0.48507220153186709 0.29858644494511749 0.27749330633004476 0.20110085711307638 0.65162419129855598 0.33841393788208807 0.65722059236877228 0.63341454240128559 0.4860241270134732 0.20490935768635596 0.27052140960753374 0.6019315111328486 0.3172238765217123 0.49942027967114044 0.2661059484770007 0.54830212684988222 0.73928102161649967 0.64106285228630322 0.70710871670495912 0.29858644494511749 0.43939747149767916 0.38155563217100569 0.67192137685352027 0.55491571201545375 0.18219465847772229 0.46852174052485146 0.41320924579046181 0.055893341521147707 0.15466975627279117 0.63788776549257953
decision_type=2 2 2 2 2 2 2 2 2 2 2 2 2 2 2 2 2 2 2 2 2 2 2 2 2 2 2 2 2 2
left_child=2 4 8 7 23 12 10 -4 28 16 11 15 -5 -13 19 -3 -6 -10 -19 -7 21 -16 -9 -2 -25 26 -12 -15 -1 -30
right_child=1 6 3 5 9 14 -8 22 17 -11 25 13 -14 27 20 -17 -18 18 -20 -21 -22 -23 -24 24 -26 -27 -28 -29 29 -31
leaf_value=-0.003340799373212289 -0.0056190153358454831 0.0010528278772706928 -0.0089376134090034063 -7.0357541760157635e-07 -0.0014866190319115903 0.00012228914785403778 0.007954387491087251 -0.0016162136575226319 -0.0012425664614049148 0.0022559607100517578 0.0041387062508651375 -3.594212034663258e-08 -0.0038137726090133428 0.00049868711348942938 -0.00029534622681887948 -0.00074217802951177532 0.00068115862112189682 0.00032672857828665303 -0.00062304496056000416 0.0028294800560215772 -0.00073823842359737886 0.00095446484626181553 0.0002235950403332826 -0.0047838865874982543 -2.8186921352726935e-05 0.0052610590363852518 -5.7464712499524784e-05 0.0016602982653868032 -0.0048489002902754076 -0.00021877870156843671
leaf_weight=504 46 22 151 32 25 28 606 20 83 53 84 23 62 24 22 50 27 30 35 52 38 20 27 24 30 153 32 110 119 23
leaf_count=504 46 22 151 32 25 28 606 20 83 53 84 23 62 24 22 50 27 30 35 52 38 20 27 24 30 153 32 110 119 23
internal_value=0 0.0162911 -0.0168941 -0.00884956 -0.0054878 -0.00019685 0.0203351 -0.0199495 -0.0214736 0.00642857 0.0156627 0.00971616 -0.0143617 0.0176752 0.008125 -0.00763889 -0.00576923 -0.0121622 -0.00423077 0.015625 0.000625 0.00833333 -0.0037234 -0.018 -0.012037 0.0207249 0.0163793 0.0208955 -0.0236068 -0.0197183
internal_weight=0 1309 1246 452 205 254 1104 198 794 105 498 229 94 157 160 72 52 148 65 80 80 42 47 100 54 269 116 134 646 142
internal_count=2555 1309 1246 452 205 254 1104 198 794 105 498 229 94 157 160 72 52 148 65 80 80 42 47 100 54 269 116 134 646 142
is_linear=0
shrinkage=0.05


Tree=12
num_leaves=31
num_cat=0
split_feature=7 0 2 1 0 7 1 0 6 0 0 7 6 0 5 7 9 8 0 5 9 1 0 4 0 8 0 6 0 0
split_gain=277.597 46.2318 17.2645 12.784 12.1763 9.30223 7.49311 7.41103 6.47449 11.1292 6.26455 4.83014 5.64534 6.92403 4.17914 3.51564 3.329 2.87127 2.86003 2.68273 1.97483 1.88282 1.61483 1.6 1.57262 4.24183 1.52474 1.3045 2.87028 1.13572
threshold=0.47513570725880122 0.29858644494511749 0.58407413542381104 0.65162419129855598 0.2522109348064881 0.65722059236877228 0.63341454240128559 0.72074069322728351 0.43236394776263704 0.50030067109789067 0.14752928536493451 0.38249903379945166 0.12616769712923767 0.66077084051603197 0.43811387015819309 0.52075135268076733 0.63678087343578549 0.54221750156908077 0.13154961874904789 0.37198627336214435 0.53566911548784957 0.55491571201545375 0.18219465847772229 0.65261375979293301 0.69038093023628755 0.67420914071175242 0.36421292324468219 0.20647449395327985 0.61129641359514453 0.39955580856471645
decision_type=2 2 2 2 2 2 2 2 2 2 2 2 2 2 2 2 2 2 2 2 2 2 2 2 2 2 2 2 2 2
left_child=2 3 7 21 6 8 -4 11 9 17 -5 27 -13 19 26 16 -11 23 -8 -14 -12 -2 -23 -3 25 -17 -6 -1 29 -29
right_child=1 5 4 10 14 -7 18 -9 -10 15 20 12 13 -15 -16 24 -18 -19 -20 -21 -22 22 -24 -25 -26 -27 -28 28 -30 -31
leaf_value=-0.0036411618925449142 -0.0053623497031827314 -0.00017820897671525228 -0.0061423278354880324 -0.0010966985051818034 0.00025668937497064226 0.0075566681165328891 -0.0014893277843581411 0.00024533629429003556 0.0045355719774352798 0.0011641503029786032 0.0019664175560925481 -0.0010522480942126988 0.00013285736465753345 0.00092633882646411543 -0.00049151794709360874 0.0016278230523890658 -4.5669660456082456e-05 -0.00089899141905561706 0.00038571370928494332 -0.0017561252259069016 0.00083751033105643755 -0.0045446922581233425 -3.185292038571652e-05 0.0010137023421288084 0.0016846945510679335 -5.3723593662030614e-05 0.002823688373997474 -0.0083404558190239321 -0.00023580993301707543 -0.0027816796693398123
leaf_weight=441 53 20 79 29 28 606 23 28 196 30 51 175 24 20 20 61 38 33 27 71 28 24 33 20 99 28 39 145 23 63
leaf_count=441 53 20 79 29 28 606 23 28 196 30 51 175 24 20 20 61 38 33 27 71 28 24 33 20 99 28 39 145 23 63
internal_value=0 0.015808 -0.0172056 -0.00527523 -0.00439815 0.0198718 -0.0141473 -0.02 0.015 0.0107143 0.00694444 -0.020738 -0.0153448 -0.00673913 0.0100575 0.015625 0.00588235 -0.00650685 0.001 -0.0123684 0.0142405 -0.0172727 -0.0109649 0.0025 0.0191489 0.0143258 0.0160448 -0.0230655 -0.0200216 -0.021875
internal_weight=0 1349 1206 218 216 1131 129 990 525 329 108 962 290 115 87 256 68 73 50 95 79 110 57 40 188 89 67 672 231 208
internal_count=2555 1349 1206 218 216 1131 129 990 525 329 108 962 290 115 87 256 68 73 50 95 79 110 57 40 188 89 67 672 231 208
is_linear=0
shrinkage=0.05


Tree=13
num_leaves=31
num_cat=0
split_feature=7 0 2 0 7 1 0 5 0 8 7 5 6 0 8 5 0 1 0 1 6 0 9 0 1 0 8 1 1 0
split_gain=265.302 44.8245 17.6399 12.8886 12.4262 9.43531 7.42644 6.43742 12.615 5.26942 4.86959 4.68851 4.24758 4.13924 4.44058 4.11498 4.35556 4.45055 2.78475 2.71692 2.64165 4.60876 1.92001 1.89702 2.45852 1.87198 4.00758 1.63896 1.4225 1.38687
threshold=0.47513570725880122 0.24209235012548003 0.56519468441479459 0.12130274773293986 0.65722059236877228 0.7275469649292905 0.71698831792561013 0.42599482043922027 0.56063533807458266 0.39356236705413267 0.41042662146019276 0.60546339429606888 0.055893341521147707 0.44126089431611365 0.57594066744860373 0.28744557853128183 0.33200904418662452 0.67967721302608342 0.20490935768635596 0.16473764781106134 0.31221098865332847 0.39504975104433099 0.43939747149767916 0.32870166210982915 0.65757984544795511 0.66563369440591413 0.66258090350650511 0.22672844477087969 0.51249349297509017 0.48040426231348371
decision_type=2 2 2 2 2 2 2 2 2 2 2 2 2 2 2 2 2 2 2 2 2 2 2 2 2 2 2 2 2 2
left_child=2 5 6 -4 7 18 10 23 9 -9 20 19 -10 28 -15 16 17 -5 -2 -12 -1 -22 -17 24 -3 26 -14 -23 -11 -6
right_child=1 4 3 15 29 -7 -8 8 12 13 11 -13 25 14 -16 22 -18 -19 -20 -21 21 27 -24 -25 -26 -27 -28 -29 -30 -31
leaf_value=-0.00328577796125919 -0.004282066641691353 -2.0109584165173279e-05 -0.0075372164560330223 -0.00046184206213109314 0.0032804380696902337 0.00077070875340065625 9.3219238132949411e-05 0.0022733209512348306 8.167656695357573e-05 -0.001560021565685174 0.00029163293046953752 -0.00066267575326479651 0.0015602711798801073 0.00064250580360153972 -0.00051268316382008239 -4.4071600875728038e-05 0.0026825039552975994 0.00073099496436734445 -0.00038544396891126433 -0.0014343413981775328 -0.0071842099143465373 -0.0026183045788409592 -0.0013558737407676103 0.0046550504260975288 0.0028375626350855528 0.0016705751191620545 -6.521453043203673e-05 0.00016577980363324254 -0.00035602770237012362 0.0083476311308035966
leaf_weight=633 86 21 73 52 135 40 34 21 38 32 23 92 44 31 25 31 45 28 31 34 89 26 26 163 22 121 22 20 26 491
leaf_count=633 86 21 73 52 135 40 34 21 38 32 23 92 44 31 25 31 45 28 31 34 89 26 26 163 22 121 22 20 26 491
internal_value=0 0.0154003 -0.016874 -0.00519608 0.0187081 -0.00971338 -0.0200053 0.0133392 0.00930556 -0.00277778 -0.0208561 -0.0125839 0.0165556 -0.00701754 0.00267857 0.00192308 0.007 0 -0.0168803 -0.00131579 -0.0224609 -0.0161111 -0.00921053 0.0203883 0.0110465 0.0196524 0.0128788 -0.00326087 -0.0163793 0.0235623
internal_weight=0 1349 1206 255 1192 157 951 566 360 135 917 149 225 114 56 182 125 80 117 57 768 135 57 206 43 187 66 46 58 626
internal_count=2555 1349 1206 255 1192 157 951 566 360 135 917 149 225 114 56 182 125 80 117 57 768 135 57 206 43 187 66 46 58 626
is_linear=0
shrinkage=0.05


Tree=14
num_leaves=31
num_cat=0
split_feature=7 0 2 7 1 7 0 6 0 9 0 0 8 0 8 1 6 0 0 8 7 4 3 1 8 0 0 6 1 1
split_gain=265.51 35.729 18.5064 12.4222 8.35371 7.72248 6.26766 5.4788 6.65022 6.51273 5.15496 5.08119 11.5672 4.51135 5.17863 4.07564 3.69342 3.56858 3.49099 6.56435 3.0303 2.93403 2.90422 2.72341 2.38636 2.09921 2.06552 1.96157 1.71196 1.57416
threshold=0.49640968659967666 0.28402995485924587 0.67018754972003913 0.40050110673880951 0.65162419129855598 0.65722059236877228 0.22099726589748317 0.20647449395327985 0.39504975104433099 0.32321606124457136 0.73399427522229632 0.63438394496516237 0.45420414237313189 0.44126089431611365 0.62436349281630832 0.63341454240128559 0.04426563580089201 0.14240985880485243 0.60683846345042147 0.60079746220716446 0.42445848851099727 0.42892468396847772 0.57680963500061477 0.61872629218758868 0.68931633519540381 0.18219465847772229 0.64106285228630322 0.055893341521147707 0.20044793915924497 0.7275469649292905
decision_type=2 2 2 2 2 2 2 2 2 2 2 2 2 2 2 2 2 2 2 2 2 2 2 2 2 2 2 2 2 2
left_child=2 4 3 7 25 11 15 -1 23 -10 16 12 -3 -14 -15 -4 -5 -6 21 -20 -21 -18 -8 -9 -22 -2 28 -13 -11 -19
right_child=1 5 6 10 17 -7 22 8 9 26 -12 27 13 14 -16 -17 18 29 19 20 24 -23 -24 -25 -26 -27 -28 -29 -30 -31
leaf_value=-0.0031209116431999695 -0.0048752897559136716 0.0038194513440102163 -0.0050697037190268694 -0.00074012340437065315 -0.0012869399284716643 0.0067487424636677121 0.00079532774104481565 -0.0072189289282352442 0.002519523116870852 -0.0028110929306359445 0.0011001809477019259 0.00038543420191388403 -0.00056696276720840657 0.00085323317780598988 -0.00010419990585557871 0.00030145046928490573 0.00027134991804167317 0.0001405825950377082 0.0010459238969722201 -0.00052237328905409557 7.9408841917555376e-05 -0.0016770723372696028 0.0028997447491962039 -0.00036312954374240203 -0.00028850263321705816 -0.00071080108930326742 0.00020358871243767452 0.0024019193693653965 -0.0018510432369790804 0.0025624815481793128
leaf_weight=514 48 150 22 48 20 615 20 188 22 37 20 24 44 63 38 30 20 33 22 20 27 160 37 22 28 36 23 154 36 34
leaf_count=514 48 150 22 48 20 615 20 188 22 37 20 24 44 63 38 30 20 33 22 20 27 160 37 22 28 36 23 154 36 34
internal_value=0 0.0164218 -0.0158179 -0.0176285 -0.00482456 0.019761 0.00389908 -0.0209026 -0.0158537 -0.00635593 -0.00963768 0.0149577 0.0109322 0.000862069 0.00668317 -0.00865385 -0.0111538 0.00603448 -0.00893502 -0.00128866 -0.00833333 -0.0130556 0.0153509 -0.0211905 -0.00227273 -0.0160714 -0.0119792 0.0216292 -0.0160959 0.0115672
internal_weight=0 1259 1296 1187 171 1088 109 842 328 118 345 473 295 145 101 52 325 87 277 97 75 180 57 210 55 84 96 178 73 67
internal_count=2555 1259 1296 1187 171 1088 109 842 328 118 345 473 295 145 101 52 325 87 277 97 75 180 57 210 55 84 96 178 73 67
is_linear=0
shrinkage=0.05


Tree=15
num_leaves=31
num_cat=0
split_feature=7 0 1 1 7 7 0 8 0 0 0 8 0 6 5 0 8 0 1 7 7 8 0 8 8 0 0 7 1 0
split_gain=255.957 35.1931 17.2069 10.8355 10.2005 9.2547 7.25667 6.76163 13.3352 5.54451 4.57021 7.7336 4.42488 9.93725 4.4001 8.68243 4.37246 6.45797 3.88929 3.23838 2.8845 2.61035 2.49286 2.43232 2.42747 3.32654 2.17302 2.11981 1.97063 1.95198
threshold=0.48507220153186709 0.29858644494511749 0.56464091710465136 0.59569539945509042 0.38249903379945166 0.59210526315789491 0.12130274773293986 0.63030895980597379 0.63242356940691635 0.12788544030275578 0.29264919299877329 0.4889454357500489 0.53005107399716189 0.26232056837800383 0.2783131950513546 0.35140032552657535 0.41898715483773891 0.6239847339261233 0.50647875495516115 0.46210078350080858 0.29511058604455048 0.48015432370490502 0.24682290873229043 0.72822243742846882 0.62436349281630832 0.52343230089559911 0.74024422511044674 0.60128197245450055 0.67967721302608342 0.56457212498296216
decision_type=2 2 2 2 2 2 2 2 2 2 2 2 2 2 2 2 2 2 2 2 2 2 2 2 2 2 2 2 2 2
left_child=2 3 4 -2 14 16 -4 8 10 -5 -6 -12 13 18 15 -1 -3 24 -7 -9 -17 27 28 -19 25 -18 -25 -11 -8 -13
right_child=1 5 6 9 7 12 22 19 -10 21 11 29 -14 -15 -16 20 17 23 -20 -21 -22 -23 -24 26 -26 -27 -28 -29 -30 -31
leaf_value=-0.0076677218279736477 -0.003774538114092263 0.0036780193802894105 -0.0022024304844839499 -0.0034995514859242714 -0.0065351812092628832 -0.00086950695658293562 -0.0002993792160627229 -0.0008104066024504198 0.0010105865321600183 0.00027755144803183197 0.000399092980041163 -0.0017593144006516849 0.0072282510721241866 0.0032652731015737099 -0.0031277923773012639 -0.0019638236002793743 -0.00019412569919462498 0.0019745912574496206 0.00081057549673584366 -0.00032530177433682806 0.00045234975504589994 -0.00056973786519918244 0.0029646637511252186 -0.00016681593720236089 -0.00065550230937214127 0.00083616180444854313 0.0006316766717037348 0.0023499817465832216 0.00057429783352809798 -0.00018435365299101505
leaf_weight=132 68 86 28 27 55 24 27 135 45 49 51 53 556 208 528 39 40 73 21 37 29 23 33 24 26 25 21 38 25 29
leaf_count=132 68 86 28 27 55 24 27 135 45 49 51 53 556 208 528 39 40 73 21 37 29 23 33 24 26 25 21 38 25 29
internal_value=0 0.0154889 -0.0161717 -0.00353659 -0.0180274 0.0190217 0.00243363 -0.0116667 -0.00611588 0.00456204 -0.0119681 -0.00695489 0.0217862 0.0163043 -0.0215659 -0.01525 0.0114407 0.00753589 -0.005 -0.019186 -0.000735294 0.00954545 0.00970588 0.0152542 -0.00247253 0.00269231 0.00611111 0.0135057 0.00288462 -0.0164634
internal_weight=0 1309 1246 205 1133 1104 113 405 233 137 188 133 809 253 728 200 295 209 45 172 68 110 85 118 91 65 45 87 52 82
internal_count=2555 1309 1246 205 1133 1104 113 405 233 137 188 133 809 253 728 200 295 209 45 172 68 110 85 118 91 65 45 87 52 82
is_linear=0
shrinkage=0.05


Tree=16
num_leaves=31
num_cat=0
split_feature=7 7 0 5 0 1 0 8 7 1 0 8 0 1 6 0 0 1 4 0 6 0 6 0 5 0 1 0 2 0
split_gain=241.418 25.7266 25.5103 12.1879 12.7539 7.71725 7.6781 12.4073 6.22449 5.88026 5.65636 8.34321 4.82841 4.70125 4.30294 10.6976 4.2808 3.47609 3.36377 4.75202 3.32275 2.41071 2.24828 3.348 1.95921 1.88505 6.09891 1.84091 1.81154 1.76107
threshold=0.51909124446630572 0.42445848851099727 0.29858644494511749 0.29858644494511749 0.20110085711307638 0.59272938915449669 0.24209235012548003 0.48015432370490502 0.67966060009837681 0.49232225957623194 0.55250519158762368 0.66258090350650511 0.51977213139727885 0.63341454240128559 0.27052140960753374 0.69038093023628755 0.12130274773293986 0.64842184551584325 0.47609831064685354 0.4727551895831496 0.46487189332810802 0.64106285228630322 0.041595044852947106 0.70023492435115198 0.66330850458222768 0.46852174052485146 0.52630730190494668 0.53005107399716189 0.48062244979277186 0.49276785785874072
decision_type=2 2 2 2 2 2 2 2 2 2 2 2 2 2 2 2 2 2 2 2 2 2 2 2 2 2 2 2 2 2
left_child=1 3 5 4 17 -2 13 29 14 12 -9 21 28 -3 15 24 -7 -1 -5 -20 -18 -12 -13 -24 27 26 -16 -4 -6 -8
right_child=2 6 8 18 9 16 7 10 -10 -11 11 22 -14 -15 25 -17 20 -19 19 -21 -22 -23 23 -25 -26 -27 -28 -29 -30 -31
leaf_value=-0.0086404709455580996 -0.0035858112083876504 -0.0052836513347463091 -0.00023029357263822103 -0.002623017335014341 -0.0052454082414324366 -0.0033245739116280568 0.00073986637191766902 -0.0015119821378585226 0.0065883173916932714 0.00072806299641165481 2.254959866642148e-05 -0.00054798591672561986 0.0017292662616684136 -0.00028825852225846104 -0.00015297202852894155 0.0011281233598602336 -0.00033325641597899136 -0.0003579404162395411 -0.0043951357157908377 0.00011881583550361896 0.001179735256941708 0.00096349174145403957 -0.00045554825196578164 0.00016803663544684712 -0.00020844629451142183 0.0044038050469394465 0.0026474290797772748 0.00091830414155423534 -0.00043159374625592053 0.004543025757102301
leaf_weight=115 44 57 22 623 33 21 72 52 547 43 28 28 35 31 31 103 28 27 36 30 74 32 41 26 52 150 75 22 43 34
leaf_count=115 44 57 22 623 33 21 72 52 547 43 28 28 35 31 31 103 28 27 36 30 74 32 41 26 52 150 75 22 43 34
internal_value=0 -0.0141053 0.0167451 -0.0184518 -0.00996622 -0.00134731 -0.00342893 0.000239617 0.0197605 0 -0.00688406 -0.00209677 -0.00608108 -0.0164773 0.0154396 0.00992462 0.0050813 -0.0207746 -0.0220972 -0.0113636 0.00931373 0.0125 -0.0113158 -0.00634328 -0.00208333 0.0197266 0.0146226 0.00568182 -0.0131579 0.0141509
internal_weight=0 1386 1169 985 296 167 401 313 1002 154 207 155 111 88 455 199 123 142 689 66 102 60 95 67 96 256 106 44 76 106
internal_count=2555 1386 1169 985 296 167 401 313 1002 154 207 155 111 88 455 199 123 142 689 66 102 60 95 67 96 256 106 44 76 106
is_linear=0
shrinkage=0.05


Tree=17
num_leaves=31
num_cat=0
split_feature=7 0 2 0 1 0 7 0 5 7 0 8 6 0 8 0 8 8 5 0 7 1 0 0 0 1 0 8 0 4
split_gain=228.103 26.562 22.4263 17.3293 13.817 11.7212 8.61454 7.05443 5.94929 5.67735 4.79234 7.81274 4.40458 3.91667 3.54471 6.47238 4.45834 3.36243 3.12531 4.83327 3.09911 2.9649 2.93658 2.83663 2.80124 6.01548 2.96569 2.63557 2.34531 2.24808
threshold=0.50780865715691081 0.35901732667313446 0.57617558959350823 0.11159307574506291 0.55919338424180798 0.73399427522229632 0.38679423441782018 0.13755903175888581 0.60380769878368545 0.62373076382545145 0.49801957970189464 0.36849115492861756 0.37428450303188848 0.502597798285774 0.52391392633698464 0.69038093023628755 0.67103263971918425 0.59517149129408675 0.27094474867905166 0.22099726589748317 0.22941334059447674 0.57833655829344854 0.21172456923854036 0.56239526623423497 0.54006542603090113 0.48539762995014474 0.48040426231348371 0.34070919609107203 0.27094474867905166 0.53787178479813269
decision_type=2 2 2 2 2 2 2 2 2 2 2 2 2 2 2 2 2 2 2 2 2 2 2 2 2 2 2 2 2 2
left_child=2 4 5 -4 -2 6 18 -6 13 14 11 21 -9 -8 -3 16 23 -15 19 -1 -21 -5 -23 -16 25 26 -11 -22 -14 -10
right_child=1 9 3 10 7 -7 8 12 29 24 -12 -13 28 17 15 -17 -18 -19 -20 20 27 22 -24 -25 -26 -27 -28 -29 -30 -31
leaf_value=-0.0095131396397429464 -0.0024309746319828018 0.0036578492409507835 -0.0062861638047157472 -5.3793042194294484e-05 -0.0035210283674386115 0.00097456327903243942 -0.0023139375877859456 -0.00026032427685062086 -0.0005843079457599099 -0.0010391539592989301 0.0030756350629616239 -0.0021512472002362783 0.00050060992318552992 0.0006509623595452055 -6.0402346048124558e-05 0.00086165610714995517 -0.00024057778527376562 -0.00015895787505638138 -0.0028092361562711029 -0.0042384376212434459 0.00018757184026520075 9.0923935711069442e-05 0.0030697863908851711 0.00065347352418920204 0.0071810395636824568 0.0037364626443508022 0.0013387688240530883 -0.0021483753487758746 0.0024704178959832294 -0.00040699096996420496
leaf_weight=67 63 111 73 66 27 26 52 39 169 20 50 29 70 36 30 82 27 33 541 25 30 46 43 26 500 119 34 21 71 29
leaf_count=67 63 111 73 66 27 26 52 39 169 20 50 29 70 36 30 82 27 33 541 25 30 46 43 26 500 119 34 21 71 29
internal_value=0 0.0156891 -0.0142216 -0.00236156 0.00185185 -0.01776 -0.0186191 0.00809179 -0.0118339 0.0196259 0.0042735 0.000543478 0.0116667 -0.00309917 0.013587 0.00893939 -0.000903614 0.00471014 -0.0217836 -0.0152098 -0.00657895 0.005 0.0109551 0.00714286 0.0221025 0.0166185 0.00277778 0.000490196 0.0157801 -0.0171717
internal_weight=0 1219 1336 307 270 1029 1003 207 319 949 234 184 180 121 276 165 83 69 684 143 76 155 89 56 673 173 54 51 141 198
internal_count=2555 1219 1336 307 270 1029 1003 207 319 949 234 184 180 121 276 165 83 69 684 143 76 155 89 56 673 173 54 51 141 198
is_linear=0
shrinkage=0.05


Tree=18
num_leaves=31
num_cat=0
split_feature=7 0 2 7 7 1 0 0 8 0 5 0 6 0 7 8 0 8 8 0 8 2 6 0 0 8 6 0 0 0
split_gain=221.89 22.9477 19.2015 13.5848 9.54429 7.68775 7.16493 7.05676 6.9144 14.0273 6.49726 8.22326 5.58605 5.34894 4.92894 3.69129 3.55577 9.02373 3.41773 3.10821 7.60178 3.1966 2.75664 2.72088 2.66653 4.57029 2.45574 2.38928 2.2752 2.26856
threshold=0.50780865715691081 0.29858644494511749 0.66267429880828765 0.38679423441782018 0.68881315438128077 0.62851058114731595 0.74024422511044674 0.11159307574506291 0.46374074526364822 0.56063533807458266 0.28402995485924587 0.12130274773293986 0.04426563580089201 0.66077084051603197 0.22941334059447674 0.60983281125307787 0.69874359570561506 0.67103263971918425 0.6757924212690668 0.20110085711307638 0.48015432370490502 0.6214477425232926 0.48207711642637247 0.15134981278212969 0.502597798285774 0.17420062081637652 0.059402923430615061 0.2661059484770007 0.44126089431611365 0.51691776044130522
decision_type=2 2 2 2 2 2 2 2 2 2 2 2 2 2 2 2 2 2 2 2 2 2 2 2 2 2 2 2 2 2
left_child=2 5 3 10 8 -2 12 -4 -3 15 11 -1 -5 19 -13 28 17 -11 -15 -14 21 -21 -9 -7 25 -16 -18 -24 -10 -22
right_child=1 4 7 6 -6 23 -8 22 9 16 -12 14 13 18 24 -17 26 -19 -20 20 29 -23 27 -25 -26 -27 -28 -29 -30 -31
leaf_value=-0.0087035470741195498 -0.0020852981312974943 0.0034810023698251258 -0.0036048077824042944 -0.0006043195030325327 0.0061101933879389786 -0.0011206071628582614 0.0020600545441800482 -8.4876001484440749e-05 -0.00061333511860216803 0.0013616972301789933 -0.0026492371494637405 -0.004795621437027664 -0.0052168868354846966 0.00029738939246336249 0.0001436157211874442 -0.00058737034072750549 0.00025217529844604461 -8.124808980042032e-05 -0.00013754910127195542 0.0005188561925060398 -0.0025469133354524501 -0.00017594332324363945 0.00021484706998668723 0.0010580639435022799 0.0019197684016947548 -0.0020409565813370805 0.0017907857340364543 0.0030048741071861508 0.00018798090901775422 -0.00038608699890034797
leaf_weight=85 72 189 24 75 515 27 20 37 32 59 546 39 53 40 24 26 29 40 39 47 43 26 36 80 20 47 111 37 39 98
leaf_count=85 72 189 24 75 515 27 20 37 32 59 546 39 53 40 24 26 29 40 39 47 43 26 36 80 20 47 111 37 39 98
internal_value=0 0.0152789 -0.0142216 -0.016223 0.018125 -0.00125698 -0.00924036 0.00373134 0.013381 0.00907738 -0.0202694 -0.012907 -0.0106295 -0.00794798 -0.005 -0.00695876 0.0155858 0.00833333 0.00348101 -0.0113296 -0.00864486 0.00445205 0.00909091 0.00724299 0.00137363 -0.00316901 0.0207143 0.014726 -0.00105634 -0.0154255
internal_weight=0 1219 1336 1202 1040 179 441 134 525 336 761 215 421 346 130 97 239 99 79 267 214 73 110 107 91 71 140 73 71 141
internal_count=2555 1219 1336 1202 1040 179 441 134 525 336 761 215 421 346 130 97 239 99 79 267 214 73 110 107 91 71 140 73 71 141
is_linear=0
shrinkage=0.05


Tree=19
num_leaves=31
num_cat=0
split_feature=7 0 2 0 0 1 7 7 8 0 5 8 0 8 0 8 0 0 0 8 6 6 6 0 8 8 0 5 6 0
split_gain=210.689 24.6836 20.0589 15.9811 12.6854 10.627 8.11978 7.42403 6.914 12.2728 6.57845 5.24539 7.23841 5.07521 4.91976 5.31738 4.24707 4.13878 3.71225 7.42677 3.40556 2.95223 2.85325 3.95916 2.83565 2.66359 2.17834 1.96599 1.73091 1.5749
threshold=0.50780865715691081 0.3366514059380537 0.56808439630392982 0.11159307574506291 0.70626839104882111 0.59272938915449669 0.69853444944136023 0.38917460122268283 0.49791120565039454 0.56239526623423497 0.60380769878368545 0.36849115492861756 0.57313523785088327 0.69112823294529968 0.31351977614034532 0.22047501256684568 0.12130274773293986 0.502597798285774 0.70815259659560159 0.66258090350650511 0.34827578322469055 0.059402923430615061 0.20647449395327985 0.61129641359514453 0.60983281125307787 0.60368996668720898 0.20490935768635596 0.37918634391962863 0.34071304779688205 0.48040426231348371
decision_type=2 2 2 2 2 2 2 2 2 2 2 2 2 2 2 2 2 2 2 2 2 2 2 2 2 2 2 2 2 2
left_child=2 5 4 -4 7 -2 8 22 -3 24 17 14 -13 -6 15 -5 -7 27 19 -11 -18 -20 -1 -24 28 -19 -22 -9 -10 -8
right_child=1 6 3 11 13 16 29 10 9 18 -12 12 -14 -15 -16 -17 20 25 21 -21 26 -23 23 -25 -26 -27 -28 -29 -30 -31
leaf_value=-0.0025370879531482235 -0.0021780225949895485 0.0036476778713162407 -0.0055969122292474395 0.00033028698440578931 0.00092567883257905776 -0.0032029600212623247 0.0022297617595353147 -9.8886401319042697e-05 0.00021706042694809302 0.001215871994917131 -0.0005767037805092329 -0.0016060184570049598 0.0006587488310897283 -0.00028797086277984884 0.0032397018256380586 -0.0013454873745114117 -0.0004127498968420407 0.00076576912780612627 0.00023912828662824294 -7.0448640057174661e-05 0.00011199782022563721 0.0016411326125692018 -0.0039274889484713724 0.00035469930156424025 -0.00086176387063429121 -5.9859045723273391e-05 0.0015819965216101574 -0.0029763960009049854 -0.00016386785128458538 0.0070035238598384177
leaf_weight=454 66 192 77 76 33 22 65 21 26 58 162 45 25 36 67 35 25 31 30 47 36 102 200 21 27 25 91 28 22 410
leaf_count=454 66 192 77 76 33 22 65 21 26 58 162 45 25 36 67 35 25 31 30 47 36 102 200 21 27 25 91 28 22 410
internal_value=0 0.0147867 -0.0139596 -0.00315385 -0.0174332 0.000416667 0.0183095 -0.018949 0.0138889 0.00929487 -0.0118914 0.00302419 -0.00857143 0.00326087 0.00758427 0.00112613 0.00689655 -0.00214286 0.0148734 0.00785714 0.00986842 0.0204545 -0.0217407 -0.0170814 -0.00833333 0.00714286 0.013189 -0.0127551 -0.00104167 0.023
internal_weight=0 1219 1336 325 1011 240 979 942 504 312 267 248 70 69 178 111 174 105 237 105 152 132 675 221 75 56 127 49 48 475
internal_count=2555 1219 1336 325 1011 240 979 942 504 312 267 248 70 69 178 111 174 105 237 105 152 132 675 221 75 56 127 49 48 475
is_linear=0
shrinkage=0.05


Tree=20
num_leaves=31
num_cat=0
split_feature=7 0 7 1 6 0 0 1 0 0 8 6 0 8 0 4 8 5 0 8 0 6 4 0 6 9 0 1 0 8
split_gain=208.52 32.016 17.9843 14.571 11.8322 12.1415 8.9841 8.59315 6.3866 5.64152 9.11362 5.3191 11.5014 5.47348 4.6516 4.5 4.86 4.32652 4.108 3.46039 2.77826 4.6697 2.69661 2.56857 4.46308 2.51934 2.12342 8.91731 2.06127 2.05818
threshold=0.45587098587590447 0.24209235012548003 0.68881315438128077 0.53287742830785545 0.37140121015003646 0.73689274460596055 0.70626839104882111 0.7480490680031151 0.080527737911017375 0.50030067109789067 0.66258090350650511 0.20044793915924497 0.45050953728722515 0.30912452395084589 0.12130274773293986 0.39269372096785377 0.51921236407216909 0.16470361847643938 0.58808861378597044 0.57594066744860373 0.54265520642073117 0.28010481340745991 0.45491206581775318 0.661845238572494 0.053470902829427756 0.37724296393226425 0.48224036048460162 0.53948300503308211 0.40845567306227498 0.67268549942206735
decision_type=2 2 2 2 2 2 2 2 2 2 2 2 2 2 2 2 2 2 2 2 2 2 2 2 2 2 2 2 2 2
left_child=3 7 4 6 5 9 11 14 -5 -3 18 22 -13 -14 -2 -15 -17 -10 19 -11 21 -4 -1 -12 -25 -16 27 28 -6 -24
right_child=1 2 20 8 26 -7 -8 -9 17 10 23 12 13 15 25 16 -18 -19 -20 -21 -22 -23 29 24 -26 -27 -28 -29 -30 -31
leaf_value=-0.0022905465404474911 -0.0052393568445295944 -0.00058579102937619256 2.8002756237907603e-05 -0.0023320609792994332 -0.00057203122846036518 0.0008956924221011687 6.7351284613703657e-05 0.0017858752975882326 0.00054926041819677591 0.00075981030401363618 -0.00038812390981091686 -0.0050893126236277956 0.003224295110344633 -0.0019385109058689177 0.00017179624143467688 0.00073613846264010136 -0.00022356941953078914 -0.00049426278138133136 0.0016191898167061737 -0.00016133704021342732 0.0071201742249595969 0.002857222255161457 -0.0010524483483866033 -0.00032854887407979261 0.00017674044739423024 -0.00072687102424286859 0.0044832268453062069 0.0022237530921845662 0.00025639579310519082 -0.00061589064712536676
leaf_weight=472 53 80 34 21 27 89 38 34 61 35 43 240 22 49 34 25 24 36 57 20 373 123 85 29 53 54 150 128 24 42
leaf_count=472 53 80 34 21 27 89 38 34 61 35 43 240 22 49 34 25 24 36 57 20 373 123 85 29 53 54 150 128 24 42
internal_value=0 0.0121875 0.0149605 -0.0166143 0.00989796 0.00418719 -0.0185807 -0.00785714 0 -0.000394322 0.00348101 -0.0195255 -0.0147222 -0.00208333 -0.0132979 -0.00714286 0.00357143 0.00541237 0.0138393 0.00409091 0.0219811 0.0164013 -0.0224124 -0.0058 -0.000609756 -0.00625 0.0169453 0.0132682 -0.00441176 -0.0159449
internal_weight=0 1440 1265 1115 735 406 997 175 118 317 237 959 360 120 141 98 49 97 112 55 530 157 599 125 82 88 329 179 51 127
internal_count=2555 1440 1265 1115 735 406 997 175 118 317 237 959 360 120 141 98 49 97 112 55 530 157 599 125 82 88 329 179 51 127
is_linear=0
shrinkage=0.05


Tree=21
num_leaves=31
num_cat=0
split_feature=7 7 0 5 0 5 0 1 7 8 0 0 8 7 7 0 8 1 0 0 1 0 7 6 8 0 2 0 1 2
split_gain=200.005 23.1662 19.8611 12.0387 12.3244 11.7953 11.77 8.48578 8.17459 6.3089 13.4473 5.5524 12.4628 5.48451 4.41094 4.07868 6.4633 3.77326 3.29373 3.04369 4.78281 2.93913 2.72996 2.67706 2.63972 6.13365 2.61799 2.4308 2.36639 2.34416
threshold=0.51909124446630572 0.38249903379945166 0.3366514059380537 0.43811387015819309 0.13154961874904789 0.28402995485924587 0.11159307574506291 0.62851058114731595 0.73734057690956367 0.57594066744860373 0.58808861378597044 0.60683846345042147 0.67268549942206735 0.32766495678448426 0.45793953341297172 0.70276457052140395 0.67103263971918425 0.5293087625278583 0.20110085711307638 0.49801957970189464 0.54997630043916645 0.51977213139727885 0.44301612676551205 0.059402923430615061 0.32427999784162637 0.41689851749104001 0.42533262898065222 0.44126089431611365 0.50281555498231634 0.50585926695788574
decision_type=2 2 2 2 2 2 2 2 2 2 2 2 2 2 2 2 2 2 2 2 2 2 2 2 2 2 2 2 2 2
left_child=1 5 7 4 -3 6 -1 28 9 19 -11 -5 22 17 -14 16 -12 21 -9 20 27 29 -13 -17 -6 -26 -16 -4 -2 -8
right_child=2 3 8 11 24 -7 13 18 -10 10 15 12 14 -15 26 23 -18 -19 -20 -21 -22 -23 -24 -25 25 -27 -28 -29 -30 -31
leaf_value=-0.0074915469738979614 -0.0029109162433554187 -0.0029515300544132568 -0.00029703368744221084 -0.0010281072707645112 0.0013745797588863989 -0.002310347221123177 -0.0051637801116960445 -4.7854765874028042e-05 0.0063493380477005704 -0.00058851556659821893 0.00080359585312280162 3.7852104004498789e-05 -0.00051338551072084018 0.00071742260149308679 8.9486757533044367e-05 0.00018731644491565836 -5.3963684637869941e-05 0.00029662885830587934 0.0014292855433605117 0.00494484423007916 0.0027946591921741652 0.00079861886945450109 0.0012982731879510323 0.0014934340813822613 -0.0011671360452659846 0.00077981898305853892 -0.00029447311081035044 0.0004629387743892877 -0.00031390943275300955 -0.00072430738236728691
leaf_weight=89 22 53 28 177 96 527 44 47 370 57 37 47 79 41 24 30 43 26 92 161 77 20 31 106 25 45 34 36 63 28
leaf_count=89 22 53 28 177 96 527 44 47 370 57 37 47 79 41 24 30 43 26 92 161 77 20 31 106 25 45 34 36 63 28
internal_value=0 -0.0131313 0.0149487 -0.00585106 0.00353881 -0.018871 -0.00987903 0.0015625 0.0181217 0.0143913 0.00888278 -0.0110969 -0.00569767 -0.00172956 -0.014781 0.0145833 0.005625 -0.00720339 0.00917266 0.0193709 0.0140071 -0.0119565 0.0102564 0.0198529 0.010241 0.00285714 -0.00431034 0.00390625 -0.0108824 -0.0166667
internal_weight=0 1386 1169 611 219 775 248 224 945 575 273 392 215 159 137 216 80 118 139 302 141 92 78 136 166 70 58 64 85 72
internal_count=2555 1386 1169 611 219 775 248 224 945 575 273 392 215 159 137 216 80 118 139 302 141 92 78 136 166 70 58 64 85 72
is_linear=0
shrinkage=0.05


Tree=22
num_leaves=31
num_cat=0
split_feature=7 0 7 0 5 0 5 1 0 0 6 0 0 8 6 0 7 6 0 7 1 8 0 7 0 2 0 8 6 3
split_gain=190.872 22.5289 20.7869 12.1529 10.9438 10.5681 9.80046 9.47462 8.78651 6.51163 5.25625 7.61638 5.11089 5.19792 4.92702 4.64516 4.2966 4.05677 7.4113 4.05196 3.77326 3.31356 2.93913 2.69081 2.51433 2.34416 2.18888 3.88956 1.93578 1.89383
threshold=0.50780865715691081 0.55488249773494458 0.38249903379945166 0.10524290215761577 0.28402995485924587 0.11159307574506291 0.44655671458695806 0.48539762995014474 0.13154961874904789 0.3366514059380537 0.10965966370322421 0.71388138324740835 0.44126089431611365 0.52391392633698464 0.34827578322469055 0.73399427522229632 0.32766495678448426 0.04426563580089201 0.60683846345042147 0.71660239969081585 0.5293087625278583 0.67268549942206735 0.51977213139727885 0.44301612676551205 0.23707715621266667 0.50585926695788574 0.31351977614034532 0.21330126066051922 0.059402923430615061 0.40635369300725094
decision_type=2 2 2 2 2 2 2 2 2 2 2 2 2 2 2 2 2 2 2 2 2 2 2 2 2 2 2 2 2 2
left_child=2 3 4 -2 5 -1 8 12 -4 14 11 -3 -5 -14 -9 17 20 -8 -19 -15 22 23 25 -20 -16 -7 27 -10 -13 -11
right_child=1 10 6 7 -6 16 15 9 26 29 -12 28 13 19 24 -17 -18 18 21 -21 -22 -23 -24 -25 -26 -27 -28 -29 -30 -31
leaf_value=-0.0071169696252030628 -0.0039234656033892866 -0.00015015250048843189 -0.002661237300491991 -0.0012975656102925338 -0.0021948298600670186 -0.0049055911061112421 -0.00048771623518479857 -0.00035741563762537457 0.00050841654652501733 0.0011082544853792231 0.0055894683297186337 0.00019636266893305055 0.0014967174480271989 -0.00018162257304921715 7.951022204917835e-05 0.00033097664388114791 0.00068155147141843182 -0.0010049196797226295 3.5959498804272184e-05 0.00093838421500283542 0.00028179741539058475 -0.00020665304670030861 0.00075868792598177419 0.00072572404652954678 0.0011564232609233588 -0.00068809201324892275 0.0016105611162238798 -0.0004850728647740471 0.00105915691114572 0.0029520263500482204
leaf_weight=89 37 29 48 42 527 44 77 39 27 28 512 32 36 50 66 20 41 154 41 27 26 53 20 21 84 28 87 33 67 170
leaf_count=89 37 29 48 42 527 44 77 39 27 28 512 32 36 50 66 20 41 154 41 27 26 53 20 21 84 28 87 33 67 170
internal_value=0 0.0139253 -0.0134356 0.00677893 -0.0187419 -0.0100806 -0.00610517 0.00867159 0.00294872 0.0128553 0.0203906 0.0113281 -0.00177419 0.00376106 0.00621693 -0.010929 -0.00235849 -0.0122832 -0.00938662 -0.00357143 -0.00720339 0.000217391 -0.0119565 0.00806452 0.0103333 -0.0166667 0.00901361 0.00166667 0.0179293 0.0191919
internal_weight=0 1219 1336 579 775 248 561 542 195 387 640 128 155 113 189 366 159 346 269 77 118 115 92 62 150 72 147 60 99 198
internal_count=2555 1219 1336 579 775 248 561 542 195 387 640 128 155 113 189 366 159 346 269 77 118 115 92 62 150 72 147 60 99 198
is_linear=0
shrinkage=0.05


Tree=23
num_leaves=31
num_cat=0
split_feature=7 7 0 1 6 0 0 8 0 8 0 2 0 8 1 0 0 8 0 1 5 0 0 6 7 2 8 0 8 0
split_gain=177.528 31.9702 18.0877 15.1546 10.1736 13.4296 7.5196 13.1923 6.68146 14.2741 5.67449 5.50911 8.62453 8.5439 4.85234 4.8259 4.82414 5.58054 4.72761 3.27943 3.01957 2.99718 2.96056 2.71434 2.44137 2.14189 2.29904 2.02132 1.88769 1.7085
threshold=0.45587098587590447 0.72138070058323367 0.10043216459136792 0.53287742830785545 0.43236394776263704 0.73689274460596055 0.67462175575885397 0.61622131280227854 0.50030067109789067 0.64111076715977944 0.23707715621266667 0.45268856819779851 0.22575187819212481 0.48518248195912167 0.7480490680031151 0.46198715533069817 0.65823718539780807 0.73217850884791169 0.080527737911017375 0.34581789421065279 0.16470361847643938 0.54265520642073117 0.55488249773494458 0.28010481340745991 0.37052253882369485 0.64148307828796314 0.47420317678498891 0.71698831792561013 0.5969109699332894 0.49801957970189464
decision_type=2 2 2 2 2 2 2 2 2 2 2 2 2 2 2 2 2 2 2 2 2 2 2 2 2 2 2 2 2 2
left_child=3 2 -2 6 5 8 11 -8 25 22 14 24 -13 15 -6 19 -11 -18 -5 -14 -20 23 -10 -3 -1 -4 -27 -19 -26 -12
right_child=1 21 4 18 10 -7 7 -9 9 16 29 12 13 -15 -16 -17 17 27 20 -21 -22 -23 -24 -25 28 26 -28 -29 -30 -31
leaf_value=-0.0024363623805829546 -0.0047655202504960003 0.00033639054943861157 -0.001144965452388308 -0.0015237456633521995 -0.00020544788863504916 0.0007614116434867535 0.00080691460462541109 -0.00042253032232107137 0.00011598218668726901 -0.00037256881557852788 0.0014580367996726963 -0.0061949158742996661 -0.0022770073504303281 -0.0010402071787065231 0.0019361639348093153 0.001451770898391519 0.00036926628275483765 -0.00027293742307406 0.00048299571919876717 8.838134355872996e-05 -0.00044096164090289686 0.0065762739905407324 0.0014091354756010366 0.0027287602355453634 -0.00072693771268693701 0.00013170552826753391 -0.00035234985115044083 -0.00015307854353537877 -0.00048872530365766387 0.0048656385315784291
leaf_weight=457 51 28 52 21 62 105 42 75 45 61 203 110 22 80 24 43 52 23 61 49 36 319 75 92 26 29 55 24 93 140
leaf_count=457 51 28 52 21 62 105 42 75 45 61 203 110 22 80 24 43 52 23 61 49 36 319 75 92 26 29 55 24 93 140
internal_value=0 0.0109028 0.00596903 -0.0156726 0.00752632 0.00283109 -0.017678 -0.00576923 -0.00120192 0.00321429 0.0132284 -0.0192614 -0.0138158 -0.00747423 0.00174419 0.00131579 -0.0065625 0.000252525 0.00127119 -0.00669014 0.00592784 0.0221526 0.01625 0.0154167 -0.0221354 -0.0102941 -0.00535714 -0.012234 -0.0157563 0.0161079
internal_weight=0 1440 1001 1115 950 521 997 117 416 280 429 880 304 194 86 114 160 99 118 71 97 439 120 120 576 136 84 47 119 343
internal_count=2555 1440 1001 1115 950 521 997 117 416 280 429 880 304 194 86 114 160 99 118 71 97 439 120 120 576 136 84 47 119 343
is_linear=0
shrinkage=0.05


Tree=24
num_leaves=31
num_cat=0
split_feature=7 7 7 5 0 2 0 8 0 0 0 8 8 0 1 8 0 6 0 8 6 7 0 0 3 4 3 0 8 9
split_gain=171.494 22.8883 21.4301 12.1028 11.5733 9.06581 12.1516 8.78833 17.0754 7.68348 6.56569 12.4919 5.24138 6.13698 4.20364 3.72956 3.16762 3.16586 3.06818 5.5807 2.82212 3.63577 2.64675 2.62083 3.45224 2.47507 2.46091 2.36078 2.25277 2.24671
threshold=0.51909124446630572 0.36427078209542546 0.72138070058323367 0.302523231853497 0.20490935768635596 0.51395046024746427 0.20110085711307638 0.47420317678498891 0.69422952028928586 0.094226313130908165 0.66719317516697285 0.69112823294529968 0.6483938577234275 0.45660714715244427 0.73403437391345738 0.76659746618311542 0.54265520642073117 0.49859696662649183 0.4727551895831496 0.5609825711340265 0.39040258291240543 0.77660784554845053 0.67348722348281387 0.40490374515919536 0.54768342140838167 0.4833086824894271 0.12609069681700877 0.32870166210982915 0.54116245452505873 0.25261260541866087
decision_type=2 2 2 2 2 2 2 2 2 2 2 2 2 2 2 2 2 2 2 2 2 2 2 2 2 2 2 2 2 2
left_child=1 5 4 9 14 22 -7 23 12 -3 17 -12 13 -9 -2 -10 20 18 -5 25 21 -4 -1 24 -6 -20 -17 29 -15 -11
right_child=2 3 16 10 7 6 -8 8 15 27 11 -13 -14 28 -16 26 -18 -19 19 -21 -22 -23 -24 -25 -26 -27 -28 -29 -30 -31
leaf_value=-0.0023890753994970735 -0.0026073959953713311 -0.0039621953944601832 -0.00019673391026119036 -0.0025011366725464419 -0.00013510185117601993 -0.0038402904848494346 0.00031963250510782528 -0.00047245960669805025 0.0021980679445146841 0.00051596073986658888 0.00035604782169414151 -0.00030728649666436072 -0.00026440409302659618 0.0017059536928924841 0.000210004163815114 0.00070455538819390047 0.0062474602910136956 0.00013950446823030594 -0.00021137256605514022 -0.00051475394067504454 0.002784363245422028 0.0028044947726390658 -0.00065760609174264628 0.0035797328109036745 0.0011895217607225895 0.00049340244454520457 0.000130061907048884 0.0024386134378555887 8.97872418105461e-05 -5.9834847497636234e-05
leaf_weight=499 55 25 30 110 26 91 66 59 104 23 75 91 66 38 25 20 319 25 21 169 61 29 29 125 101 30 42 73 69 59
leaf_count=499 55 25 30 110 26 91 66 59 104 23 75 91 66 38 25 20 319 25 21 169 61 29 29 125 101 30 42 73 69 59
internal_value=0 -0.0128066 0.013195 -0.00645506 0.00794521 -0.0193066 -0.00875796 0.0101538 0.00552764 0.00472222 -0.0103167 -0.00210843 -0.00323276 0.00150602 -0.01 0.0177711 0.0219248 -0.0141549 -0.0154545 -0.0120455 0.015 0.00720339 -0.0224432 0.0174603 0.0124016 0.00245098 0.00806452 0.00887097 0.00864486 0.00304878
internal_weight=0 1386 1169 701 730 685 157 650 398 180 521 166 232 166 80 166 439 355 330 220 120 59 528 252 127 51 62 155 107 82
internal_count=2555 1386 1169 701 730 685 157 650 398 180 521 166 232 166 80 166 439 355 330 220 120 59 528 252 127 51 62 155 107 82
is_linear=0
shrinkage=0.05


Tree=25
num_leaves=31
num_cat=0
split_feature=7 7 0 1 6 0 7 0 1 8 0 0 8 0 6 2 0 0 0 8 1 0 0 5 0 8 5 1 0 8
split_gain=164.684 31.3196 17.6374 15.7948 10.0383 12.6008 7.68096 6.34659 8.10598 6.06245 7.61917 5.10748 4.97957 11.9831 4.5662 4.47525 11.7659 3.75089 3.28473 4.19302 3.26094 6.06517 2.91709 2.83425 2.77383 3.6 2.51259 2.33415 2.1522 2.35727
threshold=0.45587098587590447 0.72477557796360081 0.10043216459136792 0.53287742830785545 0.37140121015003646 0.70626839104882111 0.36427078209542546 0.54407838295074618 0.53948300503308211 0.60983281125307787 0.35641151049141689 0.080527737911017375 0.63431899056279606 0.62687919436181583 0.053470902829427756 0.49853866350540993 0.35140032552657535 0.32321742128430658 0.65823718539780807 0.71601626732023738 0.42280417751092286 0.40845567306227498 0.48224036048460162 0.16470361847643938 0.66719317516697285 0.62913605420925467 0.302523231853497 0.57833655829344854 0.57149156918241528 0.55888241692392016
decision_type=2 2 2 2 2 2 2 2 2 2 2 2 2 2 2 2 2 2 2 2 2 2 2 2 2 2 2 2 2 2
left_child=3 2 -2 6 5 9 15 8 20 10 -4 -5 13 26 -7 24 -17 -10 -11 -20 -6 -22 27 -13 -1 -26 -8 -3 29 -12
right_child=1 22 4 11 7 14 12 -9 17 18 28 23 -14 -15 -16 16 -18 -19 19 -21 21 -23 -24 -25 25 -27 -28 -29 -30 -31
leaf_value=-0.0023042267508875075 -0.0043968744382026333 -1.1373902979494589e-05 -0.00095176995421338288 -0.0012555438559421152 -0.00046005557611941694 -8.954824496471003e-06 -7.5596403235844716e-06 0.0044292488443629209 0.00044790810901974013 -0.00037129080542701309 0.00032842058142481813 0.00046618147374287157 -0.00043897050076174837 0.00038050303174823747 0.00077819026716249298 -0.0044240986265682014 0.00030365087985243514 0.002450372148373456 0.00041632892854392978 -0.000246837198105615 -0.00080533929297513804 0.0013896264234040335 0.0055439496765179452 -0.00032088793913416237 0.00013630127885383287 -0.0012431110034486674 -0.0011490972527690214 0.0025315468447879132 0.0014347465099992908 -5.1480729792510727e-05
leaf_weight=468 51 21 50 21 27 40 33 136 139 102 46 61 158 48 119 87 42 102 28 26 41 45 349 36 20 20 121 59 31 28
leaf_count=468 51 21 50 21 27 40 33 136 139 102 46 61 158 48 119 87 42 102 28 26 41 45 349 36 20 20 121 59 31 28
internal_value=0 0.0104167 0.00561325 -0.0151794 0.00713542 0.00191489 -0.0172267 0.0121429 0.00861582 -0.00393891 0.00306452 0.00211864 -0.0113889 -0.00618812 0.0133648 -0.0205259 -0.0122093 0.0137967 -0.0108974 -0.000925926 -0.00243363 0.00232558 0.0217366 0.00695876 -0.0226378 -0.01 -0.012987 0.013125 0.0107143 0.00608108
internal_weight=0 1440 1011 1115 960 470 997 490 354 311 155 118 360 202 159 637 129 241 156 54 113 86 429 97 508 40 154 80 105 74
internal_count=2555 1440 1011 1115 960 470 997 490 354 311 155 118 360 202 159 637 129 241 156 54 113 86 429 97 508 40 154 80 105 74
is_linear=0
shrinkage=0.05


Tree=26
num_leaves=31
num_cat=0
split_feature=7 7 0 1 0 8 0 1 0 8 2 0 8 0 8 0 7 0 0 1 8 0 0 5 0 6 1 1 6 8
split_gain=157.231 31.1021 17.4565 15.5501 9.78166 17.2139 9.46878 10.2315 7.68207 6.57677 6.08709 9.7127 9.43946 5.21757 8.27114 5.10748 4.31231 4.13006 3.6192 3.50576 3.498 4.83557 3.2193 2.83425 2.79087 2.73684 2.57979 2.51476 2.25783 2.21924
threshold=0.45587098587590447 0.73734057690956367 0.10043216459136792 0.53287742830785545 0.73689274460596055 0.54116245452505873 0.48491833772981296 0.59569539945509042 0.69188428572574001 0.61622131280227854 0.45268856819779851 0.22575187819212481 0.48518248195912167 0.64504373762237333 0.72187795533870858 0.080527737911017375 0.36427078209542546 0.35641151049141689 0.46198715533069817 0.34581789421065279 0.63030895980597379 0.57468670071599826 0.32321742128430658 0.16470361847643938 0.48224036048460162 0.45936527659473481 0.77873723035626974 0.48539762995014474 0.069104494971600761 0.60983281125307787
decision_type=2 2 2 2 2 2 2 2 2 2 2 2 2 2 2 2 2 2 2 2 2 2 2 2 2 2 2 2 2 2
left_child=3 2 -2 8 5 6 7 17 10 -10 16 -12 18 29 -15 -5 -1 -4 19 -13 21 -18 26 -17 25 -3 -9 -19 -6 -7
right_child=1 24 4 15 28 13 -8 22 9 -11 11 12 -14 14 -16 23 20 27 -20 -21 -22 -23 -24 -25 -26 -27 -28 -29 -30 -31
leaf_value=-0.0020613912833413713 -0.0041770307162925019 0.00098275876297195257 -0.00085342469991251399 -0.001192766663145009 0.00020441588997361371 -4.8258236620893348e-05 0.0034047131503655071 0.00011718056526506261 0.00080826515702403241 -0.00021813799167913763 -0.0056064169257461164 -0.0020614065137732037 -0.00079649225478509731 0.00086649814261253739 -0.00022016522334162292 0.00044287240005572718 -0.0021512687324329498 -8.7454199802550203e-05 0.0014197012462008843 6.6237363172538818e-05 -0.00040444952417605654 0.00023903891904318992 0.0025994648339098371 -0.00030484354217745344 0.0054360323640863968 0.0025154103068970035 0.0023495111356808766 0.0013357981841706113 0.0029175112877704136 -0.00037738710923516109
leaf_weight=455 51 38 79 21 41 88 161 108 26 33 110 22 90 76 61 61 26 35 46 49 112 28 74 36 325 26 30 39 102 106
leaf_count=455 51 38 79 21 41 88 161 108 26 33 110 22 90 76 61 61 26 35 46 49 112 28 74 36 325 26 30 39 102 106
internal_value=0 0.00996528 0.00549477 -0.0150448 0.00695 0.00492999 0.0105513 0.00609589 -0.0170762 0.000423729 -0.018177 -0.0125394 -0.00615942 -0.00400302 0.00346715 0.00211864 -0.0210548 -0.00375817 0.00320513 -0.00387324 -0.0141566 -0.0037037 0.0132075 0.00695876 0.0220437 0.0125 0.00869565 0.00472973 0.0190559 -0.00927835
internal_weight=0 1440 1051 1115 1000 857 526 365 997 59 938 317 207 331 137 118 621 153 117 71 166 54 212 97 389 64 138 74 143 194
internal_count=2555 1440 1051 1115 1000 857 526 365 997 59 938 317 207 331 137 118 621 153 117 71 166 54 212 97 389 64 138 74 143 194
is_linear=0
shrinkage=0.05


Tree=27
num_leaves=31
num_cat=0
split_feature=7 7 7 0 6 0 2 0 5 0 8 0 0 1 1 0 8 8 0 8 8 0 1 6 8 4 0 8 0 7
split_gain=149.77 20.9584 20.6306 12.5768 10.0988 11.3669 9.65201 9.4944 8.59184 9.76126 6.2899 5.0405 4.75356 8.95152 4.70537 4.15282 7.85764 3.95765 3.88777 4.60952 3.63655 4.6974 3.5889 3.10865 2.90659 2.80918 2.75318 5.04475 2.55686 2.26755
threshold=0.51909124446630572 0.37052253882369485 0.76838416133792431 0.18219465847772229 0.37140121015003646 0.69422952028928586 0.48062244979277186 0.20110085711307638 0.49322086897956241 0.21551302507196063 0.64600828701823565 0.44798790901291685 0.54407838295074618 0.42998877616734094 0.59272938915449669 0.51691776044130522 0.63030895980597379 0.35878415413058734 0.66719317516697285 0.61622131280227854 0.32908521883351288 0.61129641359514453 0.61373961351487738 0.67086189954304398 0.72697853270361867 0.51967830648702373 0.64878007713215913 0.69256383531610244 0.76287072746369911 0.46426814700302138
decision_type=2 2 2 2 2 2 2 2 2 2 2 2 2 2 2 2 2 2 2 2 2 2 2 2 2 2 2 2 2 2
left_child=1 6 3 -2 5 10 18 22 9 14 11 -5 13 -6 -3 -10 25 -9 -1 -20 -11 -22 -8 -15 -7 -17 -18 -28 -26 -29
right_child=2 8 -4 4 12 24 7 17 15 20 -12 -13 -14 23 -16 16 26 -19 19 -21 21 -23 -24 -25 28 -27 27 29 -30 -31
leaf_value=-0.0020403630423592696 -0.00155561203138017 -0.0043932421203735699 0.005155564230531734 -0.00027520140909393921 -0.00054456239267831614 0.0019546547981712488 -0.0045702084772474725 0.00032966963308979499 -0.0017357419479975087 0.0014504257895928978 -0.00029903136482770099 0.00033967209444122904 0.0043286746076605263 0.00067192274728387631 -1.4354612012547342e-05 -8.2118721390217475e-06 -0.00061962856303427187 -0.0011440777400158059 0.00056808388792740081 -0.000952549584806281 -0.00017008161618300435 0.0015550603200895853 3.9362664582681672e-05 0.0022893930584864191 1.7833568005187762e-05 0.00086574957067422356 7.216656964152274e-05 -0.00034386848012490923 0.00074811563625775128 -0.00018150752026449281
leaf_weight=465 66 48 299 61 21 58 92 68 86 84 83 83 155 169 50 49 76 32 20 28 61 31 20 80 51 29 52 63 43 32
leaf_count=465 66 48 299 61 21 58 92 68 86 84 83 83 155 169 50 49 76 32 20 28 61 31 20 80 51 29 52 63 43 32
internal_value=0 -0.0123016 0.0119974 0.00810345 0.00982587 0.00389182 -0.0181724 -0.00919811 -0.00586233 0.000912409 -0.00319383 0.003125 0.0151176 0.0111111 -0.0117347 -0.0106589 -0.00789037 0.002 -0.0218811 -0.00833333 0.00795455 0.00108696 -0.0191964 0.013755 0.0144737 0.00576923 -0.0126682 -0.00867347 0.00904255 -0.0155263
internal_weight=0 1386 1169 870 804 379 725 212 661 274 227 144 425 270 98 387 301 100 513 48 176 92 112 249 152 78 223 147 94 95
internal_count=2555 1386 1169 870 804 379 725 212 661 274 227 144 425 270 98 387 301 100 513 48 176 92 112 249 152 78 223 147 94 95
is_linear=0
shrinkage=0.05


Tree=28
num_leaves=31
num_cat=0
split_feature=7 7 0 1 6 0 0 0 1 7 6 0 6 8 0 0 6 2 0 0 1 8 9 0 0 0 8 0 8 5
split_gain=143.137 29.1184 17.6997 13.8039 10.9854 12.345 7.56515 7.19429 8.8587 5.91556 5.35011 6.64224 5.11628 5.09428 5.60211 4.98023 4.65396 4.39802 9.817 3.5736 3.64539 3.27964 2.89106 3.46923 2.81834 2.69495 3.17888 2.48745 2.92189 2.25929
threshold=0.45587098587590447 0.76217851872672371 0.10043216459136792 0.53651699473248837 0.35222258577607818 0.69422952028928586 0.69717609704861261 0.54407838295074618 0.42280417751092286 0.361159177148479 0.051462051231416055 0.63242356940691635 0.039042621646061711 0.63431899056279606 0.37918634391962863 0.080527737911017375 0.67086189954304398 0.49853866350540993 0.2522109348064881 0.41431675499715365 0.59569539945509042 0.61622131280227854 0.44224126383901669 0.29264919299877329 0.28402995485924587 0.76287072746369911 0.75800941164442526 0.57468670071599826 0.52391392633698464 0.16470361847643938
decision_type=2 2 2 2 2 2 2 2 2 2 2 2 2 2 2 2 2 2 2 2 2 2 2 2 2 2 2 2 2 2
left_child=3 2 -2 6 5 13 9 8 -6 17 -11 22 -7 14 -4 -5 19 -1 -19 20 -10 -8 23 -12 -22 26 -14 28 -16 -17
right_child=1 -3 4 15 7 12 21 -9 16 10 11 -13 25 -15 27 29 -18 18 -20 -21 24 -23 -24 -25 -26 -27 -28 -29 -30 -31
leaf_value=-0.0018909696284577062 -0.0038148720844882705 0.0048277216489148404 -0.00072136889110739622 -0.0011350964632168947 -0.00055526358421138235 -0.0002342647323139935 0.00083815746952206616 0.0039091931653800708 -0.00024208668169191372 -0.0004514905596870636 -0.0028825850847806868 0.00017162639793917301 0.00070749089418085671 -0.00025978735388102473 0.00089864038668378561 0.00043582956421985567 0.0020515218891836938 -0.0043492012456695095 9.9896142748251432e-05 0.0019331998623743352 2.4639160785294711e-05 -0.0001692750859357023 -0.0007731442777501957 0.00044027891503040654 0.0012051733609337867 0.001238879168847798 -1.9026598629262592e-05 0.00067095191468524717 -6.3477386193896987e-05 -0.00017621174893908134
leaf_weight=483 52 309 62 21 30 22 23 177 70 106 23 59 71 135 25 60 113 78 47 67 62 26 123 33 53 62 39 33 58 33
leaf_count=483 52 309 62 21 30 22 23 177 70 106 23 59 71 135 25 60 113 78 47 67 62 26 123 33 53 62 39 33 58 33
internal_value=0 0.00913194 0.00541556 -0.0147309 0.00678869 0.00142998 -0.0166084 0.0115385 0.00778481 -0.0175945 -0.0123547 -0.00819328 0.0113402 -0.00471246 0.000842697 0.00175439 0.00993151 -0.0205592 -0.0122 0.00615079 0.00256757 0.00255102 -0.0129888 -0.00357143 0.00804348 0.0142442 0.00954545 0.00732759 0.00271084 0.00672043
internal_weight=0 1440 1131 1115 1079 507 1001 572 395 952 344 238 194 313 178 114 365 608 125 252 185 49 179 56 115 172 110 116 83 93
internal_count=2555 1440 1131 1115 1079 507 1001 572 395 952 344 238 194 313 178 114 365 608 125 252 185 49 179 56 115 172 110 116 83 93
is_linear=0
shrinkage=0.05


Tree=29
num_leaves=31
num_cat=0
split_feature=7 7 7 0 2 0 8 0 6 0 8 0 0 8 8 0 1 0 8 0 0 6 1 3 1 7 8 5 4 6
split_gain=135.467 20.6265 19.6223 10.8327 9.73398 12.1331 9.60984 13.4382 8.75777 7.87206 8.74606 10.5047 6.6027 6.26356 5.34222 4.83262 7.76339 4.10423 6.45333 3.64504 2.94348 2.93337 2.91054 2.41042 2.38749 2.36501 2.07709 1.7759 2.35962 1.74999
threshold=0.51909124446630572 0.37052253882369485 0.78579553439673944 0.76287072746369911 0.52050047386283727 0.11159307574506291 0.54116245452505873 0.18219465847772229 0.051462051231416055 0.59985487608341836 0.36849115492861756 0.16470361847643938 0.58808861378597044 0.65019155564769682 0.59383528770266725 0.53005107399716189 0.42658554522482711 0.66719317516697285 0.59205036962146118 0.67824985367339918 0.70815259659560159 0.67086189954304398 0.59272938915449669 0.35240260538281937 0.5987677607226376 0.55747136532921115 0.75800941164442526 0.16470361847643938 0.53495412632016837 0.40863586535788771
decision_type=2 2 2 2 2 2 2 2 2 2 2 2 2 2 2 2 2 2 2 2 2 2 2 2 2 2 2 2 2 2
left_child=1 4 3 6 17 -6 7 24 20 10 11 22 -8 -14 -11 16 -9 29 -19 -15 -3 25 -10 -16 -2 -18 -21 -13 -29 -1
right_child=2 8 -4 -5 5 -7 12 15 9 14 -12 27 13 19 23 -17 21 18 -20 26 -22 -23 -24 -25 -26 -27 -28 28 -30 -31
leaf_value=-0.0018616466645373462 -0.0037361969605093138 -0.00036245341125687447 0.0050816642152593464 0.0027694845406483204 -0.0038295176048404656 0.00010837025460158634 -0.00026699429435970978 -0.00045398768827569494 -0.0050843475319879766 0.0014321799851780281 -0.0007306774389581037 0.0011239963984131629 0.0018627647843834417 -0.00016454690041912414 4.1339331321221806e-05 0.0037780671790625889 -0.00020902671013868225 0.00067390074114425389 -0.00082535221778962944 0.00051477625415357058 -0.00016787436582800243 0.0020636891165413617 -0.0001237726442716372 -0.00011616507928080279 -5.1445855846110615e-05 0.00078926464176141411 -1.9124527502478728e-05 -0.00020111206361356215 0.0015262086917512297 -0.00093462348167649978
leaf_weight=486 21 105 259 113 64 94 136 22 37 51 180 48 61 42 65 109 25 20 30 44 26 81 38 43 41 170 45 37 31 31
leaf_count=486 21 105 259 113 64 94 136 22 37 51 180 48 61 42 65 109 25 20 30 44 26 81 38 43 41 170 45 37 31 31
internal_value=0 -0.0117965 0.0113131 0.00785714 -0.0176207 -0.00664557 0.00580301 0.0103945 -0.00540847 -0.00254717 -0.00653639 0.00091623 -0.000762195 0.00520833 0.00676101 0.0136978 0.0104027 -0.020679 -0.007 -0.000954198 -0.0169847 0.0126812 -0.0136667 0.000462963 -0.0112903 0.00935897 0.00477528 0.0103448 0.00514706 -0.0220019
internal_weight=0 1386 1169 910 725 158 797 469 661 530 371 191 328 192 159 407 298 567 50 131 131 276 75 108 62 195 89 116 68 517
internal_count=2555 1386 1169 910 725 158 797 469 661 530 371 191 328 192 159 407 298 567 50 131 131 276 75 108 62 195 89 116 68 517
is_linear=0
shrinkage=0.05


Tree=30
num_leaves=31
num_cat=0
split_feature=7 7 7 0 1 6 6 0 0 8 0 8 8 8 0 1 2 0 8 0 0 8 7 7 0 0 0 0 8 0
split_gain=125.897 20.1749 17.6613 12.5045 11.0094 8.72137 8.57321 11.5953 7.56269 8.11796 9.48787 6.94092 6.5032 4.98194 4.38172 5.41684 4.09777 10.2772 4.2837 3.89851 3.68795 3.22051 3.03793 3.32321 2.87389 2.54453 2.39193 2.28664 2.1825 2.17482
threshold=0.50579720328859523 0.78104578033869709 0.361159177148479 0.12130274773293986 0.5293087625278583 0.050528526077045957 0.46932681716605151 0.67630551390704075 0.59845976218920649 0.36849115492861756 0.2661059484770007 0.59383528770266725 0.64600828701823565 0.714505405873616 0.446308159812702 0.59569539945509042 0.466173890347096 0.33200904418662452 0.42422547051122222 0.45660714715244427 0.059801476896432802 0.54221750156908077 0.61813997610849547 0.57167890520694242 0.75400694349788744 0.70815259659560159 0.2522109348064881 0.66719317516697285 0.46065228318996276 0.16470361847643938
decision_type=2 2 2 2 2 2 2 2 2 2 2 2 2 2 2 2 2 2 2 2 2 2 2 2 2 2 2 2 2 2
left_child=2 3 4 -2 16 25 7 12 9 10 20 -10 19 -9 15 -8 27 -18 -19 28 -7 -21 23 -15 -24 -4 -17 -1 -5 -6
right_child=1 -3 5 6 29 8 14 13 11 -11 -12 -13 -14 22 -16 26 17 18 -20 21 -22 -23 24 -25 -26 -27 -28 -29 -30 -31
leaf_value=-0.0018437330842280275 -0.002605703958986258 0.0047299038534819818 -0.00039067038015177803 0.00016427838113845794 -0.0003797505438621479 -0.0060857976740173805 -0.00040671137578335292 0.0029208066092464902 0.0012326689115213841 -0.00087961024286092176 0.0012260505150961361 -7.7640250139232588e-06 -0.000399423009683611 0.00021268385538918689 0.0031108941124974865 4.5002821227624336e-05 -0.0041493367915503036 0.00037172516320907738 -0.001365636064880274 0.0013604164662700897 -0.00010237422727333995 3.1226064679554243e-05 3.3453564755439591e-05 -0.00012568051293591065 0.00094208086575781893 -0.00016550994283555666 0.0017665022113187269 -0.0005638073361585727 -0.0003303473203572771 0.00053096122478500098
leaf_weight=421 44 269 114 32 25 28 48 87 53 174 70 119 78 24 191 50 100 39 20 46 78 80 30 26 38 25 104 37 82 23
leaf_count=421 44 269 114 32 25 28 48 87 53 174 70 119 78 24 191 50 100 39 20 46 78 80 30 26 38 25 104 37 82 23
internal_value=0 0.0101098 -0.0121041 0.00671875 -0.0178571 -0.00631619 0.00796943 0.00377629 -0.00335249 -0.00757143 0 0.00523256 -0.00220126 0.0130488 0.0135496 0.00841584 -0.0196515 -0.0127358 0.00381356 0.001875 -0.00943396 0.00793651 0.00635593 -0.003 0.0132353 -0.017446 0.012987 -0.0220524 -0.00482456 0.00520833
internal_weight=0 1229 1326 960 665 661 916 523 522 350 176 172 318 205 393 202 617 159 59 240 106 126 118 50 68 139 154 458 114 48
internal_count=2555 1229 1326 960 665 661 916 523 522 350 176 172 318 205 393 202 617 159 59 240 106 126 118 50 68 139 154 458 114 48
is_linear=0
shrinkage=0.05


Tree=31
num_leaves=31
num_cat=0
split_feature=7 7 1 0 7 6 0 0 8 0 6 0 8 8 2 0 2 0 9 5 7 1 0 8 8 0 7 0 1 2
split_gain=122.754 23.99 14.8133 13.9963 9.46647 7.75292 8.54446 5.86505 5.76122 12.0539 5.06753 7.86752 4.6592 4.63302 4.5119 5.82623 5.80844 3.88132 3.67005 3.2944 3.79416 3.28872 4.18346 4.95659 2.96809 8.05396 2.82059 2.28786 2.59441 2.27868
threshold=0.46426814700302138 0.73734057690956367 0.55258780751658154 0.10043216459136792 0.361159177148479 0.6580406996380872 0.76287072746369911 0.63788776549257953 0.65222781064248514 0.60365535876075416 0.047775217710359405 0.58808861378597044 0.79186179593714623 0.56641826438371323 0.39990316435626272 0.24209235012548003 0.55806672842159444 0.70276457052140395 0.33379334593806514 0.58819284643323921 0.78579553439673944 0.77873723035626974 0.3204432292877703 0.49611208774356258 0.48518248195912167 0.24682290873229043 0.57461044550628892 0.39214326376472292 0.65162419129855598 0.76092450303888348
decision_type=2 2 2 2 2 2 2 2 2 2 2 2 2 2 2 2 2 2 2 2 2 2 2 2 2 2 2 2 2 2
left_child=2 3 4 -2 14 6 8 19 9 21 -6 24 -8 -13 -1 -16 18 -10 -17 -3 -21 22 -5 26 25 -12 -24 28 -7 -25
right_child=1 7 -4 5 10 27 12 -9 17 -11 11 13 -14 -15 15 16 -18 -19 -20 20 -22 -23 23 29 -26 -27 -28 -29 -30 -31
leaf_value=-0.0016558604292402663 -0.0032601883606363708 0.0023051930331306897 0.00020602215079307262 -0.00015457883581624922 -0.00039792577743907599 -0.00028294347304760328 0.0028422647019898106 0.0054516129302170646 -0.00019757038742183322 0.0019739331599232051 -0.0043996800740076589 0.0010333936287989648 -3.4444402940692068e-05 -9.1153779970556955e-06 -0.0044252852930337094 0.00028570139434525856 0.00028868342444235418 5.9820104027047406e-05 -0.0010530370866388555 -0.00027955821855364383 0.0016489456012992343 0.0027073123992716608 0.00014499835445731525 -0.00017014875569175276 -0.0010556853800438388 0.00025695378715687444 0.0013009522367708637 0.0038476729965039149 0.0014967823706774298 0.0001473032542663233
leaf_weight=392 48 60 103 135 111 28 67 232 108 110 43 27 20 110 103 20 25 89 86 36 61 21 55 100 78 57 83 70 51 26
leaf_count=392 48 60 103 135 111 28 67 232 108 110 43 27 20 110 103 20 25 89 86 36 61 21 55 100 78 57 83 70 51 26
internal_value=0 0.00853571 -0.0134848 0.00447577 -0.0152567 0.0057892 0.00386978 0.0190874 0.00209766 0.00481132 -0.00950704 -0.00626984 0.0186782 0.00273723 -0.0191693 -0.0136752 -0.00667939 -0.00520305 -0.0117925 0.0116242 0.00592784 0.000952381 -6.26566e-05 0.00359848 -0.0132022 -0.0075 0.0101449 0.0162752 0.010443 -0.00357143
internal_weight=0 1400 1155 1011 1052 963 814 389 727 530 426 315 87 137 626 234 131 197 106 157 97 420 399 264 178 100 138 149 79 126
internal_count=2555 1400 1155 1011 1052 963 814 389 727 530 426 315 87 137 626 234 131 197 106 157 97 420 399 264 178 100 138 149 79 126
is_linear=0
shrinkage=0.05


Tree=32
num_leaves=31
num_cat=0
split_feature=7 7 0 1 0 0 8 8 7 2 0 8 8 0 8 0 0 0 1 6 0 1 0 8 9 7 8 0 7 5
split_gain=114.392 27.6005 13.5705 12.6748 9.96132 8.32368 9.13327 6.85876 7.1399 6.61565 9.50505 7.19582 6.2079 8.5959 8.53839 6.49487 4.23324 3.89222 3.81803 3.70381 7.63854 3.34697 3.23077 3.11207 3.11136 2.86139 2.75447 2.32894 2.22839 2.45665
threshold=0.45587098587590447 0.68679950460262795 0.10043216459136792 0.519997144532369 0.63788776549257953 0.66563369440591413 0.58701653143699406 0.51921236407216909 0.76838416133792431 0.38564725236986258 0.24209235012548003 0.32908521883351288 0.43647708006145675 0.50030067109789067 0.63030895980597379 0.31351977614034532 0.70626839104882111 0.65142598279359543 0.61373961351487738 0.055893341521147707 0.54660802912099826 0.039042621646061711 0.080527737911017375 0.69256383531610244 0.79538991381042434 0.37583664183824028 0.64600828701823565 0.45050953728722515 0.3494835218888343 0.62812998612904014
decision_type=2 2 2 2 2 2 2 2 2 2 2 2 2 2 2 2 2 2 2 2 2 2 2 2 2 2 2 2 2 2
left_child=3 2 -2 5 7 9 -7 -3 26 28 -11 27 15 -14 17 18 -16 -15 -4 -13 -21 -18 -5 25 -23 -8 -9 -12 -1 -30
right_child=1 4 12 22 -6 6 23 8 -10 10 11 19 13 14 16 -17 21 -19 -20 20 -22 24 -24 -25 -26 -27 -28 -29 29 -31
leaf_value=-0.0018338559257778332 -0.0032378215035902894 0.0019224252201133218 -0.0007102389091330763 -0.00087817934016057309 0.0048115640608732968 0.00086312096690050475 -0.00047107020832487387 -1.3208680767268222e-05 0.0015808607808253329 -0.0049341690816245096 -4.9517360623224656e-06 -0.00082995019416647617 -0.0004042555690875971 0.00014281206396720981 -0.00012105617388416534 0.001960561529880073 -0.00021882952468236795 0.0028926213565157177 0.00041552558265079423 -0.0011933742238899232 5.4391793135658009e-05 0.00032885899741300631 0.00024563800158260428 -0.00029141959217826862 -9.0879739442251145e-05 5.1529106665638982e-05 -0.00075873542376575509 0.0025400437821491983 -0.00023449852146694428 -0.00043800264363471345
leaf_weight=301 50 88 46 25 290 37 24 54 102 125 44 52 125 88 105 189 22 60 86 109 71 88 105 58 22 34 25 21 39 70
leaf_count=301 50 88 46 25 290 37 24 54 102 125 44 52 125 88 105 189 22 60 86 109 71 88 105 58 22 34 25 21 39 70
internal_value=0 0.0078125 0.00229852 -0.0135202 0.0165027 -0.0154569 -0.00473856 0.00957249 0.00400552 -0.0174279 -0.0130332 -0.00816498 0.0038207 0.000392157 0.00409091 0.00926791 -0.00179325 0.0135135 0.000757576 -0.0122845 -0.00888889 0.00416667 0.00115385 -0.0116379 0.00772727 -0.00344828 -0.00727848 0.00653846 -0.0219512 -0.0158257
internal_weight=0 1440 881 1115 559 985 153 269 181 832 422 297 831 510 385 321 237 148 132 232 180 132 130 116 110 58 79 65 410 109
internal_count=2555 1440 881 1115 559 985 153 269 181 832 422 297 831 510 385 321 237 148 132 232 180 132 130 116 110 58 79 65 410 109
is_linear=0
shrinkage=0.05


Tree=33
num_leaves=31
num_cat=0
split_feature=7 7 0 1 8 0 8 0 8 2 0 0 8 0 1 0 8 0 6 0 0 5 4 8 7 3 0 9 4 6
split_gain=108.032 27.9877 14.8385 12.7406 9.61998 11.5371 8.27532 7.87002 8.50989 7.50911 8.09945 6.67644 5.8838 5.72178 5.51484 3.7738 5.27031 3.77379 3.65383 3.60909 3.58758 3.32944 2.87209 2.4288 2.50149 2.27752 2.30295 2.24096 2.22315 3.65405
threshold=0.44623752722928828 0.72477557796360081 0.12130274773293986 0.57833655829344854 0.47420317678498891 0.69422952028928586 0.6483938577234275 0.66563369440591413 0.58701653143699406 0.38564725236986258 0.15134981278212969 0.57468670071599826 0.32908521883351288 0.55250519158762368 0.48539762995014474 0.46198715533069817 0.63431899056279606 0.32870166210982915 0.041595044852947106 0.41431675499715365 0.4906511333295917 0.52804660001122516 0.84053985348154658 0.69256383531610244 0.37583664183824028 0.55247634263242007 0.18219465847772229 0.79538991381042434 0.73116521457789274 0.30954039770538361
decision_type=2 2 2 2 2 2 2 2 2 2 2 2 2 2 2 2 2 2 2 2 2 2 2 2 2 2 2 2 2 2
left_child=3 2 -2 7 13 15 -7 9 -9 -1 -11 21 17 14 20 -6 28 -12 -8 25 -4 -3 -23 24 -10 -16 -27 -20 29 -17
right_child=1 11 4 -5 5 6 18 8 23 10 12 -13 -14 -15 19 16 -18 -19 27 -21 -22 22 -24 -25 -26 26 -28 -29 -30 -31
leaf_value=-0.0013823568247004897 -0.0028370639186685699 0.0019534582968105396 -0.00072408788013440676 0.00023562787243512908 -0.00057893103822884433 0.0031071890000460459 -0.00016316767023106249 0.00081074379277411431 -0.0004475166979086301 -0.004687460627543283 -0.00039817203289732594 0.0044141448031280615 -0.0007573603720310879 0.0044304591987979593 -7.6833340798709851e-05 0.00017399006731276675 -0.00015576118456690216 0.00091799015844528243 0.0002571610434578764 0.0023002771060163852 0.00082894475722367078 -0.00012793372692571081 0.0012576174959472331 -0.00030054494981865133 4.8952651332358214e-05 -2.6061291758132377e-05 0.00084032432779987398 -7.6214349444320159e-05 0.0022014582169360892 -0.00025973633424815622
leaf_weight=410 68 31 40 83 96 59 29 36 24 107 55 289 232 72 32 56 122 48 113 53 23 50 59 48 32 38 155 23 20 52
