tree
version=v4
num_class=1
num_tree_per_iteration=1
label_index=0
max_feature_idx=9
objective=quantile
feature_names=Column_0 Column_1 Column_2 Column_3 Column_4 Column_5 Column_6 Column_7 Column_8 Column_9
feature_infos=[0.0018922234427241:1] [0:1] [0.03406563919175:1] [0:1] [0:1] [0.0018922234427241:1] [0:1] [0.0122487878574938:0.99354841543110117] [0:1] [0:1]
tree_sizes=2374 2301 2654 2212 2588 2641 2744 2836 2475 2818 2486 2821 2731 2839 2837 2654 2568 2726 2841 2839 2836 2818 2842 2846 2861 2843 2854 2848 2858 2869 2837 2850 2856 2850 2848 2849 2852 2868 2852 2850 2856 2854 2846 2842 2844 2847 2841 2872 2866 2867 2850 2848 2853 2868 2865 2867 2874 2864 2856 2845 2874 2879 2858 2857 2847 2878 2853 2844 2849 2868 2859 2849 2837 2843 2837 2850 2868 2847 2869 2862 2880 2861 2846 2872 2873 2860 2862 2876 2873 2883 2864 2877 2863 2865 2884 2854 2877 2863 2863 2866 2846 2874 2852 2865 2881 2880 2846 2855 2871 2849 2871 2867 2861 2866 2846 2860 2864 2862 2880 2892 2882 2873 2874 2879 2877 2889 2896 2888 2855 2858 2874 2855 2883 2881 2885 2873 2866 2876 2872 2892 2875 2888 2877 2857 2852 2848 2854 2858 2883 2880 2886 2859 2872 2869 2885 2874 2865 2876 2895 2879 2863 2834 2863 2877 2865 2866 2874 2872 2875 2875 2866 2900 2866 2869 2887 2873 2871 2863 2887 2867 2883 2859 2902 2878 2896 2873 2890 2891 2868 2898 2893 2878 2867 2900 2860 2880 2873 2871 2884 2871 2868 2865 2885 2882 2878 2876 2863 2900 2884 2850 2900 2877 2877 2893 2887 2876 2876 2870 2873 2856 2859 2876 2877 2870 2866 2859 2884 2884 2863 2869 2882 2874 2864 2879 2893 2890 2876 2879 2857 2860 2888 2876 2865 2879 2881 2853 2880 2878 2878 2866 2873 2859 2860 2856 2863 2875 2879 2880 2881 2875 2879 2868 2866 2874 2868 2870 2871 2843 2871 2865 2857 2877 2871 2886 2867 2883 2847 2884 2891 2870 2862 2874 2876 2872 2869 2868 2878 2872 2870 2861 2872 2879 2860 2880 2870 2844 2873 2835 2877 2896 2877 2873 2894 2871 2886 2880 2872 2864 2850 2859 2870 2869 2881 2874 2902 2875 2863 2887 2863 2880 2872 2869 2868 2847 2902 2863 2885 2854 2887 2859 2873 2886 2851 2868 2881 2863 2863 2859 2869 2851 2876 2849 2857 2885 2870 2876 2862 2870 2873 2870 2870 2873 2862 2864 2877 2875 2876 2869 2879 2886 2888 2889 2878 2880 2881 2891 2853 2888 2856 2881 2886 2870 2889 2870 2876 2874 2878 2862 2881 2896 2885 2878 2868 2866 2885 2889 2891 2860 2891 2858 2866 2855 2867 2860 2857 2873 2860 2863 2883 2879 2879 2881 2856 2860 2842 2865 2868 2876 2860 2858 2868 2867 2845 2869 2861 2840 2843 2858 2861 2866 2851 2864 2840 2852 2830 2846 2877 2855 2877 2847 2874 2859

Tree=0
num_leaves=27
num_cat=0
split_feature=7 0 0 1 7 0 8 0 0 1 7 0 6 0 1 5 6 0 2 5 4 4 0 1 0 0
split_gain=92.302 33.5581 8.13804 6.39175 4.00038 6.18353 10.7723 2.05295 1.80249 3.04712 1.28926 0.533333 0.470136 3.61723 3.98551 1.33333 0.187783 0.172222 0.129825 0.0480392 0.0478553 0.0214934 0.0277778 1.42109e-14 1.77636e-15 8.88178e-16
threshold=0.78104578033869709 0.63138124293422926 0.80534152227772404 0.10631551663124011 0.69118034572412368 0.58808861378597044 0.60368996668720898 0.56063533807458266 0.72250863928287956 0.34581789421065279 0.73107564471927466 0.74888350798983339 0.43236394776263704 0.55488249773494458 0.26232056837800383 0.27094474867905166 0.15732853044663012 0.54407838295074618 0.80484812375373815 0.040374115024735209 0.81368584040119252 0.14486029904555012 0.23184948805734398 0.27052140960753374 0.77230779098948876 0.51691776044130522
decision_type=2 2 2 2 2 2 2 2 2 2 2 2 2 2 2 2 2 2 2 2 2 2 2 2 2 2
left_child=2 7 4 -4 12 17 10 18 9 -3 -7 -8 20 19 -15 -16 -10 -6 -2 -14 21 22 -1 -18 -23 -21
right_child=1 8 3 -5 5 6 11 -9 16 -11 -12 -13 13 14 15 -17 23 -19 -20 25 -22 24 -24 -25 -26 -27
leaf_value=0.80674008681700404 0.82430727838279694 0.82677012969438268 0.82479917779273781 0.83162592338956642 0.82202139348282866 0.83025410253057674 0.82356809936285802 0.82679647429990621 0.83174337908827067 0.82945264087101589 0.82843960811986217 0.82587252968475511 0.82029662452087104 0.82271735751014563 0.82836374800259338 0.82700296470094337 0.83223603036378579 0.82480767127494192 0.82435684940612397 0.81926452375191805 0.82251364106116254 0.81538467312325058 0.82051472475919707 0.83074340188699092 0.81909298967526178 0.82372917830944059
leaf_weight=25 37 30 26 21 124 20 40 31 34 34 21 20 20 44 24 24 51 20 20 467 20 1301 20 32 26 23
leaf_count=25 37 30 26 21 124 20 40 31 34 34 21 20 20 44 24 24 51 20 20 467 20 1301 20 32 26 23
internal_value=0.825051 0.852765 0.821801 0.842392 0.821369 0.827398 0.836883 0.827438 0.865079 0.858333 0.856637 0.823385 0.820628 0.821796 0.830921 0.840885 0.868769 0.820746 0.821806 0.820149 0.820123 0.820088 0.821163 0.870051 0.820051 0.820051
internal_weight=0 269 2286 47 2239 245 101 88 181 64 41 60 1994 602 92 48 117 144 57 510 1392 1372 45 83 1327 490
internal_count=2555 269 2286 47 2239 245 101 88 181 64 41 60 1994 602 92 48 117 144 57 510 1392 1372 45 83 1327 490
is_linear=0
shrinkage=1


Tree=1
num_leaves=25
num_cat=0
split_feature=7 0 0 7 0 8 7 8 0 7 0 8 8 5 8 0 5 0 0 4 3 2 0 0
split_gain=86.0243 33.6619 7.13205 4.36654 4.48675 6.76 1.90678 4.01111 1.79083 1.44465 2.20019 8.28543 0.971494 0.74005 0.3 0.265022 0.173079 1.91497 0.131034 0.0493051 0.0462825 0.038764 3.55271e-15 4.44089e-16
threshold=0.78104578033869709 0.63982007841502253 0.82642057071383346 0.74612641416625702 0.57468670071599826 0.60368996668720898 0.86548512051155935 0.73717116753806289 0.56457212498296216 0.62549847164640615 0.62150319513153374 0.51052349077153336 0.62803840768835373 0.27094474867905166 0.68542842293896644 0.76919283841534325 0.178662775314502 0.55488249773494458 0.52585370547061061 0.77107069399828987 0.59929949612879463 0.59293591855049221 0.74888350798983339 0.57468670071599826
decision_type=2 2 2 2 2 2 2 2 2 2 2 2 2 2 2 2 2 2 2 2 2 2 2 2
left_child=2 8 3 9 -5 -6 7 14 18 15 13 -12 -13 -11 -3 16 17 20 -2 22 -1 -14 -18 -15
right_child=1 6 -4 4 5 -7 -8 -9 -10 10 11 12 21 23 -16 -17 19 -19 -20 -21 -22 -23 -24 -25
leaf_value=-0.0055856915141876927 -0.002137974548085442 0.0053126509849341017 0.0063452600850524739 -0.0026716948428596845 0.0044624462257290554 -2.4631908338448276e-05 0.0064013014713453836 0.0018466550082611888 0.0016004472615623534 0.00065225219120682585 0.004472543044409508 0.0015700966316021078 -0.0018780201177083485 -0.0031873492827169895 0.0050200650537935935 -0.0018653992653382872 -0.009634958942653581 0.0015288211753987314 5.4016011644106997e-05 -0.0027756592505324587 -0.0088191545469735524 -0.0020676174806995079 -0.0069954600251074363 -0.0011013107804981384
leaf_weight=20 38 40 28 38 20 25 81 36 34 30 24 33 20 216 20 30 1387 23 20 20 249 69 32 22
leaf_count=20 38 40 28 38 20 25 81 36 34 30 24 33 20 216 20 30 1387 23 20 20 249 69 32 22
internal_value=0 0.0265985 -0.00329396 -0.00360496 0.0076506 0.0183333 0.0393503 0.0345833 0.00206522 -0.00403448 -0.00137681 0.00356164 -0.00172131 -0.00406717 0.0425 -0.00465929 -0.00474004 -0.00363014 -0.00327586 -0.00496525 -0.00481413 -0.0044382 -0.005 -0.005
internal_weight=0 269 2286 2258 83 45 177 96 92 2175 414 146 122 268 60 1761 1731 292 58 1439 269 89 1419 238
internal_count=2555 269 2286 2258 83 45 177 96 92 2175 414 146 122 268 60 1761 1731 292 58 1439 269 89 1419 238
is_linear=0
shrinkage=0.05


Tree=2
num_leaves=29
num_cat=0
split_feature=7 0 0 7 0 8 7 8 0 0 6 6 0 1 0 0 4 0 0 1 0 0 5 0 0 0 0 0
split_gain=77.5591 31.0994 6.14103 3.90986 5.87178 8.56008 2.38943 5.78491 1.6322 0.833333 0.753062 0.748233 4.30493 3.21872 1.18813 0.436364 0.236364 0.220305 0.186632 0.240698 0.131034 0.0429078 0.0267398 0.170588 1.77636e-15 4.44089e-16 4.44089e-16 2.22045e-16
threshold=0.78104578033869709 0.64504373762237333 0.82642057071383346 0.69118034572412368 0.650175191026371 0.6053030668783389 0.85695840067458362 0.73717116753806289 0.56457212498296216 0.76287072746369911 0.6647526273302673 0.50281555498231634 0.54407838295074618 0.40466542925828825 0.68244722219995035 0.72250863928287956 0.7922164960366066 0.74888350798983339 0.4727551895831496 0.48821002218736104 0.52585370547061061 0.58808861378597044 0.15134981278212969 0.46198715533069817 0.66077084051603197 0.43205634977269264 0.77974839842528543 0.53840171262257375
decision_type=2 2 2 2 2 2 2 2 2 2 2 2 2 2 2 2 2 2 2 2 2 2 2 2 2 2 2 2
left_child=2 8 3 11 10 -6 7 15 20 -7 21 16 18 14 -14 -3 22 -8 25 -20 -2 27 23 -1 -24 -13 -26 -5
right_child=1 6 -4 4 5 9 17 -9 -10 -11 -12 12 13 -15 -16 -17 -18 -19 19 -21 -22 -23 24 -25 26 -27 -28 -29
leaf_value=-0.011939169317134058 -0.0020310758206811721 0.0028336192963789365 0.0060279970807998523 -0.003387682541108228 0.0046820427902142152 -0.0019523676280907495 0.0034397905570841382 0.0010159520347896315 0.0014821926342108358 0.00077482993225907581 0.00066625075237111166 -0.0062841211005663037 -0.0019494476484174313 0.0014547492919100733 0.0032962571309863853 0.0054963796690577762 -0.00097178183683150276 0.0065634504727742418 -0.0038595469813770297 0.00014625865448733639 5.1315211061900988e-05 -0.00029274154806537001 -0.010097867284572232 -0.00028635001803527623 -0.006585290844466552 -0.0025540177577000785 -0.0023561634969883564 -0.00085133034340886642
leaf_weight=116 38 22 28 101 33 30 28 31 36 24 26 327 29 22 23 33 36 61 23 20 20 20 987 20 351 27 23 20
leaf_count=116 38 22 28 101 33 30 28 31 36 24 26 327 29 22 23 33 36 61 23 20 20 20 987 20 351 27 23 20
internal_value=0 0.0251115 -0.00327209 -0.00356067 0.00228346 0.0128161 0.0375714 0.0316279 0.00191489 0.000555554 -0.00320359 -0.0043014 -0.00255839 0.00851351 0.00173077 0.0413636 -0.00483692 0.0433146 -0.00462217 -0.00151163 -0.00327586 -0.00464539 -0.0049332 -0.00426471 -0.005 -0.005 -0.005 -0.005
internal_weight=0 269 2286 2258 254 87 175 86 94 54 167 2004 471 74 52 55 1533 89 397 43 58 141 1497 136 1361 354 374 121
internal_count=2555 269 2286 2258 254 87 175 86 94 54 167 2004 471 74 52 55 1533 89 397 43 58 141 1497 136 1361 354 374 121
is_linear=0
shrinkage=0.05


Tree=3
num_leaves=24
num_cat=0
split_feature=7 0 0 6 7 0 8 0 7 8 0 0 0 8 6 0 1 0 0 4 5 4 0
split_gain=77.9182 31.0994 5.41863 5.55935 2.67828 4.28763 10.1902 4.56743 2.38943 5.78491 1.6322 0.436364 0.31034 0.759804 0.250036 1.63246 1.75552 0.220305 0.131034 0.0468153 0.0460474 0.0215012 0.0277778
threshold=0.78104578033869709 0.64504373762237333 0.79077300534793671 0.35222258577607818 0.62549847164640615 0.54407838295074618 0.55638608757884456 0.6239847339261233 0.85695840067458362 0.73717116753806289 0.56457212498296216 0.72250863928287956 0.71388138324740835 0.714505405873616 0.50281555498231634 0.52585370547061061 0.33098784270768439 0.74888350798983339 0.52585370547061061 0.31242633634535838 0.27094474867905166 0.14486029904555012 0.23184948805734398
decision_type=2 2 2 2 2 2 2 2 2 2 2 2 2 2 2 2 2 2 2 2 2 2 2
left_child=2 10 4 -4 14 20 7 -7 9 11 18 -3 -8 -14 21 19 -17 -10 -2 -16 -6 22 -1
right_child=1 8 3 -5 5 6 12 -9 17 -11 -12 -13 13 -15 15 16 -18 -19 -20 -21 -22 -23 -24
leaf_value=-0.016357856873777422 -0.0019295220296471128 0.00269193833155999 -0.00090771235016907622 0.0056602715464263266 -0.0011282434523739336 0.00089470657437304738 -0.001828320798914625 0.0036612826969892247 0.0032678010292299334 0.00096515443305014855 0.0014080830025002963 0.0052215606856048855 0.0015647597334529535 -0.0032537832324075061 -0.0064204425078003896 -0.0024375592878737732 0.0014282050082419305 0.006235277949135528 4.874945050880389e-05 -0.0048828428143117084 -0.0030499213850892805 -0.0098131136037117456 -0.0043719905797676038
leaf_weight=25 38 22 37 30 20 37 88 38 28 31 36 33 20 31 20 29 22 61 20 294 233 1342 20
leaf_count=25 38 22 37 30 20 37 88 38 28 31 36 33 20 31 20 29 22 61 20 294 233 1342 20
internal_value=0 0.0251115 -0.00333771 0.0106716 -0.0037607 -0.000396147 0.00481308 0.0196667 0.0375714 0.0316279 0.00191489 0.0413636 -0.00320144 -9.80404e-05 -0.00465754 -0.00349315 0.00480392 0.0433146 -0.00327586 -0.00484077 -0.00480237 -0.00496395 -0.00388889
internal_weight=0 269 2286 67 2219 467 214 75 175 86 94 55 139 51 1752 365 51 89 58 314 253 1387 45
internal_count=2555 269 2286 67 2219 467 214 75 175 86 94 55 139 51 1752 365 51 89 58 314 253 1387 45
is_linear=0
shrinkage=0.05


Tree=4
num_leaves=28
num_cat=0
split_feature=7 0 0 7 0 8 7 8 0 0 6 0 2 0 4 0 0 0 2 5 0 0 4 0 0 1 0
split_gain=77.0224 30.603 5.27748 3.24001 4.844 8.58177 2.63308 6.49646 1.6322 0.804813 0.744052 6.4512 0.526587 0.436364 0.34463 0.427907 0.220305 0.131034 0.0631575 0.129825 0.0429242 0.0427536 0.0204025 0.0277778 0.0169141 0.0324561 1.77636e-15
threshold=0.78104578033869709 0.64504373762237333 0.82642057071383346 0.69118034572412368 0.57468670071599826 0.55888241692392016 0.85695840067458362 0.73717116753806289 0.56457212498296216 0.74024422511044674 0.61912806250719088 0.52585370547061061 0.80484812375373815 0.72250863928287956 0.7922164960366066 0.28402995485924587 0.74888350798983339 0.52585370547061061 0.75707155385336999 0.40845567306227498 0.45972610867456165 0.53633309546908714 0.14486029904555012 0.23184948805734398 0.76287072746369911 0.075958223953052267 0.73105170741094139
decision_type=2 2 2 2 2 2 2 2 2 2 2 2 2 2 2 2 2 2 2 2 2 2 2 2 2 2 2
left_child=2 8 3 10 21 -6 7 13 17 -7 12 20 14 -3 18 -16 -8 -2 22 -20 -12 -5 23 -1 26 -26 -24
right_child=1 6 -4 4 5 9 16 -9 -10 -11 11 -13 -14 -15 15 -17 -18 -19 19 -21 -22 -23 24 -25 25 -27 -28
leaf_value=-0.01553996403008855 -0.0018330459281647562 0.0025573414149819896 0.0054435836494385438 -0.0027293113529189119 0.0041849169639823899 -0.0010396327754254979 0.0031044109777684349 0.00091689671139764256 0.0013376788523752822 0.001287204212025614 -0.0044697454856809146 0.0014555948055453639 5.8379222716765533e-05 0.0049604826513246422 -0.014249624445332685 0.00044209900628078562 0.0059235140516787545 4.6311977983363317e-05 -0.00063026155234402687 -0.003392504071191042 -0.00078896778981201907 -0.00083377610450465975 -0.0081254085595241863 -0.0041533910507792265 -0.0062738025531555719 -0.00065871287834728086 -0.0053992895679707267
leaf_weight=25 38 22 28 118 39 43 28 31 36 34 192 30 28 33 23 20 61 20 20 37 21 20 1467 20 37 20 64
leaf_count=25 38 22 28 118 39 43 28 31 36 34 192 30 28 33 23 20 61 20 20 37 21 20 1467 20 37 20 64
internal_value=0 0.0249256 -0.00335958 -0.0036271 0.00169291 0.00922414 0.0372857 0.0310465 0.00191489 -0.000454547 -0.0043014 -0.00170782 -0.00465929 0.0413636 -0.00476919 -0.000348838 0.0433146 -0.00327586 -0.00488166 -0.00324562 -0.00476526 -0.00463768 -0.00493876 -0.00388889 -0.00496852 -0.00412281 -0.005
internal_weight=0 269 2286 2258 254 116 175 86 94 77 2004 243 1761 55 1733 43 89 58 1690 57 213 138 1633 45 1588 57 1531
internal_count=2555 269 2286 2258 254 116 175 86 94 77 2004 243 1761 55 1733 43 89 58 1690 57 213 138 1633 45 1588 57 1531
is_linear=0
shrinkage=0.05


Tree=5
num_leaves=29
num_cat=0
split_feature=7 0 0 7 0 8 4 5 0 7 0 9 2 0 1 4 9 0 0 6 5 0 5 7 1 0 0 0
split_gain=73.0265 28.6573 4.43998 3.21309 4.7492 9.23462 2.57466 6.43311 1.6322 1.225 0.839161 0.922266 0.578616 2.34206 5.72531 2.1856 0.612245 0.779221 0.416667 0.153359 0.147692 0.131034 0.0482578 0.046798 0.0423077 7.10543e-15 1.77636e-15 8.88178e-16
threshold=0.78104578033869709 0.64504373762237333 0.82642057071383346 0.69118034572412368 0.59845976218920649 0.6053030668783389 0.85419796168334461 0.67206404695279875 0.56457212498296216 0.73107564471927466 0.76287072746369911 0.62853155733693289 0.59293591855049221 0.55488249773494458 0.32828180143742169 0.61313581844653464 0.50252953268042899 0.71139583550484697 0.76287072746369911 0.81943420037716452 0.36823790700844289 0.52585370547061061 0.024121839946761103 0.63538665589206678 0.71640374694737874 0.86117414068200238 0.67110991733549297 0.48040426231348371
decision_type=2 2 2 2 2 2 2 2 2 2 2 2 2 2 2 2 2 2 2 2 2 2 2 2 2 2 2 2
left_child=2 8 3 12 20 9 7 -3 21 -6 11 -8 23 19 16 -16 17 -15 -7 22 -5 -2 -14 26 -22 -12 -1 -24
right_child=1 6 -4 4 5 18 10 -9 -10 -11 25 -13 13 14 15 -17 -18 -19 -20 -21 24 -23 27 -25 -26 -27 -28 -29
leaf_value=-0.013386764498602328 -0.001741393631756516 0.0049265427090092627 0.0051714044669666174 -0.00017606924671860686 0.0040041078891180004 -0.0016967347830009632 0.0031368544054071359 0.0016133125829414744 0.0012707949097565206 0.0035229572483820165 0.0043872531468788578 0.0026279516797341218 -0.0069664827702843671 -0.0035636709888088869 0.0014332355858736974 0.0013386347685118488 -0.0029853225966342618 0.0015591079041741996 0.00045014743720942499 -0.0011351716350772117 -0.0021480700545315422 4.3996379084196986e-05 -0.0051345603613551921 -0.0020821958978297053 -0.0029122931835464608 0.0063957499578780651 -0.0076042387192613026 -0.001658544261624171
leaf_weight=933 38 39 28 20 20 40 23 32 36 20 39 21 20 20 20 21 105 22 24 24 110 20 467 21 20 21 264 87
leaf_count=933 38 39 28 20 20 40 23 32 36 20 39 21 20 20 20 21 105 22 24 24 110 20 467 21 20 21 264 87
internal_value=0 0.0241822 -0.00335958 -0.00360496 0.00169291 0.00990384 0.0361429 0.0288028 0.00191489 0.02875 0.0411538 0.0359091 -0.00427645 -0.00321883 0.00164893 0.0181707 -0.00295918 0.00214286 -0.001875 -0.00474917 -0.004 -0.00327586 -0.00491289 -0.00495895 -0.00461539 0.045 -0.005 -0.005
internal_weight=0 269 2286 2258 254 104 175 71 94 40 104 44 2004 786 188 41 147 42 64 598 150 58 574 1218 130 60 1197 554
internal_count=2555 269 2286 2258 254 104 175 71 94 40 104 44 2004 786 188 41 147 42 64 598 150 58 574 1218 130 60 1197 554
is_linear=0
shrinkage=0.05


Tree=6
num_leaves=30
num_cat=0
split_feature=7 0 7 0 8 0 1 6 4 8 0 6 6 6 0 1 4 0 1 0 5 0 4 1 5 1 2 0 0
split_gain=66.2897 26.7116 4.55446 5.86551 15 3.55262 2.83018 1.76944 3.65714 1.5763 1.39965 1.09394 0.97074 0.384539 2.62934 1.34617 0.311538 0.236264 0.828157 0.109482 0.0532914 0.138462 0.0478163 0.0427647 0.0378049 0.0361111 0.0286694 7.10543e-15 3.55271e-15
threshold=0.78104578033869709 0.64504373762237333 0.64020887499121637 0.64310340680398659 0.55888241692392016 0.72250863928287956 0.36666268373355021 0.20474924493381108 0.89647223313535618 0.65968839902646004 0.58808861378597044 0.54634855078863942 0.77873723035626974 0.50281555498231634 0.55488249773494458 0.33098784270768439 0.89167687365672166 0.54407838295074618 0.42280417751092286 0.4727551895831496 0.046916718114832306 0.22099726589748317 0.77107069399828987 0.77873723035626974 0.69188428572574001 0.18923382053269752 0.74628329613393196 0.79412047690445087 0.77230779098948876
decision_type=2 2 2 2 2 2 2 2 2 2 2 2 2 2 2 2 2 2 2 2 2 2 2 2 2 2 2 2 2
left_child=2 10 13 12 11 6 -3 8 -7 -6 16 -5 17 20 19 -16 -2 23 -19 -15 21 -1 26 -4 -11 -9 28 -27 -22
right_child=1 5 3 4 9 7 -8 25 -10 24 -12 -13 -14 14 15 -17 -18 18 -20 -21 22 -23 -24 -25 -26 27 -28 -29 -30
leaf_value=-0.014110563456610856 -0.00039838448215865892 0.00097889870469547078 -0.0026658419840454783 0.0030639538576551898 0.001722970963170821 0.00086869570055834316 0.0034415217384691416 0.0065042413060069958 0.0052006086853144395 -0.00025078285580785759 0.0013497494289000879 0.0047186546512612941 0.00040899151672111169 -0.0045781727540221539 0.0009448156877126106 0.001257570213666775 0.00024134875126233447 -0.0010456093485128311 0.00096482780359503277 -0.00066914386181362424 -0.0090467828940689627 -0.00076274475605807475 -0.0060522819370337402 -0.0027837221014450188 -0.0018474882928084394 0.0034803601686645529 -0.0020426577379147751 0.0047231332890439008 -0.0025221653353862785
leaf_weight=45 45 33 185 20 39 21 25 20 24 20 29 24 20 308 33 20 20 48 21 33 1284 20 20 21 62 32 34 20 29
leaf_count=45 45 33 185 20 39 21 25 20 24 20 29 24 20 308 33 20 20 48 21 33 1284 20 20 21 62 32 34 20 29
internal_value=0 0.022881 -0.00335958 0.00108696 0.00863636 0.0344286 0.0243103 0.0394444 0.0316667 -0.000454547 0.00138298 0.0336364 -0.00313559 -0.00447974 -0.00309645 0.00726415 -0.00269231 -0.00390909 -0.00137681 -0.00470675 -0.00486034 -0.00346154 -0.00492685 -0.00475728 -0.00439025 0.0443056 -0.00496288 0.045 -0.005
internal_weight=0 269 2286 460 165 175 58 117 45 121 94 44 295 1826 394 53 65 275 69 341 1432 65 1367 206 82 72 1347 52 1313
internal_count=2555 269 2286 460 165 175 58 117 45 121 94 44 295 1826 394 53 65 275 69 341 1432 65 1367 206 82 72 1347 52 1313
is_linear=0
shrinkage=0.05


Tree=7
num_leaves=31
num_cat=0
split_feature=7 0 0 0 6 7 0 8 0 0 4 0 6 0 4 0 0 2 0 0 5 0 2 3 1 0 5 6 0 0
split_gain=62.909 23.6362 4.46947 3.93463 7.07845 2.82838 4.64902 9.0819 1.71327 1.6322 1.40606 0.769944 0.630677 4.87536 0.496883 0.694444 0.387287 0.134215 0.301042 0.131034 0.0439863 0.148718 0.0411299 0.132203 0.0373418 0.0159324 0.0321429 0.0154547 0.033871 3.55271e-15
threshold=0.78104578033869709 0.64504373762237333 0.82642057071383346 0.76621819902021315 0.24816407299907464 0.69118034572412368 0.59845976218920649 0.55888241692392016 0.69422952028928586 0.56457212498296216 0.85419796168334461 0.74024422511044674 0.61912806250719088 0.55488249773494458 0.7922164960366066 0.29858644494511749 0.46852174052485146 0.74628329613393196 0.62307871168447992 0.52585370547061061 0.046916718114832306 0.24209235012548003 0.77094217092121875 0.56353693007250849 0.58503666921152264 0.76287072746369911 0.66330850458222768 0.57833655829344854 0.35901732667313446 0.4727551895831496
decision_type=2 2 2 2 2 2 2 2 2 2 2 2 2 2 2 2 2 2 2 2 2 2 2 2 2 2 2 2 2 2
left_child=2 9 5 4 -3 12 22 -8 -6 19 -5 -9 14 16 17 -16 -14 20 24 -2 21 -1 -7 -24 -19 27 -27 29 -29 -22
right_child=1 3 -4 10 8 6 7 11 -10 -11 -12 -13 13 -15 15 -17 -18 18 -20 -21 25 -23 23 -25 -26 26 -28 28 -30 -31
leaf_value=-0.01281959659508428 -0.0016344047260607565 0.00091791490316298389 0.0046769015110552205 0.0048282855999984258 0.0016732490231102612 -0.001988790482725667 0.0035991340512811763 -0.00093374880035285634 0.002787064494444776 0.0011397676928236874 0.0051299450310577374 0.00094370733734894436 -0.0037308454229568393 0.0014230492762867795 -0.012430586625684789 0.0012238496699530617 0.0001805956736097772 -0.0028950610101385801 0.00028718237808110557 2.9729122566871799e-05 -0.010247191169063122 -0.00072460751825517049 -0.0010064705685711422 -0.00018141759503787953 -0.0030819799766260954 -0.00067808314175252455 -0.0055770276596642087 -0.009124530829834299 -0.0014863332941981932 -0.0063717947193144709
leaf_weight=58 38 25 28 30 28 91 31 39 34 36 58 34 197 25 25 20 21 59 20 20 467 20 39 20 20 20 36 42 20 954
leaf_count=58 38 25 28 30 28 91 31 39 34 36 58 34 197 25 25 20 21 59 20 20 467 20 39 20 20 20 36 42 20 954
internal_value=0 0.0221375 -0.0034252 0.033 0.0254598 -0.00367139 0.00129921 0.00942308 0.0345161 0.00191489 0.0404545 -0.000205481 -0.0043014 -0.00191358 -0.00463089 0.000555554 -0.00431193 -0.0047669 -0.0029798 -0.00327586 -0.00487632 -0.00371795 -0.00433333 -0.00330509 -0.00436709 -0.00493502 -0.00410714 -0.00496629 -0.00419355 -0.005
internal_weight=0 269 2286 175 87 2258 254 104 62 94 88 73 2004 243 1761 45 218 1716 99 58 1617 78 150 59 79 1539 56 1483 62 1421
internal_count=2555 269 2286 175 87 2258 254 104 62 94 88 73 2004 243 1761 45 218 1716 99 58 1617 78 150 59 79 1539 56 1483 62 1421
is_linear=0
shrinkage=0.05


Tree=8
num_leaves=27
num_cat=0
split_feature=7 0 0 6 0 7 0 8 3 4 0 0 6 0 1 9 6 0 1 4 4 4 5 0 1 0
split_gain=56.26 21.8724 4.56835 5.70359 4.43017 3.18629 4.20933 9.0819 1.58845 1.58088 1.39965 0.769944 0.677855 3.52726 4.28386 1.04274 0.351026 0.347806 0.853175 0.311538 0.127273 0.124812 0.0637427 0.133333 0.0399267 0.0327586
threshold=0.78104578033869709 0.64504373762237333 0.76621819902021315 0.24816407299907464 0.82642057071383346 0.69118034572412368 0.59845976218920649 0.55888241692392016 0.52003195280816039 0.85419796168334461 0.58808861378597044 0.74024422511044674 0.43236394776263704 0.55488249773494458 0.29973247519744434 0.42360527956230326 0.68472297556932427 0.46852174052485146 0.49572549051874576 0.89167687365672166 0.46565829308312728 0.7946257308590049 0.046916718114832306 0.22099726589748317 0.71023539086407239 0.81167165112531181
decision_type=2 2 2 2 2 2 2 2 2 2 2 2 2 2 2 2 2 2 2 2 2 2 2 2 2 2
left_child=4 10 3 -3 5 12 16 -8 -5 -4 19 -9 21 17 20 -16 24 -14 -19 -2 -15 22 23 -1 -7 -11
right_child=1 2 9 8 -6 6 7 11 -10 25 -12 -13 13 14 15 -17 -18 18 -20 -21 -22 -23 -24 -25 -26 -27
leaf_value=-0.012867375739021964 -0.00040404177318467693 0.00087201915800483624 0.004586871319998507 0.002280700665051484 0.0044430564355024569 -0.0016052880034098755 0.0034191773487171162 -0.00088706136033521097 0.002639790318678838 0.0034534894244359969 0.0012252735728139009 0.0008965219704814972 -0.0043512334935465703 -7.0446178904266804e-05 0.0011476321211165543 0.001523409646546574 3.3326177025262307e-05 -0.0026040324854207015 0.00019420728999320448 0.00017784309676720556 -0.00084826968380411491 -0.002135874396339014 -0.0065628181055926525 -0.00068837714234241021 -0.0025537630224129163 0.0053182544541425748
leaf_weight=40 45 25 30 33 28 109 31 39 29 20 29 34 447 20 21 20 20 43 20 20 35 30 1308 20 21 38
leaf_count=40 45 25 30 33 28 109 31 39 29 20 29 34 447 20 21 20 20 43 20 20 35 30 1308 20 21 38
internal_value=0 0.0208364 0.0312857 0.0231609 -0.00333771 -0.00358282 0.00169291 0.00942308 0.0312903 0.0393182 0.00138298 -0.000205481 -0.0042515 -0.00285479 0.0059375 0.0181707 -0.00366667 -0.00450981 -0.00103175 -0.00269231 -0.00318182 -0.00485694 -0.0049269 -0.00333333 -0.00461539 0.0441379
internal_weight=0 269 175 87 2286 2258 254 104 62 88 94 73 2004 606 96 41 150 510 63 65 55 1398 1368 60 130 58
internal_count=2555 269 175 87 2286 2258 254 104 62 88 94 73 2004 606 96 41 150 510 63 65 55 1398 1368 60 130 58
is_linear=0
shrinkage=0.05


Tree=9
num_leaves=31
num_cat=0
split_feature=7 0 0 1 0 6 4 7 0 8 8 2 0 1 9 6 7 0 0 6 8 0 7 5 1 1 0 1 0 0
split_gain=52.1153 20.1301 4.58773 5.63333 4.43998 3.38298 7.22668 2.97875 4.08906 8.2754 0.967378 0.621694 2.03566 5.17 1.63333 0.590032 0.512253 0.468063 0.364021 0.340163 0.266169 0.128944 0.046798 0.0448364 0.0420635 0.0282609 0.0204172 0.0277778 1.77636e-15 8.88178e-16
threshold=0.78104578033869709 0.70815259659560159 0.59845976218920649 0.40863586535788771 0.82642057071383346 0.20474924493381108 0.89647223313535618 0.69118034572412368 0.661845238572494 0.55888241692392016 0.65968839902646004 0.59293591855049221 0.55488249773494458 0.29729821973161841 0.42667253112973774 0.6647526273302673 0.83675382966762712 0.77974839842528543 0.53291747179705118 0.81943420037716452 0.5131703382682461 0.59845976218920649 0.63538665589206678 0.024121839946761103 0.71023539086407239 0.19250706696004588 0.51691776044130522 0.35222258577607818 0.67110991733549297 0.48040426231348371
decision_type=2 2 2 2 2 2 2 2 2 2 2 2 2 2 2 2 2 2 2 2 2 2 2 2 2 2 2 2 2 2
left_child=4 2 18 16 7 6 -3 11 15 -10 -11 22 19 20 -15 21 -4 -7 -2 23 -14 24 28 -13 -9 -19 29 -28 -1 -25
right_child=1 5 3 -5 -6 17 -8 8 9 10 -12 12 13 14 -16 -17 -18 25 -20 -21 -22 -23 -24 26 -26 -27 27 -29 -30 -31
leaf_value=-0.011651775409873298 -0.001292232725046544 0.00030077129400636469 -0.0001288979016980659 0.0030697168066951318 0.0042209036137273335 0.0023582045119152893 0.004418168276788698 -0.001553353215689128 0.0035529592341210607 0.0015217071525802366 -0.00053437171018091859 -0.0064719809085729083 0.0001182443763299252 0.0010825515502119927 0.0012424426285820426 0.0002803128786832329 0.00091084838428372227 0.005658863905401712 7.7848691464360627e-05 -0.00075278699567174001 -0.0025883386540677127 -0.00013287255144140968 -0.001702189536073396 -0.004390931251705847 -0.0024081646117811496 0.0039740207933287412 -0.006402095986494544 -0.00026271767276944019 -0.0063258096677375614 -0.0021303833844654135
leaf_weight=933 43 23 22 27 28 34 24 106 21 20 37 20 27 24 30 28 23 20 27 24 107 22 21 467 20 26 25 20 264 42
leaf_count=933 43 23 22 27 28 34 24 106 21 20 37 20 27 24 30 28 23 20 27 24 107 22 21 467 20 26 25 20 264 42
internal_value=0 0.0199071 0.00697183 0.0158333 -0.00335958 0.0343701 0.0237234 -0.00360496 0.00149606 0.0110256 0.00114035 -0.0042515 -0.00315522 0.00138298 0.0144444 -0.00272727 0.005 0.040625 -0.00214286 -0.00458194 -0.0038806 -0.00398649 -0.00495895 -0.00482579 -0.00460318 0.043913 -0.00490975 -0.00388889 -0.005 -0.005
internal_weight=0 269 142 72 2286 127 47 2258 254 78 57 2004 786 188 54 176 45 80 70 598 134 148 1218 574 126 46 554 45 1197 509
internal_count=2555 269 142 72 2286 127 47 2258 254 78 57 2004 786 188 54 176 45 80 70 598 134 148 1218 574 126 46 554 45 1197 509
is_linear=0
shrinkage=0.05


Tree=10
num_leaves=27
num_cat=0
split_feature=7 0 0 1 7 8 0 7 0 8 0 6 0 0 3 6 6 8 4 5 0 6 0 4 1 0
split_gain=48.5684 18.9149 4.98271 8.11976 4.91825 7.98183 2.14541 1.8827 2.75662 7.86178 2.31315 1.42917 1.36111 1.13032 1.01522 0.718339 0.370494 0.193277 0.171644 0.129899 0.646154 0.0428083 0.401351 0.0417915 0.03 1.77636e-15
threshold=0.78579553439673944 0.64504373762237333 0.76919283841534325 0.14762695890564448 0.87158975124727689 0.70710871670495912 0.75089199092374193 0.61813997610849547 0.56457212498296216 0.55385141870457844 0.64310340680398659 0.31221098865332847 0.72543517130234692 0.76621819902021315 0.56175494654049418 0.78732802513129596 0.77065455686779927 0.62913605420925467 0.75106306764345643 0.059801476896432802 0.302523231853497 0.57833655829344854 0.49801957970189464 0.86626146841995799 0.50647875495516115 0.74430929835392612
decision_type=2 2 2 2 2 2 2 2 2 2 2 2 2 2 2 2 2 2 2 2 2 2 2 2 2 2
left_child=2 14 7 11 5 12 -6 16 15 10 -10 -4 -3 -7 24 23 18 -11 19 20 -1 25 -23 -9 -2 -21
right_child=1 4 3 -5 6 13 -8 8 9 17 -12 -13 -14 -15 -16 -17 -18 -19 -20 21 -22 22 -24 -25 -26 -27
leaf_value=-0.0088844359569423739 -0.00061830090149183302 0.0022238474221511618 -0.0020470276047895148 0.004108712436836171 0.0020243760473408596 0.00021075984916638205 0.0045647338961876133 -0.0019900942464101058 0.00057935716994853925 -1.9864565175111957e-05 0.0029970186863480697 0.00339038990116739 0.004283470634835241 0.0014045181695770685 0.00096983608402210477 0.00022213627527713044 -0.0011231730170018217 -0.0019047054425810829 -0.00049703244825850931 -0.0075385330617458281 0.00086860136288618669 -0.0045892936902419915 7.9940990511088105e-05 -0.0020646106623222484 -0.00064168692539048194 -0.0042197487940506678
leaf_weight=84 30 20 56 26 25 29 49 251 34 34 33 24 25 23 38 20 38 92 21 1322 20 165 20 22 20 34
leaf_count=84 30 20 56 26 25 29 49 251 34 34 33 24 25 23 38 20 38 92 21 1322 20 165 20 22 20 34
internal_value=0 0.0195174 -0.00332317 0.00726415 0.0292105 0.0218041 0.0389189 -0.00383562 -0.00109054 0.00354922 0.0173881 -0.000625001 0.0372222 0.00846154 0.000681817 -0.00414676 -0.00461855 -0.00380953 -0.00472989 -0.00478724 -0.00307692 -0.00490266 -0.00418919 -0.00481685 -0.004 -0.005
internal_weight=0 259 2296 106 171 97 74 2190 486 193 67 80 45 52 88 293 1704 126 1666 1645 104 1541 185 273 50 1356
internal_count=2555 259 2296 106 171 97 74 2190 486 193 67 80 45 52 88 293 1704 126 1666 1645 104 1541 185 273 50 1356
is_linear=0
shrinkage=0.05


Tree=11
num_leaves=31
num_cat=0
split_feature=7 0 7 8 0 1 0 0 6 0 1 0 0 0 0 3 0 0 9 4 0 7 0 5 0 1 1 6 0 1
split_gain=47.0313 19.2823 5.21897 7.37702 4.5788 10.3152 2.95108 2.14541 1.71177 7.20474 3.73736 1.93452 1.24444 1.13032 0.80295 1.51363 0.646998 0.510446 1.0936 0.316564 0.895474 0.0756048 0.116667 0.0579179 0.139394 0.0386364 0.0371795 0.0285904 3.55271e-15 4.44089e-16
threshold=0.78579553439673944 0.64504373762237333 0.87158975124727689 0.70710871670495912 0.75977982857738491 0.16949980777575954 0.83135558566720935 0.75089199092374193 0.50929114719237756 0.54265520642073117 0.35837912508527864 0.60365535876075416 0.73399427522229632 0.76621819902021315 0.53291747179705118 0.51794273073614383 0.67110991733549297 0.46852174052485146 0.39984712040266451 0.7922164960366066 0.59610250078174498 0.72477557796360081 0.59845976218920649 0.046916718114832306 0.22575187819212481 0.12616769712923767 0.66410270475444011 0.79923933343009446 0.72250863928287956 0.79923933343009446
decision_type=2 2 2 2 2 2 2 2 2 2 2 2 2 2 2 2 2 2 2 2 2 2 2 2 2 2 2 2 2 2
left_child=4 14 3 12 8 6 25 -4 19 17 16 -12 -3 -5 -2 -16 -11 27 -19 21 26 23 -23 24 -1 -6 -21 29 -25 -10
right_child=1 2 7 13 5 -7 -8 -9 9 10 11 -13 -14 -15 15 -17 -18 18 -20 20 -22 22 -24 28 -26 -27 -28 -29 -30 -31
leaf_value=-0.011570392136909045 -0.001217394179640149 0.0021866075889465544 0.0019231572449738173 0.00020022185670806161 -0.0026088814651620482 0.0039862453596752889 0.0037408505127554908 0.0043364972013782326 -0.003250195631392143 -0.0017399437715407376 0.00069994404377979791 0.0017752178866974871 0.0042364059639788728 0.0013342922610982137 -0.00022016029336648958 0.0011736636552842296 0.00076995033756870447 0.00025565359188653864 -0.00057888952656567525 -0.0018677287915706956 0.0010246920589135381 -0.0012924917728815645 -0.00090798872211956161 -0.0059840455778880745 -0.00070812208621417257 -0.00020827964070062053 -0.0031816262650030411 -0.002952159979607954 -0.0033938769141684056 -0.0023754445259223708
leaf_weight=46 41 24 25 29 68 21 21 49 321 25 28 24 21 23 27 20 21 21 37 58 20 28 20 1342 20 20 20 32 80 23
leaf_count=46 41 24 25 29 68 21 21 49 321 25 28 24 21 23 27 20 21 21 37 58 20 28 20 1342 20 20 20 32 80 23
internal_value=0 0.0191313 0.0289181 0.0212887 -0.00334495 0.00576923 -0.000412845 0.0389189 -0.00389197 -0.00142857 0.0108163 0.02 0.0361111 0.00846154 0.000113635 0.00457447 0.000434781 -0.00419355 0.000172413 -0.004694 -0.00193878 -0.00486979 -0.00291667 -0.0049328 -0.00348485 -0.00443182 -0.00435898 -0.00486702 -0.005 -0.005
internal_weight=0 259 171 97 2296 130 109 74 2166 532 98 52 45 52 88 47 46 434 58 1634 98 1536 48 1488 66 88 78 376 1422 344
internal_count=2555 259 171 97 2296 130 109 74 2166 532 98 52 45 52 88 47 46 434 58 1634 98 1536 48 1488 66 88 78 376 1422 344
is_linear=0
shrinkage=0.05


Tree=12
num_leaves=30
num_cat=0
split_feature=7 0 0 0 1 7 8 2 0 1 0 3 6 6 1 0 7 6 2 0 5 4 0 8 8 1 1 0 0
split_gain=43.2689 19.0645 4.1584 4.14941 3.62517 3.17985 6.075 2.33011 5.74155 4.26087 0.997981 2.47953 0.923205 0.81 0.625 0.519298 0.498908 0.868421 0.312495 1.13058 4.33915 0.620733 0.299913 0.160163 0.131034 0.044382 0.0432432 0.0274624 1.77636e-15
threshold=0.78104578033869709 0.72250863928287956 0.83135558566720935 0.60512664266643157 0.37635243850042993 0.87158975124727689 0.77617950851563544 0.73510974349594271 0.68079152668756671 0.25114190007377418 0.54265520642073117 0.55493425095243964 0.78732802513129596 0.3037029112970438 0.25755840841330552 0.80068312473440739 0.73107564471927466 0.35574398445965155 0.56808439630392982 0.55250519158762368 0.32321742128430658 0.7284497700538467 0.53291747179705118 0.26219410025644913 0.53337101020399513 0.7480490680031151 0.25960271033363508 0.51691776044130522 0.68415503403596845
decision_type=2 2 2 2 2 2 2 2 2 2 2 2 2 2 2 2 2 2 2 2 2 2 2 2 2 2 2 2 2
left_child=2 3 7 22 13 6 14 12 10 -10 23 24 16 -5 -3 -7 18 -18 28 27 -21 26 -2 -9 -12 -25 -22 -20 -1
right_child=1 5 -4 4 -6 15 -8 8 9 -11 11 -13 -14 -15 -16 -17 17 -19 19 20 21 -23 -24 25 -26 -27 -28 -29 -30
leaf_value=-0.01046270210756909 -0.001167175349869886 0.00364859082839241 0.0038372504473595786 -0.0001922641081474424 0.0025264532048179466 0.0024369518154116381 0.00024836855009037267 -5.3056452538659088e-05 5.5409137543699762e-05 0.0035500413855633962 -0.00011992110579421897 0.00064342530641709101 0.00016488047822038 0.00064509898546596088 0.0026781353374733942 0.0044308862358915513 -0.0013523676562168761 0.00085002381015944158 -0.0039194135279276019 0.0012539608149077781 -0.0025432555387838347 0.00055588787929427804 3.3770541088552536e-06 -0.0019706156482704497 -0.00094151083444119095 -0.0016804554511681835 -0.00086375234290489487 -0.00096095979015634611 -0.0049946081148563894
leaf_weight=933 43 20 21 20 33 20 20 20 23 23 20 24 33 25 20 37 33 24 479 29 128 21 31 158 38 20 20 34 205
leaf_count=933 43 20 21 20 33 20 20 20 23 23 20 24 33 25 20 37 33 24 479 29 128 21 31 158 38 20 20 34 205
internal_value=0 0.0178625 -0.00333771 0.00618421 0.0142308 0.0330342 0.025 -0.00354305 0.000368097 0.0167391 -0.00232143 0.00231707 -0.00420062 0.005 0.03625 0.0414912 -0.00434418 0.000263157 -0.00448621 -0.00366385 -0.000454547 -0.00352071 -0.0022973 -0.00424243 -0.00327586 -0.0047191 -0.00466216 -0.00490254 -0.005
internal_weight=0 269 2286 152 78 117 60 2265 326 46 280 82 1939 45 40 57 1906 57 1849 711 198 169 74 198 58 178 148 513 1138
internal_count=2555 269 2286 152 78 117 60 2265 326 46 280 82 1939 45 40 57 1906 57 1849 711 198 169 74 198 58 178 148 513 1138
is_linear=0
shrinkage=0.05


Tree=13
num_leaves=31
num_cat=0
split_feature=7 0 7 0 8 9 7 2 0 8 0 3 3 0 6 0 5 0 9 6 0 1 0 4 8 1 0 4 0 0
split_gain=40.0506 8.93222 8.62551 8.27586 10.4597 2.24023 2.18355 1.66253 4.84113 4.3917 0.817435 1.67619 0.745921 0.698063 0.68319 0.981818 0.590942 0.981488 0.454212 0.302799 1.81494 1.69886 0.429757 0.167898 0.132557 0.0903541 0.0394737 0.0214554 0.0277778 1.77636e-15
threshold=0.83675382966762712 0.69717609704861261 0.72477557796360081 0.65952004874880743 0.66353939173626941 0.57277043074180745 0.88389563277352257 0.73857739776290487 0.64310340680398659 0.53709278450060671 0.59610250078174498 0.51216664618409757 0.54049403957232411 0.80068312473440739 0.77065455686779927 0.29264919299877329 0.3204432292877703 0.46198715533069817 0.68558707310916145 0.40466542925828825 0.50030067109789067 0.38779107583499034 0.73689274460596055 0.7946257308590049 0.52129405850896149 0.27749330633004476 0.55723174124646224 0.14486029904555012 0.23184948805734398 0.67110991733549297
decision_type=2 2 2 2 2 2 2 2 2 2 2 2 2 2 2 2 2 2 2 2 2 2 2 2 2 2 2 2 2 2
left_child=2 12 7 10 5 -5 -3 14 16 -10 24 -12 -2 -6 19 -16 17 -9 -8 23 -21 22 25 27 -4 -22 -26 28 -1 -29
right_child=1 6 3 4 13 -7 18 8 9 -11 11 -13 -14 -15 15 -17 -18 -19 -20 20 21 -23 -24 -25 26 -27 -28 29 -30 -31
leaf_value=-0.011396308742658595 0.0006625084564660837 0.0022970228720566137 -0.00016678962576066649 0.0029897690423595679 -0.00023319829551840949 0.0020149074872035993 0.0046753427566242753 -0.0014907447746800322 0.0031160436113073261 -0.00010253917392387042 -0.00082589555802509466 0.0011792345656403101 0.00095591475532324382 0.0013512405596537425 -0.0076701566881970072 0.00031404614205381219 -0.0023832773157107475 0.00067355869740171308 0.0032811219924978002 -0.0039890906253147234 -0.0019372188937959263 0.00040781691094070554 0.0011176556612106613 -0.0015150514114530772 -0.0013435967607221472 -0.00049135434906182475 -5.2631996524973195e-05 -0.0073311511558313948 -0.0023045950782619464 -0.004026852328974458
leaf_weight=25 30 35 37 34 35 23 21 38 20 21 22 20 22 24 24 20 135 20 31 410 37 28 20 23 75 26 20 934 20 325
leaf_count=25 30 35 37 34 35 23 21 38 20 21 22 20 22 24 24 20 135 20 31 410 37 28 20 23 75 26 20 934 20 325
internal_value=0 0.0248561 -0.00274421 0.00534483 0.0156897 0.0309649 0.0346552 -0.0038476 0.000128204 0.0157317 -0.00155173 0.00452381 0.00846154 0.000932202 -0.00433932 0.00181818 -0.00318653 0.00103448 0.0411538 -0.00448593 -0.00346449 0.00220721 -0.00138554 -0.00488696 -0.00348485 -0.0034127 -0.00447369 -0.00496166 -0.00388889 -0.005
internal_weight=0 139 2416 290 116 57 87 2126 234 41 174 42 52 59 1892 44 193 58 52 1848 521 111 83 1327 132 63 95 1304 45 1259
internal_count=2555 139 2416 290 116 57 87 2126 234 41 174 42 52 59 1892 44 193 58 52 1848 521 111 83 1327 132 63 95 1304 45 1259
is_linear=0
shrinkage=0.05


Tree=14
num_leaves=31
num_cat=0
split_feature=7 0 7 0 8 0 0 0 4 6 0 1 0 1 0 0 7 5 4 9 0 0 2 2 6 0 4 0 0 0
split_gain=38.1656 9.70917 7.96519 7.02071 7.87085 2.44002 2.39781 1.97742 1.54413 1.39219 5.52465 2.87755 3.61905 1.63967 2.31163 0.568182 0.52108 0.492406 0.24349 0.43956 0.230571 0.139394 0.0432298 0.0373418 0.0314358 0.0311321 0.0214641 0.0277778 1.77636e-15 8.88178e-16
threshold=0.83675382966762712 0.76621819902021315 0.75310721312627404 0.63138124293422926 0.66527177046265862 0.71908098876692794 0.82642057071383346 0.68079152668756671 0.90400614730419926 0.40466542925828825 0.49535362930059895 0.25415517747079175 0.68079152668756671 0.50929114719237756 0.60365535876075416 0.60512664266643157 0.8120652097533555 0.52646306556233535 0.75524023017725506 0.5236332280649334 0.46852174052485146 0.76287072746369911 0.79059221176733796 0.83490112740074396 0.79923933343009446 0.55488249773494458 0.14486029904555012 0.23184948805734398 0.67951668123251119 0.43805774488658683
decision_type=2 2 2 2 2 2 2 2 2 2 2 2 2 2 2 2 2 2 2 2 2 2 2 2 2 2 2 2 2 2
left_child=2 7 6 17 5 -5 9 15 -3 18 20 21 13 14 25 -2 -6 -4 22 -20 24 -12 26 -19 29 -13 27 -1 -28 -11
right_child=1 8 3 4 16 -7 -8 -9 -10 10 11 12 -14 -15 -16 -17 -18 23 19 -21 -22 -23 -24 -25 -26 -27 28 -29 -30 -31
leaf_value=-0.010826493305525665 -4.8171700140291511e-05 0.0039495250076580241 0.00060761250325496753 0.0011527398004300509 -0.00058263485991417693 0.0034136040245392033 0.003147877994594503 0.0016582980562841816 0.0037579809240501786 -0.0039490251347090504 -0.0013690484550173175 -0.0010814208047300389 0.0029329190343859086 0.00046983315380414104 0.0004659916611470275 0.00088773457245352886 0.0010737486530978423 -0.0010512097618718727 0.00022560453580537255 -0.0016372385481866524 -9.3497317346068643e-05 -7.748327583151105e-05 -0.00056166448492838469 -0.00072306376207222241 -0.0029790436773006173 -8.8818560494686161e-05 -0.0067074493224755678 -0.0021893653243488481 -0.0038054934806498564 -0.00074992934690128004
leaf_weight=25 22 25 22 24 27 28 23 32 38 467 46 33 21 25 34 22 20 59 35 56 35 20 22 20 30 20 997 20 277 30
leaf_count=25 22 25 22 24 27 28 23 32 38 467 46 33 21 25 34 22 20 59 35 56 35 20 22 20 30 20 997 20 277 30
internal_value=0 0.0241367 -0.00280629 0.00675 0.0162121 0.0296154 -0.00366877 0.0121053 0.0386508 -0.00383721 -0.00210907 0.00505025 0.00928571 0.00571428 0.00247126 0.00522727 0.00138298 -0.00252475 -0.00475559 -0.00225275 -0.00464413 -0.00348485 -0.00492543 -0.00436709 -0.00490512 -0.0040566 -0.00496209 -0.00388889 -0.005 -0.005
internal_weight=0 139 2416 200 99 52 2216 76 63 2193 761 199 133 112 87 44 47 101 1432 91 562 66 1341 79 527 53 1319 45 1274 497
internal_count=2555 139 2416 200 99 52 2216 76 63 2193 761 199 133 112 87 44 47 101 1432 91 562 66 1341 79 527 53 1319 45 1274 497
is_linear=0
shrinkage=0.05


Tree=15
num_leaves=29
num_cat=0
split_feature=7 0 0 4 8 6 0 1 7 0 7 5 0 0 8 0 2 7 9 2 3 2 0 9 4 2 1 0
split_gain=35.4061 16.6096 5.13577 3.87212 3.73667 3.5503 3.27953 7.71045 2.44375 1.85224 1.40765 2.19079 2.65846 1.27513 4.5312 2.37428 1.21067 0.701874 0.568182 0.253378 0.126793 0.112299 0.596232 0.765306 0.0427736 0.0382353 0.0277778 1.77636e-15
threshold=0.78104578033869709 0.76621819902021315 0.60512664266643157 0.87858496452589496 0.65587148589815347 0.28249180177686195 0.75977982857738491 0.16473764781106134 0.86548512051155935 0.83135558566720935 0.51909124446630572 0.20110085711307638 0.45660714715244427 0.49535362930059895 0.50757986691923451 0.64310340680398659 0.74069651981493745 0.75310721312627404 0.69757401845373967 0.81409520179897066 0.57951333415263628 0.61181536955950866 0.4727551895831496 0.45524182538496816 0.86215941392618622 0.65419781060015791 0.18923382053269752 0.63138124293422926
decision_type=2 2 2 2 2 2 2 2 2 2 2 2 2 2 2 2 2 2 2 2 2 2 2 2 2 2 2 2
left_child=6 2 19 5 -4 -3 10 9 18 25 21 12 -12 24 15 16 -15 20 -6 -2 -16 27 -23 -24 -13 -8 -5 -1
right_child=1 3 4 26 8 -7 7 -9 -10 -11 11 13 -14 14 17 -17 -18 -19 -20 -21 -22 22 23 -25 -26 -27 -28 -29
leaf_value=-0.0099755071831800889 -0.000207243704056023 0.00071777739515609714 0.0017182825818802144 0.0040345313709505655 -0.00023709600470131275 0.0040473660120192061 -0.0011854879200732704 0.0032886171202141895 0.0015330852329736328 0.0031396036069719457 -0.0020972654715131676 -0.0023642029220381378 0.00092833269552728402 0.00028082960433980277 -0.0017569357072090863 0.00089420846757580312 -0.00019164459679479141 0.00024217650250271032 0.00012428887135634904 -0.00016136712649244688 -0.0001157864879117068 -0.0042575361890718668 0.0005533553815285382 -0.0026342743859252677 -0.0038696643607781869 -0.00037882716818079436 0.0027791231769257047 -0.008294492998359649
leaf_weight=747 50 20 29 20 22 23 65 22 34 20 26 351 24 31 221 23 28 29 22 24 28 211 24 25 22 20 25 369
leaf_count=747 50 20 29 20 22 23 65 22 34 20 26 351 24 31 221 23 28 29 22 24 28 211 24 25 22 20 25 369
internal_value=0 0.0158178 0.00715469 0.0336364 0.0141589 0.022907 -0.00335958 0.00444882 0.00846154 -0.00119048 -0.0038189 -0.00212644 0.008 -0.00281719 -0.000694446 0.00963415 0.00432203 -0.00374101 0.000681817 -0.00297297 -0.00459839 -0.00478198 -0.00384616 0.00112245 -0.00486595 -0.00441177 0.0438889 -0.005
internal_weight=0 269 181 88 107 43 2286 127 78 105 2159 783 50 733 360 82 59 278 44 74 249 1376 260 49 373 85 45 1116
internal_count=2555 269 181 88 107 43 2286 127 78 105 2159 783 50 733 360 82 59 278 44 74 249 1376 260 49 373 85 45 1116
is_linear=0
shrinkage=0.05


Tree=16
num_leaves=28
num_cat=0
split_feature=7 0 0 4 8 6 0 8 7 7 0 8 8 0 1 7 8 9 1 4 2 2 0 6 0 1 0
split_gain=35.8111 16.6096 5.13577 3.87212 3.73667 3.5503 2.7347 7.14268 2.44375 1.19821 1.48559 4.03954 2.29729 3.47629 1.88972 0.70125 0.675926 0.568182 0.433653 0.303287 0.253378 0.0867727 0.629809 0.0471429 0.0396907 0.0277778 1.77636e-15
threshold=0.78104578033869709 0.76621819902021315 0.60512664266643157 0.87858496452589496 0.65587148589815347 0.28249180177686195 0.75977982857738491 0.55993178403769217 0.86548512051155935 0.5094555899093528 0.446308159812702 0.35476276351326413 0.57594066744860373 0.650175191026371 0.29973247519744434 0.7093229569250229 0.66148041702047899 0.69757401845373967 0.49859696662649183 0.71377481454091651 0.81409520179897066 0.61181536955950866 0.51691776044130522 0.79923933343009446 0.59382140938574912 0.18923382053269752 0.67206404695279875
decision_type=2 2 2 2 2 2 2 2 2 2 2 2 2 2 2 2 2 2 2 2 2 2 2 2 2 2 2
left_child=6 2 20 5 -4 -3 9 -8 17 21 23 -12 13 15 -15 19 -9 -6 -17 24 -2 26 -23 -11 -13 -5 -1
right_child=1 3 4 25 8 -7 7 16 -10 10 11 12 -14 14 -16 18 -18 -19 -20 -21 -22 22 -24 -25 -26 -27 -28
leaf_value=-0.009457955027487825 -0.00019688151885322282 0.00068188852539829189 0.001632368452786203 0.0038328048024030381 -0.00022524120446624563 0.0038449977114182483 0.0029186193829623354 0.0016687512750939749 0.0014564309713249485 -0.0028868228763878601 0.00084706510184598405 -0.00063686240296433559 -0.0020150243811928961 7.455974993069628e-05 0.0015345429934578855 -4.2649592354318826e-05 -0.0012541368320583897 0.00011807442778852885 0.00089190204668142519 4.5021706279557877e-05 -0.00015329877016782712 -0.0044592694961716767 0.00015932061249064494 -0.0026868481390714335 -0.00041712648317834139 0.0026401670180794174 -0.0078636268005918952
leaf_weight=922 50 20 29 20 22 23 27 27 34 330 25 77 239 20 27 23 73 22 21 21 24 203 34 20 20 25 177
leaf_count=922 50 20 29 20 22 23 27 27 34 330 25 77 239 20 27 23 73 22 21 21 24 203 34 20 20 25 177
internal_value=0 0.0158178 0.00715469 0.0336364 0.0141589 0.022907 -0.00346894 0.00366142 0.00846154 -0.00388838 -0.00238761 -0.000560255 -0.00165179 0.00217703 0.0141489 -0.0012963 -0.0025 0.000681817 0.00409091 -0.00330509 -0.00297297 -0.00481288 -0.00394515 -0.00485714 -0.00448454 0.0438889 -0.005
internal_weight=0 269 181 88 107 43 2286 127 78 2159 823 473 448 209 47 162 100 44 44 118 74 1336 237 350 97 45 1099
internal_count=2555 269 181 88 107 43 2286 127 78 2159 823 473 448 209 47 162 100 44 44 118 74 1336 237 350 97 45 1099
is_linear=0
shrinkage=0.05


Tree=17
num_leaves=30
num_cat=0
split_feature=7 0 7 0 8 4 6 0 1 0 1 0 8 1 0 0 1 0 8 4 9 6 0 5 0 1 6 1 0
split_gain=34.3092 8.48964 6.15357 5.6357 6.5905 2.91937 1.89871 8.15155 2.61862 2.70264 2.60357 1.75443 2.5037 1.45606 3.3 1.08944 1.72323 0.373476 0.826465 0.361648 0.542874 0.142857 0.117284 0.0899581 0.106977 0.0348485 0.033859 1.77636e-15 8.88178e-16
threshold=0.83675382966762712 0.76621819902021315 0.7563000667556744 0.70276457052140395 0.65111312433083313 0.90400614730419926 0.38058284363036038 0.54407838295074618 0.42003905237013023 0.73105170741094139 0.14762695890564448 0.60512664266643157 0.74530908760440451 0.3170204157144505 0.64310340680398659 0.59845976218920649 0.37635243850042993 0.446308159812702 0.32427999784162637 0.75524023017725506 0.53566911548784957 0.6580406996380872 0.54265520642073117 0.034100111448753558 0.14752928536493451 0.25114190007377418 0.79923933343009446 0.24366188206470732 0.028311190577368656
decision_type=2 2 2 2 2 2 2 2 2 2 2 2 2 2 2 2 2 2 2 2 2 2 2 2 2 2 2 2 2
left_child=2 11 6 15 -5 -3 19 17 9 13 -11 -2 -13 25 -15 22 -17 26 -19 23 -21 -20 -4 24 -1 -9 28 -25 -8
right_child=1 5 3 4 -6 -7 7 8 -10 10 -12 12 -14 14 -16 16 -18 18 21 20 -22 -23 -24 27 -26 -27 -28 -29 -30
leaf_value=-0.011413503891001049 -2.5556853987817068e-05 0.0033574305711032552 -0.001238364206672702 0.0024129471052823509 0.00092518906115255999 0.00317671506917999 -0.02233239679130743 -0.0022343535481454484 0.00080759920518986563 0.0010188872595451807 0.0024043414928016475 0.0018600327817420343 0.00041581561702759676 -0.00050669903479549688 0.00068159776799658542 -0.00064679238046002068 0.0010868714322809015 0.00014030112660719018 -0.0010433467271297734 0.00015143117900178672 -0.0013829607506741638 -7.368977572054579e-07 -7.2942287628297028e-05 -0.0045898134707635686 -0.0018477302696768016 -0.00013749982513979394 -0.0026829434484843899 -0.0045572604401773421 -0.0032962847183137921
leaf_weight=23 22 25 57 26 37 38 34 46 34 21 24 24 30 24 20 25 21 20 63 38 51 21 24 954 20 20 28 308 477
leaf_count=23 22 25 57 26 37 38 34 46 34 21 24 24 30 24 20 25 21 20 63 38 51 21 24 954 20 20 28 308 477
internal_value=0 0.0226978 -0.00284768 0.00578947 0.0180159 0.0362698 -0.00358491 -0.00169471 0.00743386 0.00467742 0.015 0.0114474 0.0162963 0.000454544 0.0075 -0.000275592 0.00586956 -0.00437792 -0.00163462 -0.00471306 -0.00162921 -0.00380953 -0.00376543 -0.00492337 -0.00267442 -0.00424243 -0.00490724 -0.005 -0.005
internal_weight=0 139 2416 190 63 63 2226 832 189 155 45 76 54 110 44 127 46 643 104 1394 89 84 81 1305 43 66 539 1262 511
internal_count=2555 139 2416 190 63 63 2226 832 189 155 45 76 54 110 44 127 46 643 104 1394 89 84 81 1305 43 66 539 1262 511
is_linear=0
shrinkage=0.05


Tree=18
num_leaves=31
num_cat=0
split_feature=7 0 7 0 8 4 0 8 0 1 7 6 0 4 0 4 5 0 0 1 5 2 2 3 7 4 2 0 0 7
split_gain=31.792 7.8658 5.82651 6.2623 10.3014 3.10378 1.56583 2.04537 1.49836 5.22173 0.90199 0.80505 2.15082 0.750256 2.10644 0.593939 0.409235 2.74836 0.871454 2.16774 0.328167 0.252302 0.0704914 0.100661 0.055896 0.132995 0.0413043 0.0324561 0.0314815 0.00699032
threshold=0.83675382966762712 0.76621819902021315 0.68679950460262795 0.71388138324740835 0.6483938577234275 0.90400614730419926 0.60512664266643157 0.74530908760440451 0.59845976218920649 0.42003905237013023 0.77660784554845053 0.75843601244224601 0.37918634391962863 0.75524023017725506 0.40845567306227498 0.77305239074668952 0.2661059484770007 0.68244722219995035 0.4727551895831496 0.41251176726463962 0.3366514059380537 0.82006727303651672 0.7794186591293486 0.54768342140838167 0.62960921579650075 0.62971736266783762 0.76208038779453757 0.54265520642073117 0.68079152668756671 0.58268700372426385
decision_type=2 2 2 2 2 2 2 2 2 2 2 2 2 2 2 2 2 2 2 2 2 2 2 2 2 2 2 2 2 2
left_child=2 6 11 8 15 -3 -2 -8 20 21 -6 13 -13 16 -15 -5 17 18 -1 -20 -4 28 -22 27 29 -26 -27 -24 -10 -18
right_child=1 5 3 4 10 -7 7 -9 9 -11 -12 12 -14 14 -16 -17 24 -19 19 -21 22 -23 23 -25 25 26 -28 -29 -30 -31
leaf_value=-0.0040931907888175677 -2.427901128842394e-05 0.0031895590425480916 2.1581877678111384e-05 0.0028609828670264599 -0.00078880898200522518 0.0030178793157209934 0.0017670311426549309 0.00039502483617621492 -0.00069082691397860413 0.0016076721296957378 0.00099057880232525527 -0.005174001110778528 0.00074989506677723878 -0.0049800594219637185 0.00071260946290114386 0.0023703546558699819 -0.006238899870912161 0.0019500176952242582 -0.003592377331563569 0.00066739923099866686 -0.0011293118917346944 7.7251299473516728e-05 -0.00096665280713221558 -4.4641639199201735e-05 -0.00011992651341060448 -0.0013780716262322404 -0.0017362923248415399 -0.00058609703718867352 -0.00011755948273367082 -0.0019206180567930579
leaf_weight=336 22 25 20 24 37 38 24 30 34 21 30 41 20 47 21 20 1184 20 42 20 117 20 37 20 21 95 20 20 20 129
leaf_count=336 22 25 20 24 37 38 24 30 34 21 30 41 20 47 21 20 1184 20 42 20 117 20 37 20 21 95 20 20 20 129
internal_value=0 0.0216187 -0.00297186 0.00238095 0.0125676 0.0346825 0.0107895 0.0153704 -0.00127832 0.00394737 0.000223879 -0.0040982 0.00155738 -0.00427649 0.000882352 0.0313636 -0.00446438 -0.00308613 -0.00399498 0.00145161 -0.00359813 -0.0022973 -0.00422681 -0.00305195 -0.00486197 -0.00389706 -0.00456522 -0.00412281 -0.00407408 -0.00496192
internal_weight=0 139 2416 420 111 63 76 54 309 95 67 1996 61 1935 68 44 1867 418 398 62 214 74 194 77 1449 136 115 57 54 1313
internal_count=2555 139 2416 420 111 63 76 54 309 95 67 1996 61 1935 68 44 1867 418 398 62 214 74 194 77 1449 136 115 57 54 1313
is_linear=0
shrinkage=0.05


Tree=19
num_leaves=31
num_cat=0
split_feature=7 7 0 8 0 0 4 1 6 0 7 5 0 1 4 2 1 0 4 0 8 8 8 0 0 0 6 0 9 1
split_gain=28.1202 6.8992 6.21829 8.03169 5.87524 4.35062 2.93022 2.76276 1.30451 1.19811 1.04568 1.38448 2.39587 1.14168 0.668605 0.643622 0.497954 0.41957 0.323039 0.295387 1.99782 0.199234 0.150365 0.240698 0.125744 0.0828873 0.0485286 0.145205 0.0491625 0.0451923
threshold=0.87158975124727689 0.69118034572412368 0.59610250078174498 0.61905985794494434 0.77489757137931881 0.72885881287032672 0.87376649488109814 0.39040258291240543 0.29530118490771279 0.83135558566720935 0.49640968659967666 0.27094474867905166 0.45660714715244427 0.47355722229598191 0.92251739040003689 0.81101284245055982 0.2865095049728853 0.66719317516697285 0.68428046497654327 0.53633309546908714 0.49084253245370152 0.25866118364066509 0.58065074960879504 0.64878007713215913 0.73105170741094139 0.54265520642073117 0.629704075332017 0.27094474867905166 0.13970580659121004 0.25114190007377418
decision_type=2 2 2 2 2 2 2 2 2 2 2 2 2 2 2 2 2 2 2 2 2 2 2 2 2 2 2 2 2 2
left_child=1 10 18 5 8 7 9 -4 -2 16 24 12 21 -14 -6 19 -5 -18 -3 -13 -21 -12 23 -22 26 -20 28 -28 -1 -24
right_child=4 2 3 6 14 -7 -8 -9 -10 -11 11 15 13 -15 -16 -17 17 -19 25 20 22 -23 29 -25 -26 -27 27 -29 -30 -31
leaf_value=-0.0077554636232063257 0.00034640535042061878 2.0502783794206904e-05 7.0807778728479353e-05 -0.00044182015301288247 0.0028679457582563061 0.0026786333055642529 0.0030351991044546517 0.001573938457923228 0.0012615170874308698 0.0022468446092885502 -0.00057487325775775963 -0.0027764861214940695 0.00070951278007007389 0.00084674948941788485 0.0029300449583779982 0.00036503459822380196 -0.00040238038407502946 0.00046248905182462479 -0.0013426887024280589 0.00026090448771881039 -0.0011741885889192468 -0.001314124280082065 -0.002822879428249742 2.5405694489313847e-05 -0.0047194756410395876 -5.6759904111799942e-05 -0.0078433895570757597 -0.00063950484218875411 -0.0080093682232267888 -0.0024062903593114575
leaf_weight=20 24 20 24 84 20 25 23 25 22 23 29 277 31 20 23 28 21 20 153 32 23 52 188 20 29 32 53 20 1174 20
leaf_count=20 24 20 24 84 20 25 23 25 22 23 29 277 31 20 23 28 21 20 153 32 23 52 188 20 29 32 53 20 1174 20
internal_value=0 -0.00270884 0.00288889 0.0082653 0.0258989 0.022027 0.00230994 0.0133673 0.0134783 -0.000270271 -0.00395833 -0.00243056 0.00219697 0.0106863 0.039186 -0.00346939 -0.0022 0.00231707 -0.00353659 -0.00383929 -0.00270318 -0.00314815 -0.00420319 -0.00151163 -0.0048071 -0.00418919 -0.00488161 -0.00363014 -0.00495813 -0.00475962
internal_weight=0 2466 450 245 89 74 171 49 46 148 2016 720 132 51 43 588 125 41 205 560 283 81 251 43 1296 185 1267 73 1194 208
internal_count=2555 2466 450 245 89 74 171 49 46 148 2016 720 132 51 43 588 125 41 205 560 283 81 251 43 1296 185 1267 73 1194 208
is_linear=0
shrinkage=0.05


Tree=20
num_leaves=31
num_cat=0
split_feature=7 7 0 0 8 6 0 1 0 9 0 0 1 9 1 4 0 1 2 2 4 7 0 4 0 2 0 1 1 7
split_gain=27.0657 6.70041 6.38257 4.7728 6.32342 2.03058 6.61776 2.94233 1.90777 2.55923 1.62335 1.49414 4.80095 1.46782 0.801328 0.668605 0.382966 0.576376 0.283333 0.16027 0.152183 0.284717 0.115556 0.0829403 0.111111 0.0815818 0.102439 0.0395833 0.0355072 0.0205038
threshold=0.87158975124727689 0.7563000667556744 0.77489757137931881 0.72250863928287956 0.71879091324758548 0.40466542925828825 0.68079152668756671 0.25415517747079175 0.43805774488658683 0.28893084741920699 0.6688488706793565 0.59845976218920649 0.41251176726463962 0.57727954169607498 0.5293087625278583 0.92251739040003689 0.60365535876075416 0.35222258577607818 0.83143347313378169 0.81101284245055982 0.75524023017725506 0.66074063663832483 0.54265520642073117 0.14486029904555012 0.23184948805734398 0.77479512010673235 0.3204432292877703 0.48207711642637247 0.54634855078863942 0.67426305249104068
decision_type=2 2 2 2 2 2 2 2 2 2 2 2 2 2 2 2 2 2 2 2 2 2 2 2 2 2 2 2 2 2
left_child=1 5 10 11 -5 19 8 13 25 -10 -2 22 18 -8 16 -4 27 -18 -13 20 23 -22 -3 24 -1 -7 -27 -11 -23 -25
right_child=2 3 15 4 -6 6 7 -9 9 14 -12 12 -14 -15 -16 -17 17 -19 -20 -21 21 28 -24 29 -26 26 -28 -29 -30 -31
leaf_value=-0.0089604981457956819 0.00062297444569809062 -0.0010346169995694215 0.0027245484703434897 0.0027901483668891173 0.00014465123934260569 -0.0032205600699893935 0.0023199847470300986 0.0022834314763677051 0.00064402807180710502 -0.0013299549683133257 0.0011858827795778698 -0.00016020887330469842 0.0014485917224367822 -0.00012736365490494667 0.00011074896320302507 0.0027835427104590978 -0.00014106532459763916 0.00023800050667338547 4.3538723853860832e-05 -0.00013513909704079827 3.9972802886109088e-05 -0.0011088649554480625 -2.4939411398125425e-05 -0.0045459622742786455 -0.001137492376982116 -0.0058045401103436834 -0.0002061934769925947 -0.00031025254563936091 -0.0021631222218461629 -0.00092348101359273369
leaf_weight=25 21 65 20 39 36 454 26 23 23 76 25 34 21 24 38 23 31 20 20 22 20 49 25 1247 20 21 20 20 20 47
leaf_count=25 21 65 20 39 36 454 26 23 23 76 25 34 21 24 38 23 31 20 20 22 20 49 25 1247 20 21 20 20 20 47
internal_value=0 -0.00272912 0.0253371 0.00520833 0.0156667 -0.00358491 -0.00152062 0.0128082 -0.00300854 0.00100961 0.0123913 0.000454544 0.00566667 0.006 -0.000945947 0.039186 -0.00261905 0.000882352 -0.00222222 -0.00468966 -0.0047549 -0.00275281 -0.00388889 -0.00488798 -0.00277778 -0.00469697 -0.00256098 -0.00447917 -0.00427536 -0.00496136
internal_weight=0 2466 89 240 75 2226 776 73 703 208 46 165 75 50 185 43 147 51 54 1450 1428 89 90 1339 45 495 41 96 69 1294
internal_count=2555 2466 89 240 75 2226 776 73 703 208 46 165 75 50 185 43 147 51 54 1450 1428 89 90 1339 45 495 41 96 69 1294
is_linear=0
shrinkage=0.05


Tree=21
num_leaves=31
num_cat=0
split_feature=7 0 7 0 0 8 0 5 3 2 7 8 0 6 0 1 0 0 8 7 5 0 4 3 0 0 1 2 0 5
split_gain=25.5739 8.06753 4.58924 4.04702 3.87244 7.91784 2.62843 2.14144 2.03782 3.025 1.95268 1.54286 1.2 0.698409 2.30434 1.41153 1.2997 0.4 0.235714 0.193749 0.615552 0.952778 0.183036 0.235714 0.127273 0.0843501 0.334615 0.0622815 0.0803345 0.0598122
threshold=0.88389563277352257 0.87359386149886564 0.64020887499121637 0.77489757137931881 0.59610250078174498 0.6139777403533484 0.74024422511044674 0.31351977614034532 0.5219982794641761 0.73857739776290487 0.80143041599325404 0.77351278126304635 0.73105170741094139 0.50281555498231634 0.43205634977269264 0.50929114719237756 0.64770968802366891 0.68244722219995035 0.65968839902646004 0.48897872602065912 0.47386967711933042 0.61718956711379813 0.70391832867278314 0.56353693007250849 0.56239526623423497 0.29858644494511749 0.66614700667476956 0.7794186591293486 0.54265520642073117 0.046916718114832306
decision_type=2 2 2 2 2 2 2 2 2 2 2 2 2 2 2 2 2 2 2 2 2 2 2 2 2 2 2 2 2 2
left_child=1 2 13 -2 7 6 8 -4 -6 -10 18 12 17 19 25 16 24 -12 -7 29 21 -21 -22 -24 -16 -15 -27 -9 -29 -1
right_child=3 -3 4 -5 5 10 -8 27 9 -11 11 -13 -14 14 15 -17 -18 -19 -20 20 22 -23 23 -25 -26 26 -28 28 -30 -31
leaf_value=-0.0044526242792961293 0.0010845088331626173 0.0031864441723356163 9.4653338143608034e-05 0.0028686108669150005 -9.8932784075544448e-06 -4.4596269053160161e-05 0.0020445859139785337 -0.0012317529081504379 0.00019168393975943778 0.0010890296162790129 1.6849370311189035e-05 -0.00047653178920709148 0.00098719778772621346 -0.0067444854844651543 -0.0020617733429541206 0.00046285817618804594 0.0011683934420635902 0.00011655084585393563 -0.0011466971803335137 -0.0019502255465207426 -0.0030384182685475099 0.00022288645434821332 9.5621950772050294e-05 -0.0046995183148443925 -3.744189359666606e-05 -0.0019958758300891084 0.00016581918130852653 -0.00087740987093333804 -6.6315788380792877e-05 -0.0076782649178632201
leaf_weight=63 32 21 38 37 26 30 27 190 20 20 20 24 20 212 35 22 26 20 110 36 246 20 20 22 20 58 20 71 25 1024
leaf_count=63 32 21 38 37 26 30 27 190 20 20 20 24 20 212 35 22 26 20 110 36 246 20 20 22 20 58 20 71 25 1024
internal_value=0 -0.00252615 -0.00278905 0.0283333 0.000850233 0.00477918 0.017043 -0.00299383 0.0116667 0.01875 -0.000312501 0.00571428 0.01 -0.00406798 -0.00220102 0.0042233 0.00117284 0.005 -0.00392857 -0.00458071 -0.00354651 0.00125 -0.00447917 -0.00142857 -0.00318182 -0.00448276 -0.00307692 -0.00447553 -0.0034375 -0.004908
internal_weight=0 2486 2465 69 641 317 93 324 66 40 224 84 60 1824 393 103 81 40 140 1431 344 56 288 42 55 290 78 286 96 1087
internal_count=2555 2486 2465 69 641 317 93 324 66 40 224 84 60 1824 393 103 81 40 140 1431 344 56 288 42 55 290 78 286 96 1087
is_linear=0
shrinkage=0.05


Tree=22
num_leaves=31
num_cat=0
split_feature=7 0 0 7 0 8 0 5 1 0 1 8 0 2 0 1 6 2 8 0 6 0 7 7 1 0 4 4 3 0
split_gain=18.8622 6.61409 5.26892 3.72828 2.99911 7.40848 2.76228 1.61091 1.57346 1.60575 1.50037 1.18248 1.225 0.809853 1.74445 3.49135 1.16392 1.03068 0.42008 1.19674 0.277549 0.127306 0.289474 0.107254 0.0767973 0.354255 0.0451923 0.0432432 0.0421875 0.0350746
threshold=0.87158975124727689 0.86117414068200238 0.70023492435115198 0.64020887499121637 0.59845976218920649 0.6139777403533484 0.71388138324740835 0.31351977614034532 0.2865095049728853 0.67824985367339918 0.38382063973539088 0.80070118738941887 0.84869428564556115 0.54323287405736731 0.42199389036329088 0.4456460018577259 0.60752399033514726 0.68579199392136914 0.52391392633698464 0.62687919436181583 0.35574398445965155 0.52343230089559911 0.7563000667556744 0.57990698123814222 0.69418821162819111 0.27495770559889676 0.89167687365672166 0.66395507383698094 0.51794273073614383 0.55723174124646224
decision_type=2 2 2 2 2 2 2 2 2 2 2 2 2 2 2 2 2 2 2 2 2 2 2 2 2 2 2 2 2 2
left_child=1 3 -2 13 7 6 10 -5 20 -10 -6 -4 -13 23 24 16 18 -17 19 29 28 26 -23 -1 -15 -26 -9 -20 -7 -16
right_child=2 -3 11 4 5 8 -8 21 9 -11 -12 12 -14 14 15 17 -18 -19 27 -21 -22 22 -24 -25 25 -27 -28 -29 -30 -31
leaf_value=-0.0068379713837597323 0.00034366761562197395 0.0029684881610448719 0.0032561959809474677 8.9920671236426813e-05 1.4516585741849819e-05 -0.00061091892011851156 0.00203586203539623 -0.0014291032141179973 -5.7094978695477782e-05 0.00089899797274430114 0.0011621925465565071 0.001032755990705095 0.0023955068703934465 -0.0044278365764361281 -0.0035207117600243743 0.00064070480174010776 0.00064370782091892397 0.00022175736128192793 -0.0030219073113716775 0.00023603589896619911 -5.7476126074806739e-05 -0.00055404455857352647 2.1509024786750655e-05 -0.001183663963694394 -0.0047752821319227666 0.00015752822224309978 -0.0021704229170590359 -0.0014531916740247626 -0.00019840066053699565 -0.0012885849804420884
leaf_weight=1001 27 25 22 38 30 108 34 188 33 20 26 20 20 381 47 21 21 23 128 32 24 44 32 36 74 20 20 20 20 20
leaf_count=1001 27 25 22 38 30 108 34 188 33 20 26 20 20 381 47 21 21 23 128 32 24 44 32 36 74 20 20 20 20 20
internal_value=0 -0.00258719 0.0208427 -0.00284924 0.000510534 0.00415254 0.0161111 -0.00282609 -0.00109756 0.00632075 0.00928571 0.028871 0.02375 -0.00398575 -0.00277637 0.000128204 -0.00201493 0.0131818 -0.00297571 -0.000454547 -0.00368421 -0.00411972 -0.00236842 -0.00490357 -0.00468421 -0.00340426 -0.00475962 -0.00466216 -0.00460938 -0.00425373
internal_weight=0 2466 89 2441 617 295 90 322 205 53 56 62 40 1824 787 312 268 44 247 99 152 284 76 1037 475 94 208 148 128 67
internal_count=2555 2466 89 2441 617 295 90 322 205 53 56 62 40 1824 787 312 268 44 247 99 152 284 76 1037 475 94 208 148 128 67
is_linear=0
shrinkage=0.05


Tree=23
num_leaves=31
num_cat=0
split_feature=0 7 7 0 8 0 1 7 5 4 2 0 1 6 2 5 8 0 7 2 7 0 7 1 0 4 4 0 0 0
split_gain=18.6752 8.96443 3.58776 3.02329 7.2587 2.66274 1.78022 1.70858 1.32889 1.22932 0.809853 1.74445 3.49135 1.16392 1.03068 0.56646 0.42008 1.19674 0.409578 0.2625 0.107254 0.0813285 0.1871 0.0767973 0.354255 0.0452381 0.0432432 0.0350746 1.77636e-15 4.44089e-16
threshold=0.87359386149886564 0.8772771590190428 0.64020887499121637 0.58808861378597044 0.6139777403533484 0.72250863928287956 0.40863586535788771 0.9111512718712671 0.31351977614034532 0.85419796168334461 0.54323287405736731 0.42199389036329088 0.4456460018577259 0.60752399033514726 0.68579199392136914 0.6688488706793565 0.52391392633698464 0.62687919436181583 0.80143041599325404 0.68694787867702323 0.57990698123814222 0.52343230089559911 0.7563000667556744 0.69418821162819111 0.27495770559889676 0.89647223313535618 0.66395507383698094 0.55723174124646224 0.71908098876692794 0.3861819581305474
decision_type=2 2 2 2 2 2 2 2 2 2 2 2 2 2 2 2 2 2 2 2 2 2 2 2 2 2 2 2 2 2
left_child=1 2 10 8 5 6 -5 -3 -4 15 20 23 13 16 -14 18 17 27 19 -6 28 25 -23 29 -25 -10 -18 -13 -1 -12
right_child=-2 7 3 4 9 -7 -8 -9 21 -11 11 12 14 -15 -16 -17 26 -19 -20 -21 -22 22 -24 24 -26 -27 -28 -29 -30 -31
leaf_value=-0.0070665931586523503 0.0029167069767870855 0.00069951571180601588 8.906423975931139e-05 2.3255378128420519e-05 2.1176829039889221e-05 0.0019652374307691177 0.0011678901628064771 0.0017119671649177223 -0.0013674020935504538 0.00071689401422362926 -0.0050177779843661903 -0.0033446761720231574 0.00060866956165310504 0.00061152242987297714 0.00021066949321783105 -0.00090065552524603914 -0.0028708119458030952 0.00022423410401789176 0.00044767985856627838 -0.00068207450623271868 -0.0011244807655096738 -0.00057093729909334166 -2.7793499351793218e-05 -0.0045365180253266269 0.00014965181113094322 -0.0020619017712060839 -0.0013805320903235226 -0.0012241557314199862 -0.0044614043979859658 -0.00069636096553299831
leaf_weight=933 36 36 37 39 20 33 24 28 190 37 345 47 21 21 23 114 128 32 22 28 36 39 28 74 20 20 20 20 68 36
leaf_count=933 36 36 37 39 20 33 24 28 190 37 345 47 21 21 23 114 128 32 22 28 36 39 28 74 20 20 20 20 68 36
internal_value=0 -0.00237991 -0.00286151 0.000388271 0.00383281 0.0153125 0.00928571 0.0160937 -0.00308917 -0.00115385 -0.00398575 -0.00277637 0.000128204 -0.00201493 0.0131818 -0.00282609 -0.00297571 -0.000454547 0.000714285 -0.001875 -0.00490357 -0.00427798 -0.0027612 -0.00468421 -0.00340426 -0.00476191 -0.00466216 -0.00425373 -0.005 -0.005
internal_weight=0 2519 2455 631 317 96 63 64 314 221 1824 787 312 268 44 184 247 99 70 48 1037 277 67 475 94 210 148 67 1001 381
internal_count=2555 2519 2455 631 317 96 63 64 314 221 1824 787 312 268 44 184 247 99 70 48 1037 277 67 475 94 210 148 67 1001 381
is_linear=0
shrinkage=0.05


Tree=24
num_leaves=31
num_cat=0
split_feature=0 7 7 0 1 6 0 1 7 0 6 0 1 0 3 0 0 1 1 2 1 1 0 4 7 5 3 2 6 0
split_gain=18.7776 7.68613 4.1821 3.17123 5.63639 1.71055 4.75467 3.51754 2.80405 1.95388 1.5682 1.30938 2.20957 0.857566 0.745832 1.59211 0.714744 3.1071 0.307045 0.15816 0.492308 0.0912879 0.434077 0.0610017 0.281739 0.0426884 0.0418699 0.0391304 0.0375137 0.0303922
threshold=0.87359386149886564 0.9111512718712671 0.75310721312627404 0.68743836242493261 0.27749330633004476 0.30189494485883334 0.54660802912099826 0.32559939371537089 0.62169735085376976 0.63138124293422926 0.31221098865332847 0.73399427522229632 0.13832715768426113 0.73399427522229632 0.54768342140838167 0.52343230089559911 0.41431675499715365 0.62851058114731595 0.519997144532369 0.59062414903918403 0.18923382053269752 0.69418821162819111 0.29858644494511749 0.70391832867278314 0.65298468132949183 0.028311190577368656 0.45846134939166783 0.84838644955004139 0.28901466108334689 0.82094835673222644
decision_type=2 2 2 2 2 2 2 2 2 2 2 2 2 2 2 2 2 2 2 2 2 2 2 2 2 2 2 2 2 2
left_child=1 2 5 14 10 23 16 11 -9 -10 29 19 -13 -6 27 -16 21 18 26 20 -8 -7 -23 25 -25 -1 -18 -4 -27 -5
right_child=-2 -3 3 4 13 6 7 8 9 -11 -12 12 -14 -15 15 -17 17 -19 -20 -21 -22 22 -24 24 -26 28 -28 -29 -30 -31
leaf_value=-0.0070003732188178543 0.002770871627947734 0.0016263688066718359 -0.00054153156230193314 -0.00019379105811383288 0.0013632952442969024 -0.0041465088976465293 -0.0037467405086082008 0.0006377513056186982 -2.7974086927302684e-05 0.0016176277700081954 0.00062827796185686456 -0.00094154586751592217 0.0014342663659962253 0.001198043129053226 -0.0013284635039103329 0.0005962782192672632 -0.0038462116711891065 0.00030554378756143601 4.3429815847614799e-06 -0.001129450294141014 0.00014864629254281858 -0.0046587266902451746 4.1035923749181032e-05 -0.00020542517035357149 -0.0011296447100669577 -0.0042151256155010244 -0.0018479360276149337 -0.00066891915550931064 -0.0021938067026576716 -0.00018979324753467261
leaf_weight=22 36 28 72 31 23 471 32 23 34 21 20 21 25 21 38 38 20 20 35 55 20 107 29 25 90 1029 103 20 26 20
leaf_count=22 36 28 72 31 23 471 32 23 34 21 20 21 25 21 38 38 20 20 35 55 20 107 29 25 90 1029 103 20 26 20
internal_value=0 -0.00247916 -0.00277198 0.00295053 0.00934782 -0.00350544 -0.00199803 0.00430736 0.0129487 0.00681818 0.000633802 -9.80404e-05 0.00695652 0.0234091 -0.00142857 0.00223684 -0.0038535 -0.00106742 -0.00341772 -0.00313084 -0.00115385 -0.00467051 -0.00352941 -0.00479027 -0.00369565 -0.00490715 -0.0045935 -0.00445652 -0.00495261 -0.00401961
internal_weight=0 2519 2491 283 115 2208 1016 231 78 55 71 153 46 44 168 76 785 178 158 107 52 607 136 1192 115 1077 123 92 1055 51
internal_count=2555 2519 2491 283 115 2208 1016 231 78 55 71 153 46 44 168 76 785 178 158 107 52 607 136 1192 115 1077 123 92 1055 51
is_linear=0
shrinkage=0.05


Tree=25
num_leaves=31
num_cat=0
split_feature=0 7 2 0 8 6 5 0 6 0 1 0 1 0 3 1 8 1 0 8 4 1 2 5 2 0 1 7 7 0
split_gain=18.8802 7.00332 3.34018 4.16264 5.52794 2.07692 1.06328 1.47 0.954323 2.87716 2.08552 1.13638 1.66222 0.52931 1.28781 0.9 0.680993 0.438406 0.22446 0.900936 0.194315 0.188698 0.142017 0.543452 0.156709 0.121385 0.0854701 0.0369718 0.03129 1.77636e-15
threshold=0.87359386149886564 0.8772771590190428 0.73510974349594271 0.72074069322728351 0.66035153088320087 0.29169706880539775 0.3204432292877703 0.3861819581305474 0.35222258577607818 0.50030067109789067 0.45936527659473481 0.69038093023628755 0.18631507732852762 0.52343230089559911 0.54049403957232411 0.40863586535788771 0.55385141870457844 0.51249349297509017 0.29858644494511749 0.23829721371021592 0.54825402694645387 0.65757984544795511 0.59062414903918403 0.4537126867167518 0.60565065086268699 0.63138124293422926 0.68926061682600948 0.50233425268779419 0.62960921579650075 0.20490935768635596
decision_type=2 2 2 2 2 2 2 2 2 2 2 2 2 2 2 2 2 2 2 2 2 2 2 2 2 2 2 2 2 2
left_child=1 2 8 6 -5 -3 7 -4 22 18 11 20 -13 26 16 -16 -15 -9 -10 -20 -11 -21 28 -24 -25 -22 -8 -26 29 -1
right_child=-2 5 3 4 -6 -7 13 17 9 10 -12 12 -14 14 15 -17 -18 -19 19 21 25 -23 23 24 27 -27 -28 -29 -30 -31
leaf_value=-0.013771552891894573 0.0026323280465503462 0.00043910799586791916 -0.0012734130209604223 0.0019363721693411271 -0.0001984767775922065 0.0013655041171899509 -0.0015749191739725891 9.8331542884201017e-05 -0.0061770206782343871 -0.0012470934653197952 0.00046318740936768661 -5.2580867301030461e-05 0.001111337753927291 0.00014187239182944858 -1.4808929427534668e-05 0.00088826008903355395 -0.00053120439121313 0.00082431683321616909 1.702311617546936e-05 -0.0014240560832184514 -0.00034551560291362963 -5.1172154029407654e-05 0.00026279801418687131 -0.0010733566253718549 -0.0057799098298745161 0.00021868402254526868 -0.0014552496558275225 -0.0010627983137410149 -0.00060189032162259715 -0.0048941814573272317
leaf_weight=69 36 39 27 30 31 25 120 25 349 47 26 37 27 28 20 20 90 23 21 128 23 37 23 21 24 20 36 189 31 933
leaf_count=69 36 39 27 30 31 25 120 25 349 47 26 37 27 28 20 20 90 23 21 128 23 37 23 21 24 20 36 189 31 933
internal_value=0 -0.00257841 -0.00300407 0.000888888 0.0130328 0.01375 -0.00101543 0.00433333 -0.00387781 -0.00241259 0.00305555 0.000844155 0.0059375 -0.00229299 -0.000253166 0.0075 -0.00288136 0.00958333 -0.00425234 -0.00284946 -0.00277778 -0.00409091 -0.00468992 -0.00363813 -0.00435898 -0.000348838 -0.00435898 -0.00476526 -0.0049516 -0.005
internal_weight=0 2519 2455 450 61 64 389 75 2005 715 180 154 64 314 158 40 118 48 535 186 90 165 1290 257 234 43 156 213 1033 1002
internal_count=2555 2519 2455 450 61 64 389 75 2005 715 180 154 64 314 158 40 118 48 535 186 90 165 1290 257 234 43 156 213 1033 1002
is_linear=0
shrinkage=0.05


Tree=26
num_leaves=31
num_cat=0
split_feature=0 7 0 1 0 6 0 8 0 6 2 0 6 0 1 4 4 7 5 7 0 3 0 1 0 2 1 7 4 3
split_gain=17.4892 6.18487 4.89294 4.38902 2.63166 1.65584 4.56247 1.59107 1.60714 1.57696 0.635014 1.19684 0.538509 0.494024 1.23296 0.408333 0.398746 0.730827 0.287981 1.13542 0.27961 0.232919 0.175325 0.235714 0.156361 0.240698 0.139394 0.13597 0.323704 0.10287
threshold=0.87359386149886564 0.75310721312627404 0.68244722219995035 0.27749330633004476 0.75089199092374193 0.59272938915449669 0.40490374515919536 0.30547658874749012 0.661845238572494 0.30189494485883334 0.8029216491609813 0.56063533807458266 0.71023539086407239 0.53291747179705118 0.45936527659473481 0.89647223313535618 0.75106306764345643 0.62803694399550258 0.17042839618027433 0.44769341578244659 0.69608967214823503 0.65404940395723254 0.33200904418662452 0.62851058114731595 0.29858644494511749 0.55036083005056746 0.40466542925828825 0.54859110392804455 0.55847449793164017 0.71801646798574437
decision_type=2 2 2 2 2 2 2 2 2 2 2 2 2 2 2 2 2 2 2 2 2 2 2 2 2 2 2 2 2 2
left_child=1 5 13 9 -5 10 22 -8 12 15 16 -12 21 -3 26 -4 18 -18 19 24 -19 -9 -7 -24 -1 -26 -15 -20 -29 -30
right_child=-2 2 3 4 -6 6 7 8 -10 -11 11 -13 -14 14 -16 -17 17 20 27 -21 -22 -23 23 -25 25 -27 -28 28 29 -31
leaf_value=-0.0068555077029390926 0.0025007116442228292 -0.0008489215328695009 -0.00041332266182034699 0.00093187174345874153 0.0015655822344124819 -0.0042290390856573384 0.00032536667093654873 -0.00040835841216164438 0.0017808644257000924 0.00057965371958671765 -0.0014744350967400024 0.00036290904313978609 7.1829366205773096e-05 -0.00055948835519819152 0.00047309719171777763 5.7744567946843921e-05 0.00036510561225164869 -0.0010923424620648521 -0.0054255806672273586 0.0011073593731402852 2.9409675836257108e-05 4.9955600724404301e-05 -0.0014534804183702922 4.9805951485831349e-05 -0.0056297472853897978 0.00016803332961015324 6.0921680958257037e-06 9.1461871630962527e-05 -0.0012332392639594239 -0.00074502727185477696
leaf_weight=127 36 69 40 38 21 189 22 25 20 23 34 24 24 46 34 20 21 92 1121 24 22 21 22 20 23 20 20 21 309 27
leaf_count=127 36 69 40 38 21 189 22 25 20 23 34 24 24 46 34 20 21 92 1121 24 22 21 22 20 23 20 20 21 309 27
internal_value=0 -0.00259825 0.00400321 0.0108451 0.0212712 -0.00352808 -0.000335278 0.00794643 0.005 0.00343373 -0.00411528 0.00103448 0.00142857 -0.00174556 0.000499999 -0.000833335 -0.00428058 -0.00166667 -0.00449163 -0.00268041 -0.00324562 -0.00173913 -0.00435065 -0.00142857 -0.00411765 -0.00151163 -0.00348485 -0.00472937 -0.00387955 -0.00425595
internal_weight=0 2519 311 142 59 2208 343 112 90 83 1865 58 70 169 100 60 1807 135 1672 194 114 46 231 42 170 43 66 1478 357 336
internal_count=2555 2519 311 142 59 2208 343 112 90 83 1865 58 70 169 100 60 1807 135 1672 194 114 46 231 42 170 43 66 1478 357 336
is_linear=0
shrinkage=0.05


Tree=27
num_leaves=31
num_cat=0
split_feature=0 7 7 0 8 4 1 0 6 7 7 8 5 0 1 0 2 0 3 4 0 5 2 4 7 0 1 0 4 0
split_gain=14.94 5.23971 2.90712 2.54901 9.46773 2.3941 1.58756 2.61628 1.5104 1.32679 1.1938 1.15227 0.920896 1.3268 1.06765 0.69 0.333648 0.791374 0.304314 0.275393 0.389812 0.153587 0.516746 0.095153 0.568264 0.0793981 0.0491127 0.0450739 0.0401635 1.77636e-15
threshold=0.87359386149886564 0.8772771590190428 0.52568556320708326 0.59845976218920649 0.58065074960879504 0.85419796168334461 0.42003905237013023 0.69874359570561506 0.29169706880539775 0.68679950460262795 0.66074063663832483 0.69256383531610244 0.31351977614034532 0.35140032552657535 0.61373961351487738 0.49535362930059895 0.60776977291471945 0.55488249773494458 0.58670271598869383 0.28231956737768943 0.21172456923854036 0.64770968802366891 0.62684187138301162 0.73116521457789274 0.62169735085376976 0.54265520642073117 0.61872629218758868 0.4906511333295917 0.89647223313535618 0.69038093023628755
decision_type=2 2 2 2 2 2 2 2 2 2 2 2 2 2 2 2 2 2 2 2 2 2 2 2 2 2 2 2 2 2
left_child=1 2 16 12 6 18 7 10 -3 -9 -5 -7 13 -4 15 -15 26 19 21 20 -18 22 -6 -14 -25 28 29 -21 -26 -1
right_child=-2 8 3 4 5 11 -8 9 -10 -11 -12 -13 23 14 -16 -17 17 -19 -20 27 -22 -23 -24 24 25 -27 -28 -29 -30 -31
leaf_value=-0.0060986046825486605 0.0023756760620116876 0.00036573639055450667 -0.0034687405231169604 0.00024872086322588483 0.00029037606514042199 0.0010201383542610045 0.0016791535112747101 0.0013934954569292375 0.0012576796947119957 0.0017601980972674538 -0.00030704252851969827 -1.931373233113275e-05 -0.0014787514544648433 -0.0014992635499560902 0.00010520612860906065 0.00029645626585527688 -0.0060813193614655077 0.00029756681885975456 0.00033599904008370097 -0.0034183650541779534 0.00017974644649327597 -0.00091949088092234247 -0.00032672034796153986 5.4898235474255358e-05 -0.0010606887730144527 -3.7482805897979736e-05 -0.00038312684751843121 -0.0019035380822377893 -0.0018920399331961357 -0.0041217414347800704
leaf_weight=987 36 39 58 21 22 20 20 23 25 20 22 24 225 23 20 25 22 32 22 183 21 205 54 22 167 35 20 20 22 120
leaf_count=987 36 39 58 21 22 20 20 23 25 20 22 24 225 23 20 25 22 32 22 183 21 205 54 22 167 35 20 20 22 120
internal_value=0 -0.00271735 -0.00308554 -0.00109524 0.00173289 -0.00226225 0.0148113 0.0118605 0.0114062 0.0205814 0.00313953 0.00863636 -0.00324121 0.000555554 0.00529412 0.00125 -0.00457295 -0.00302158 -0.00384489 -0.00398374 -0.000348838 -0.00428826 -0.00236842 -0.0042569 -0.00357724 -0.00433036 -0.00495564 -0.0047537 -0.00473545 -0.005
internal_weight=0 2519 2455 1050 453 347 106 86 64 43 43 44 597 126 68 48 1405 278 303 246 43 281 76 471 246 224 1127 203 189 1107
internal_count=2555 2519 2455 1050 453 347 106 86 64 43 43 44 597 126 68 48 1405 278 303 246 43 281 76 471 246 224 1127 203 189 1107
is_linear=0
shrinkage=0.05


Tree=28
num_leaves=31
num_cat=0
split_feature=0 7 0 1 0 6 0 8 0 1 1 8 1 7 1 9 1 1 2 5 0 8 4 8 0 0 1 7 6 2
split_gain=13.6706 5.17651 3.26037 3.08888 2.32258 1.60765 2.60011 2.73382 1.82574 3.0321 0.731382 0.660589 0.544444 0.539815 0.69508 0.49372 0.462615 0.343401 0.269338 0.590142 0.921951 0.210373 0.4 0.192253 0.698795 0.150744 0.276923 0.139181 0.0844815 0.0433637
threshold=0.87359386149886564 0.7563000667556744 0.70023492435115198 0.24816407299907464 0.75089199092374193 0.40466542925828825 0.3861819581305474 0.26219410025644913 0.68079152668756671 0.18631507732852762 0.62394930634241896 0.55385141870457844 0.20044793915924497 0.81926779565736774 0.41251176726463962 0.28893084741920699 0.52630730190494668 0.78732802513129596 0.59293591855049221 0.4506538594142126 0.27094474867905166 0.35235589306963316 0.46668091793579997 0.51921236407216909 0.45050953728722515 0.33200904418662452 0.62394930634241896 0.62960921579650075 0.6647526273302673 0.61412713907081684
decision_type=2 2 2 2 2 2 2 2 2 2 2 2 2 2 2 2 2 2 2 2 2 2 2 2 2 2 2 2 2 2
left_child=1 5 11 12 -5 18 17 -8 10 -10 15 -3 -4 -13 -15 -9 -16 25 27 20 -20 22 -17 24 -21 -7 -27 -1 -23 -25
right_child=-2 2 3 4 -6 6 7 8 9 -11 -12 13 -14 14 16 21 -18 -19 19 23 -22 28 -24 29 -26 26 -28 -29 -30 -31
leaf_value=-0.0043921509509148877 0.0022568922589111017 0.00036200703455875811 -0.00026922432587606082 0.00047008809559876341 0.0014206252461791908 -0.0047641021845507203 0.00054916728849910615 0.00038119450592672956 -0.00015394347710250014 0.0014896216938910338 7.5130426371874704e-05 -0.00033882653406281581 0.00094446545284837264 -0.00015282383892313429 0.00050897808220602865 -0.00072272183296308962 -0.00035407962436016679 3.4264502784688662e-06 -0.0042459416188819141 -0.0041050694028791305 0.00031108242008252092 -0.00034554504116717031 6.9514137723302149e-05 -0.00097518428626629152 0.00022573375465491849 -0.0026022446385273405 2.4154220727694883e-05 -0.00041347871774966797 -0.0001661573826192976 -0.001499091485843565
leaf_weight=1060 36 26 36 31 31 351 24 20 32 35 20 78 24 30 24 20 22 37 21 58 20 129 20 21 25 32 20 28 30 214
leaf_count=1060 36 26 36 31 31 351 24 20 32 35 20 78 24 30 24 20 22 37 21 58 20 129 20 21 25 32 20 28 30 214
internal_value=0 -0.0026975 0.00344371 0.0097541 0.0175806 -0.00353406 -0.00168831 0.00166667 0.000392156 0.00768657 -0.00165272 -0.000833335 0.00166667 -0.00207792 0.000921051 -0.00248859 0.00478261 -0.00420455 -0.00451624 -0.00332869 0.00231707 -0.00324121 -1.19209e-09 -0.0040566 -0.00198795 -0.00462779 -0.00211539 -0.00490809 -0.0040566 -0.00478724
internal_weight=0 2519 302 122 62 2217 770 330 306 67 239 180 60 154 76 219 46 440 1447 359 41 199 40 318 83 403 52 1088 159 235
internal_count=2555 2519 302 122 62 2217 770 330 306 67 239 180 60 154 76 219 46 440 1447 359 41 199 40 318 83 403 52 1088 159 235
is_linear=0
shrinkage=0.05


Tree=29
num_leaves=31
num_cat=0
split_feature=0 7 6 0 1 0 1 6 8 0 8 0 1 0 6 9 4 0 1 0 8 1 7 9 3 1 4 7 5 4
split_gain=11.4124 4.6175 2.37014 4.378 2.81505 4.17787 2.069 1.49118 1.30788 1.02725 2.36562 1.00136 0.679717 0.694231 0.494475 0.470544 0.294682 0.466667 0.252799 0.552423 0.321111 0.219264 0.157895 0.151807 0.064376 0.116667 0.0516562 0.295714 0.0466547 0.0346154
threshold=0.87359386149886564 0.88389563277352257 0.28249180177686195 0.59845976218920649 0.18631507732852762 0.75089199092374193 0.42003905237013023 0.28249180177686195 0.49611208774356258 0.32870166210982915 0.25866118364066509 0.39955580856471645 0.64842184551584325 0.41115770399531754 0.35574398445965155 0.45971487375519687 0.86215941392618622 0.68743836242493261 0.48207711642637247 0.49535362930059895 0.49425049060397569 0.78732802513129596 0.59025630665448692 0.66893259903043167 0.48936954651591508 0.37635243850042993 0.70391832867278314 0.65298468132949183 0.040374115024735209 0.7922164960366066
decision_type=2 2 2 2 2 2 2 2 2 2 2 2 2 2 2 2 2 2 2 2 2 2 2 2 2 2 2 2 2 2
left_child=1 2 16 9 23 6 8 -3 15 21 11 -11 18 -14 -10 -6 26 -18 24 22 -21 -4 -20 -5 25 -12 28 -28 -1 -16
right_child=-2 7 3 4 5 -7 -8 -9 14 10 12 -13 13 -15 29 -17 17 -19 19 20 -22 -23 -24 -25 -26 -27 27 -29 -30 -31
leaf_value=-0.0064622781975773929 0.0021440476459655454 0.00032235633873077822 -0.0048461495480948153 -0.00041834247764594421 6.9495437091877799e-05 0.0015795026242670163 0.0010692036263931794 0.0012260189696884762 5.3507222540741187e-05 -1.6734656793484095e-06 -0.0024895777168663326 0.00043403124187376416 -0.00025785749513028048 9.6189300860013006e-05 -0.00012449724328642914 0.00026419573119011063 -0.001017828879126131 0.00032625369677921384 -1.1371707277263595e-05 7.0591892376617576e-05 -2.4842586366352453e-05 -0.00055122444339329756 -0.0010310673348221274 -5.5421902348301493e-07 -0.00083369377739729632 -0.00052199933812319382 -7.1113385840543836e-05 -0.00077749666662673073 -0.0034398562441840183 -0.00013771941035124516
leaf_weight=21 36 34 474 63 23 31 28 20 29 22 28 23 32 20 45 21 28 20 20 20 25 38 75 20 163 20 25 115 1016 20
leaf_count=21 36 34 474 63 23 31 28 20 29 22 28 23 32 20 45 21 28 20 20 20 25 38 75 20 163 20 25 115 1016 20
internal_value=0 -0.00279675 -0.00311359 -0.00157258 0.00392857 0.00718274 0.00403614 0.0116667 0.00152174 -0.00317708 -0.00142857 0.00944444 -0.00264268 0.00269231 -0.00180851 0.00863636 -0.00467347 -0.000833335 -0.00343305 -0.00178572 0.00277778 -0.00470703 -0.00394737 -0.00379518 -0.00452607 -0.00291667 -0.00483008 -0.00392857 -0.00495179 -0.00423077
internal_weight=0 2519 2465 1240 280 197 166 54 138 960 448 45 403 52 94 44 1225 48 351 140 45 512 95 83 211 48 1177 140 1037 65
internal_count=2555 2519 2465 1240 280 197 166 54 138 960 448 45 403 52 94 44 1225 48 351 140 45 512 95 83 211 48 1177 140 1037 65
is_linear=0
shrinkage=0.05


Tree=30
num_leaves=31
num_cat=0
split_feature=0 7 4 0 1 0 7 5 3 8 0 1 0 8 0 1 7 0 1 3 1 3 0 1 8 2 6 0 2 4
split_gain=11.903 3.83016 2.51678 1.96483 3.85967 2.52715 1.53148 1.66662 2.4243 1.11462 0.874917 1.36294 0.966376 0.646739 2.58088 1.29076 1.61831 0.58819 1.39286 0.738272 0.389842 0.235714 0.217688 0.817154 0.252757 0.479836 0.150969 0.618182 0.0576353 0.216033
threshold=0.84869428564556115 0.7563000667556744 0.91121651914677271 0.68244722219995035 0.27749330633004476 0.75089199092374193 0.49640968659967666 0.2661059484770007 0.52003195280816039 0.73217850884791169 0.33200904418662452 0.47907565580346106 0.41115770399531754 0.64225811307037162 0.62687919436181583 0.19250706696004588 0.65298468132949183 0.52343230089559911 0.42003905237013023 0.54768342140838167 0.75843601244224601 0.44309942239154493 0.3461646394753089 0.64842184551584325 0.45420414237313189 0.73857739776290487 0.59569539945509042 0.35140032552657535 0.60776977291471945 0.26202884148737032
decision_type=2 2 2 2 2 2 2 2 2 2 2 2 2 2 2 2 2 2 2 2 2 2 2 2 2 2 2 2 2 2
left_child=1 6 -2 17 9 -6 20 8 -8 -5 -10 -12 -13 14 22 21 -17 -3 -19 -20 26 -16 -9 24 25 -24 28 -28 -1 -30
right_child=2 3 -4 4 5 -7 7 13 10 -11 11 12 -14 -15 15 16 -18 18 19 -21 -22 -23 23 -25 -26 -27 27 -29 29 -31
leaf_value=-0.00538744874475954 0.0019261858963075204 -0.0011404163601235831 0.0019147949968327416 0.00036827024397615652 0.00085558217512776496 0.0013334763681423689 0.0014251555606420009 -0.0036665408828964554 -0.0028417097112824669 -0.00027007244748722333 -8.9170968103238595e-05 2.4915329430388829e-05 0.00047396421528356474 -0.0015647821237015306 3.5149318026768235e-05 0.00033691445257412109 0.00038959102852876979 -0.0004340727096305972 3.3360977214222952e-05 0.00046221375151402652 4.4723697548941662e-05 -0.00019440823858259414 2.7521872244867438e-05 0.00013415615203725791 -0.0012267793103780547 -0.0005420886316191793 -0.0050856372927838532 0.00012265414932574186 -0.00015203531665514093 -0.00430028347515475
leaf_weight=1049 34 59 20 22 36 21 21 200 46 47 26 21 20 238 20 21 39 48 31 25 21 22 38 21 144 39 68 20 32 106
leaf_count=1049 34 59 20 22 36 21 21 200 46 47 26 21 20 238 20 21 39 48 31 25 21 22 38 21 144 39 68 20 32 106
internal_value=0 -0.00280088 0.0209259 0.00261246 0.00730159 0.0169298 -0.00350814 -0.00194323 0.00320895 -0.000652175 0.000309733 0.00395522 0.00963415 -0.00282609 -0.001875 0.00529412 0.01 -0.00101227 0.00125 0.00660714 -0.0046142 -0.00142857 -0.00352941 -0.00252066 -0.00341629 -0.0011039 -0.00472549 -0.00272727 -0.00487363 -0.00391304
internal_weight=0 2501 54 289 126 57 2212 916 134 69 113 67 41 782 544 102 60 163 104 56 1296 42 442 242 221 77 1275 88 1187 138
internal_count=2555 2501 54 289 126 57 2212 916 134 69 113 67 41 782 544 102 60 163 104 56 1296 42 442 242 221 77 1275 88 1187 138
is_linear=0
shrinkage=0.05


Tree=31
num_leaves=31
num_cat=0
split_feature=7 0 7 0 0 8 0 1 4 8 6 0 5 3 3 1 6 2 0 7 9 0 1 2 2 1 0 0 1 1
split_gain=10.3029 3.1479 2.41475 2.35831 1.46572 4.73281 2.30798 1.83021 1.77812 1.87092 1.42788 0.711575 0.62139 1.47 0.455526 0.376602 0.305886 0.879746 0.288373 0.25876 0.207772 0.265301 0.458979 0.620205 0.167585 0.166636 1.48352 0.127302 0.11072 0.0508382
threshold=0.88389563277352257 0.87359386149886564 0.49640968659967666 0.84869428564556115 0.52343230089559911 0.55205514076287177 0.73105170741094139 0.41251176726463962 0.84825287143814554 0.69256383531610244 0.27323926765190248 0.59382140938574912 0.20110085711307638 0.67420425218139379 0.48322477571586592 0.75843601244224601 0.19250706696004588 0.60565065086268699 0.79077300534793671 0.6817620862904924 0.38905603610379846 0.28744557853128183 0.59272938915449669 0.71430381789416941 0.53321520617503204 0.51249349297509017 0.3204432292877703 0.73105170741094139 0.40863586535788771 0.69418821162819111
decision_type=2 2 2 2 2 2 2 2 2 2 2 2 2 2 2 2 2 2 2 2 2 2 2 2 2 2 2 2 2 2
left_child=1 2 15 10 12 6 7 14 16 -10 -2 -9 13 -4 -6 25 -7 -18 28 -16 21 -14 -23 -24 -22 27 -27 -1 -19 -26
right_child=3 -3 4 -5 5 8 -8 11 9 -11 -12 -13 20 -15 19 -17 17 18 -20 -21 24 22 23 -25 29 26 -28 -29 -30 -31
leaf_value=-0.0052158159052249327 0.00015644257931694507 0.0019030960927051352 0.00019265849631279095 0.0019600958435042788 0.0001080169449670659 -0.0013309485279138569 0.0013204596173740659 0.00034668393150254293 0.0006352619439544872 -0.00019189574688027551 0.0012136504477996105 0.0011939161373000272 -0.0038287146856848687 -0.00095797924629842574 -9.7482894616276634e-05 4.2487512671495075e-05 0.00011568982490741558 -0.00033955385247564913 0.00030361339090946381 4.9911586725954771e-05 -0.0011537277831876066 -0.0014201131760617617 6.3103443700028266e-05 -0.00046152925648960475 -0.001371214770281351 -0.0045703354105871355 0.00026032067618173878 -0.0022821508189318856 -3.1086250874065296e-05 -0.00097334363337775714
leaf_weight=1090 26 21 20 21 28 211 24 31 31 37 22 20 46 30 32 21 34 118 22 21 20 29 21 22 279 135 21 29 29 64
leaf_count=1090 26 21 20 21 28 211 24 31 31 37 22 20 46 30 32 21 34 118 22 21 20 29 21 22 279 135 21 29 29 64
internal_value=0 -0.00284795 -0.00301217 0.0167391 -0.00136442 0.000250783 0.00782051 0.00522727 -0.00219917 0.00529412 0.010625 0.0126471 -0.00330509 0.002 0.000555554 -0.00449846 -0.00342995 -0.00204434 -0.00352071 -0.00216981 -0.00385655 -0.0020339 -0.00013889 0.00313953 -0.00444904 -0.00460784 -0.00307692 -0.00482127 -0.00431973 -0.00470846
internal_weight=0 2486 2465 69 1169 638 156 132 482 68 48 51 531 50 81 1296 414 203 169 53 481 118 72 43 363 1275 156 1119 147 343
internal_count=2555 2486 2465 69 1169 638 156 132 482 68 48 51 531 50 81 1296 414 203 169 53 481 118 72 43 363 1275 156 1119 147 343
is_linear=0
shrinkage=0.05


Tree=32
num_leaves=31
num_cat=0
split_feature=0 7 7 5 0 1 0 6 0 8 4 3 8 9 4 4 1 2 1 6 0 0 8 9 0 8 4 0 5 5
split_gain=9.17075 3.95087 2.55501 1.80317 2.6625 2.59217 1.89033 1.75697 1.1403 3.10158 1.58723 1.13412 0.91617 0.875025 0.666667 0.594119 0.372239 0.273529 0.238762 0.219518 0.965909 0.203606 0.509091 0.145996 0.219643 0.294643 0.438312 0.126334 0.0819377 0.284401
threshold=0.87359386149886564 0.88389563277352257 0.49640968659967666 0.3204432292877703 0.32870166210982915 0.63341454240128559 0.54660802912099826 0.28249180177686195 0.59610250078174498 0.64225811307037162 0.83360680363291817 0.55051001597640437 0.58701653143699406 0.52913019623197521 0.71224954357421832 0.86626146841995799 0.75843601244224601 0.63454776975403882 0.54634855078863942 0.59569539945509042 0.35140032552657535 0.78520056766703294 0.76352462391761833 0.39576303276028163 0.28744557853128183 0.47672222585106661 0.70065979524392785 0.73105170741094139 0.57198066083498389 0.59417018785930209
decision_type=2 2 2 2 2 2 2 2 2 2 2 2 2 2 2 2 2 2 2 2 2 2 2 2 2 2 2 2 2 2
left_child=1 2 16 4 -4 6 18 -3 23 10 12 -8 13 14 -10 21 19 -14 -6 27 -21 -11 -23 24 -5 26 -26 -1 -25 -30
right_child=-2 7 3 8 5 -7 11 -9 9 15 -12 -13 17 -15 -16 -17 -18 -19 -20 20 -22 22 -24 28 25 -27 -28 -29 29 -31
leaf_value=-0.0048750529999231204 0.0018439561728248695 0.00027724656195843642 -0.0030799624411786495 -0.0045116755857155157 -0.0011895292573394891 0.00024476338111312218 0.0015957883348242082 0.0010588669299168043 -0.00010666702673881254 -0.00083745305684600462 0.00058662908698785818 0.00035111661962111175 0.0001384842078607817 0.00023478141255312064 0.0005937615981627608 9.8064026485820456e-05 4.0363137037923035e-05 -0.00034628556557297669 6.1139601938122046e-07 -0.0046028386576153005 0.00023784176065265027 0.00012942372074098963 -0.00074463834683395711 -0.0008951192714248418 -0.00098768338162667823 -0.00085774303909595434 0.00016148800325301878 -0.0027241001161503642 -2.2198703993343404e-06 -0.00109175997348097
leaf_weight=1159 36 34 69 41 36 27 23 20 27 217 22 28 20 34 27 30 21 31 23 68 20 20 35 187 22 22 20 28 22 186
leaf_count=1159 36 34 69 41 36 27 23 20 27 217 22 28 20 34 27 30 21 31 23 68 20 20 35 187 22 22 20 28 22 186
internal_value=0 -0.00263795 -0.00293104 -0.0012361 0.00300971 0.00704379 0.00363636 0.0107407 -0.00214434 -0.000356373 0.00524845 0.0106863 0.00327338 0.00636364 0.00240741 -0.00334437 -0.00445988 -0.00205882 -0.00245763 -0.00456863 -0.00215909 -0.00408088 -0.00136364 -0.0038 -0.00214286 -0.000312501 0.00214286 -0.00474726 -0.00424051 -0.00355769
internal_weight=0 2519 2465 1169 206 137 110 54 963 463 161 51 139 88 54 302 1296 51 59 1275 88 272 55 500 105 64 42 1187 395 208
internal_count=2555 2519 2465 1169 206 137 110 54 963 463 161 51 139 88 54 302 1296 51 59 1275 88 272 55 500 105 64 42 1187 395 208
is_linear=0
shrinkage=0.05


Tree=33
num_leaves=31
num_cat=0
split_feature=0 7 6 0 1 0 1 7 8 0 1 0 1 9 8 0 8 0 0 8 7 8 0 0 1 8 0 1 5 0
split_gain=9.08501 4.62545 1.84876 3.2436 2.18025 1.47722 2.5 1.45525 1.24896 2.40653 1.04933 3.34345 0.853186 0.838697 0.83732 1.4063 0.571154 1.34444 0.44391 0.794708 0.364297 0.809638 1.99262 0.263889 0.233644 0.0880759 0.335843 0.561497 0.0826228 0.113043
threshold=0.87359386149886564 0.77660784554845053 0.40466542925828825 0.32870166210982915 0.68926061682600948 0.73399427522229632 0.16020000655437619 0.9111512718712671 0.77351278126304635 0.68244722219995035 0.49859696662649183 0.49535362930059895 0.2865095049728853 0.28893084741920699 0.63862721765776731 0.50030067109789067 0.39356236705413267 0.40490374515919536 0.63138124293422926 0.50559757126182492 0.46532218396458419 0.52391392633698464 0.53633309546908714 0.3861819581305474 0.78732802513129596 0.69256383531610244 0.65823718539780807 0.13832715768426113 0.034100111448753558 0.14752928536493451
decision_type=2 2 2 2 2 2 2 2 2 2 2 2 2 2 2 2 2 2 2 2 2 2 2 2 2 2 2 2 2 2
left_child=1 2 20 24 5 10 -7 8 9 14 13 16 -11 -5 15 -3 17 -12 -15 -20 28 22 23 -22 -4 26 -23 -28 29 -1
right_child=-2 7 3 4 -6 6 -8 -9 -10 12 11 -13 -14 18 -16 -17 -18 -19 19 -21 21 25 -24 -25 -26 -27 27 -29 -30 -31
leaf_value=-0.0082077848947065945 0.0017517583641836272 -0.00081835594679294005 -0.0039581719523056362 0.00020325211854406271 0.00013571482162887461 -0.00024718039700846755 0.0013880818059043851 0.0011359283479548934 -0.00029241038897629334 0.00028505931617015787 -0.001048034055473107 0.00030905322134296744 0.0010438072970709634 -0.00067359764104227629 -0.00034962269841563664 0.00020309135491085626 -0.00083667279405426624 0.00012343901640583861 0.00033728786870484533 -0.00046506082326463707 -0.0044182018457228399 -0.0018534480989433532 0.00029975792639050163 -5.4552193819379331e-05 -0.00036194674170455523 -0.0016152217344995981 -0.0005872591664492677 9.5286937576490196e-05 -0.0052467874331745788 -0.00034068456494819723
leaf_weight=26 36 24 348 20 23 20 20 28 44 34 36 27 30 128 58 35 44 24 33 38 57 178 25 24 35 195 35 33 877 20
leaf_count=26 36 24 348 20 23 20 20 28 44 34 36 27 30 128 58 35 44 24 33 38 57 178 25 24 35 195 35 33 877 20
internal_value=0 -0.00251886 -0.00323478 -0.00129397 0.00177966 0.000897435 0.01 0.00389328 0.00255555 0.00439226 -0.000142858 0.00339695 0.0121875 -0.00226028 0.000128204 0.00432203 -0.000673078 0.0025 -0.00324121 -7.04237e-05 -0.00428572 -0.00326326 0.000660376 -0.00314815 -0.00460836 -0.00420635 -0.00357724 -0.000588236 -0.00489166 -0.00282609
internal_weight=0 2519 2266 796 413 390 40 253 225 181 350 131 64 219 117 59 104 60 199 71 1470 547 106 81 383 441 246 68 923 46
internal_count=2555 2519 2266 796 413 390 40 253 225 181 350 131 64 219 117 59 104 60 199 71 1470 547 106 81 383 441 246 68 923 46
is_linear=0
shrinkage=0.05


Tree=34
num_leaves=31
num_cat=0
split_feature=0 7 0 3 4 6 0 1 0 1 8 8 1 4 6 1 0 1 1 6 0 1 4 7 5 2 5 7 1 0
split_gain=9.15643 3.8064 1.46433 1.61123 1.7695 1.36267 2.55062 2.21443 1.09336 3.21939 1.14405 0.909376 0.727157 0.593774 1.1703 0.358974 0.344038 0.946914 0.286021 0.282617 0.800053 1.16873 0.229565 0.142857 0.419048 0.136508 0.132222 0.127401 0.126394 1.06203
threshold=0.87359386149886564 0.72757755955308856 0.49535362930059895 0.62596780140100783 0.92251739040003689 0.40466542925828825 0.32870166210982915 0.68926061682600948 0.68079152668756671 0.20647449395327985 0.25866118364066509 0.58701653143699406 0.62851058114731595 0.84825287143814554 0.32559939371537089 0.2865095049728853 0.54407838295074618 0.42998877616734094 0.78732802513129596 0.19250706696004588 0.61718956711379813 0.19250706696004588 0.54585634720713638 0.8120652097533555 0.6688488706793565 0.60333888135137881 0.462528363306901 0.74302798468132936 0.4456460018577259 0.36421292324468219
decision_type=2 2 2 2 2 2 2 2 2 2 2 2 2 2 2 2 2 2 2 2 2 2 2 2 2 2 2 2 2 2
left_child=1 5 27 4 11 19 18 8 10 -10 -8 -4 16 23 15 -15 26 25 -7 -1 28 22 -22 -13 -25 -18 -12 -3 -21 -30
right_child=-2 2 3 -5 -6 6 7 -9 9 -11 12 13 -14 14 -16 -17 17 -19 -20 20 21 -23 -24 24 -26 -27 -28 -29 29 -31
leaf_value=-0.0028720984572572781 0.0016641704459744461 -0.00011628870553307262 0.00066807946715452407 0.0002175509838419137 0.001177453481195635 -0.0040237563490156617 0.00025595227299950922 0.00015223324050083045 -0.00013011173432588591 0.0011163892021927933 -0.00095523524616986783 -0.00030460719279316553 3.9584670308288238e-05 -0.00030937988522791932 0.00034297235258856179 3.5747547480351969e-05 -6.6535966889517186e-06 0.00018914474519097699 -0.00024542640727668946 -0.0028280281282383763 -0.0021676503946443412 0.00030629143105607624 -2.0960483091266167e-05 6.3068390587491847e-05 -0.00027340197054206804 -0.00028603863251353814 -0.00018362624846872194 -0.0011247195697104738 -0.0040286125606751226 0.00032511552140207988
leaf_weight=901 36 23 39 31 33 341 30 20 32 23 119 84 21 28 23 24 20 22 29 273 44 28 25 20 22 43 25 63 113 20
leaf_count=901 36 23 39 31 33 341 30 20 32 23 119 84 21 28 23 24 20 22 29 273 44 28 25 20 22 43 25 63 113 20
internal_value=0 -0.0026181 0.00192308 0.00355263 0.00232601 -0.00344998 -0.00168966 0.00133803 0.000373133 0.00681818 -0.000892858 0.000833332 -0.002 -0.000522389 0.003 -0.00115385 -0.0028166 -0.000294119 -0.0045946 -0.00435898 -0.00340954 0.000670102 -0.00282609 -0.00261905 -0.000238096 -0.0034127 -0.00430556 -0.00383721 -0.00438424 -0.0031203
internal_weight=0 2519 390 304 273 2129 725 355 335 55 280 240 250 201 75 52 229 85 370 1404 503 97 69 126 42 63 144 86 406 133
internal_count=2555 2519 390 304 273 2129 725 355 335 55 280 240 250 201 75 52 229 85 370 1404 503 97 69 126 42 63 144 86 406 133
is_linear=0
shrinkage=0.05


Tree=35
num_leaves=31
num_cat=0
split_feature=0 4 0 1 6 0 8 1 0 1 1 0 4 8 3 0 3 1 6 2 0 8 4 5 6 6 7 5 1 0
split_gain=9.11354 3.60517 2.61889 4.62857 1.86863 2.93835 2.87737 2.025 1.26547 2.45455 0.95271 1.42446 1.00136 0.882573 0.786835 0.535023 0.840478 0.484198 0.654762 0.436364 0.395965 0.626431 0.297627 0.767743 0.250216 0.185606 0.13402 0.125169 0.122306 0.380952
threshold=0.87359386149886564 0.84825287143814554 0.69874359570561506 0.27749330633004476 0.28249180177686195 0.3861819581305474 0.27246483413183675 0.519997144532369 0.74888350798983339 0.19250706696004588 0.41251176726463962 0.56063533807458266 0.71224954357421832 0.38959351579162615 0.66019417475728182 0.45050953728722515 0.54049403957232411 0.78732802513129596 0.64198170362810003 0.63030952564997378 0.62687919436181583 0.46065228318996276 0.66047121628804517 0.64770968802366891 0.21989834933764008 0.35837912508527864 0.6130476600379452 0.10043216459136792 0.68926061682600948 0.2661059484770007
decision_type=2 2 2 2 2 2 2 2 2 2 2 2 2 2 2 2 2 2 2 2 2 2 2 2 2 2 2 2 2 2
left_child=1 4 15 24 22 17 7 -7 10 19 20 13 -13 14 -12 -3 -17 28 -19 -10 -8 -22 27 -24 -4 -23 -25 -1 -6 -30
right_child=-2 2 3 -5 5 6 8 -9 9 -11 11 12 -14 -15 -16 16 -18 18 -20 -21 21 25 23 26 -26 -27 -28 -29 29 -31
